
\data\
ngram 1=891
ngram 2=3478
ngram 3=326

\1-grams:
-3.429768	*	-0.1072339
-1.15452	</s>
-99	<s>	-0.4185013
-2.225901	A	-0.1152482
-3.429768	ABLE	-0.1072339
-3.307692	ABOUT	-0.1072339
-3.429768	ABSOLUTE	-0.1072339
-3.429768	ACCESS	-0.1072339
-3.429768	ACCIDENTALLY	-0.1072339
-3.429768	ACKNOWLEDGE	-0.1072339
-3.307692	ACOUSTIC	-0.1072339
-3.429768	ACTION	-0.1072339
-3.429768	ACTUAL	-0.1072339
-2.438409	ACTUALLY	-0.1072339
-3.307692	ADD	-0.1072339
-3.307692	ADDITIONAL	-0.1072339
-3.429768	ADJUST	-0.1072339
-3.114133	AFTER	-0.1072339
-2.656296	AGAIN	-0.254804
-3.429768	AHA	-0.1072339
-3.429768	ALGEBRA	-0.1072339
-3.429768	ALGORITHM	-0.1072339
-2.205386	ALL	-0.1909332
-3.429768	ALLOW	-0.1072339
-3.429768	ALLOWING	-0.1072339
-3.307692	ALMOST	-0.1072339
-3.429768	ALPHABET	-0.1072339
-2.976165	ALREADY	-0.1300574
-3.307692	ALRIGHT	-0.1072339
-2.603099	ALSO	-0.1467523
-3.429768	ALTERNATIVELY	-0.1072339
-3.429768	ALTHOUGH	-0.1072339
-3.429768	AMATEUR	-0.1072339
-3.307692	AMOUNT	-0.1667124
-2.603099	AN	-0.1174598
-1.651053	AND	-0.188106
-2.871621	ANOTHER	-0.1072339
-2.603099	ANY	-0.1072339
-3.307692	ANYTHING	-0.1072339
-3.429768	APPEND	-0.1072339
-3.429768	APPENDS	-0.1072339
-3.429768	APPLY	-0.1072339
-3.429768	APPROACH	-0.1072339
-3.429768	ARCHIVE	-0.1072339
-2.247432	ARE	-0.1374836
-3.307692	ARGUMENTS	-0.1072339
-3.429768	AROUND	-0.1072339
-3.429768	ART	-0.1072339
-2.205386	AS	-0.3059565
-2.438409	ASR	-0.3377051
-3.429768	ASSUME	-0.1072339
-3.429768	ASSUMED	-0.1072339
-3.114133	AT	-0.1072339
-3.429768	ATTACH	-0.1072339
-3.307692	ATTACHED	-0.1072339
-3.429768	ATTACHMENT	-0.1072339
-3.114133	ATTRIBUTES	-0.1072339
-2.319284	AUDIO	-0.4281096
-3.429768	AUTHORS	-0.1072339
-3.429768	AUTOMATED	-0.1072339
-3.114133	AUTOMATIC	-0.1072339
-2.871621	AUTOMATICALLY	-0.1072339
-3.429768	AUTOMATION	-0.1072339
-3.429768	AWAY	-0.1072339
-3.307692	AWK	-0.1072339
-3.429768	BACK	-0.1072339
-3.429768	BASE	-0.1072339
-3.114133	BASED	-0.294026
-3.429768	BASENAME	-0.1072339
-2.787424	BASH	-0.1261692
-3.429768	BASICALLY	-0.1072339
-3.429768	BASICS	-0.1072339
-3.429768	BASING	-0.1072339
-2.474102	BE	-0.1438512
-2.438409	BECAUSE	-0.289714
-3.429768	BECOME	-0.1072339
-3.114133	BEFORE	-0.1072339
-3.429768	BEGIN	-0.1072339
-3.114133	BEGINNERS	-0.1072339
-3.429768	BEGINNING	-0.1072339
-3.429768	BELONGS	-0.1072339
-3.114133	BELOW	-0.1459679
-3.429768	BESIDES	-0.1072339
-3.114133	BETTER	-0.1359557
-3.429768	BETWEEN	-0.1072339
-3.429768	BIG	-0.1072339
-3.429768	BIGGER	-0.1072339
-3.307692	BIT	-0.1072339
-3.429768	BORING	-0.1072339
-3.429768	BREAKS	-0.1072339
-3.429768	BRING	-0.1072339
-3.429768	BUILD	-0.1072339
-3.429768	BUILDS	-0.1072339
-2.474102	BUT	-0.1518058
-2.438409	BY	-0.1428625
-3.429768	C	-0.1072339
-3.429768	CALCULATIONS	-0.1072339
-3.307692	CALLED	-0.1072339
-2.603099	CAN	-0.1464035
-3.429768	CAPITAL	-0.1072339
-3.429768	CAREFUL	-0.1072339
-2.976165	CASE	-0.1300574
-3.429768	CD	-0.1072339
-3.114133	CHANGE	-0.1459678
-3.429768	CHANGED	-0.1072339
-3.429768	CHAPTER	-0.1072339
-2.976165	CHECK	-0.1072339
-3.429768	CHECKING	-0.1072339
-3.429768	CHECKS	-0.1072339
-3.307692	CHOICE	-0.1072339
-3.429768	CHOSEN	-0.1072339
-3.429768	CLONE	-0.1072339
-3.429768	CLUSTERS	-0.1072339
-3.429768	CODE	-0.1072339
-2.871621	COMMAND	-0.1541471
-3.307692	COMMANDS	-0.1072339
-3.114133	COMMENTS	-0.1459679
-3.307692	COMMON	-0.1072339
-3.429768	COMMUNICATE	-0.1072339
-3.307692	COMPARE	-0.1072339
-3.429768	COMPILATION	-0.1072339
-3.429768	COMPLAINT	-0.1072339
-3.429768	COMPLETE	-0.1072339
-3.429768	COMPLETELY	-0.1072339
-3.429768	COMPLEX	-0.1072339
-3.307692	COMPONENTS	-0.1072339
-3.429768	COMPRESSION	-0.1072339
-3.429768	CONF	-0.1072339
-3.307692	CONFIG	-0.1072339
-3.429768	CONFIGS	-0.1072339
-2.976165	CONFIGURATION	-0.2392772
-3.307692	CONNECT	-0.1667124
-3.429768	CONNECTS	-0.1072339
-3.429768	CONSIDER	-0.1072339
-3.429768	CONSIDERED	-0.1072339
-3.429768	CONSIST	-0.1072339
-3.429768	CONSISTENT	-0.1072339
-3.114133	CONTAIN	-0.1072339
-3.307692	CONTAINED	-0.1667124
-3.429768	CONTAINING	-0.1072339
-2.871621	CONTAINS	-0.1213574
-3.429768	CONTENT	-0.1072339
-3.429768	CONTENTS	-0.1072339
-3.429768	CONTROL	-0.1072339
-3.429768	CONVENIENT	-0.1072339
-3.429768	CONVINCED	-0.1072339
-3.429768	COOL	-0.1072339
-2.871621	COPY	-0.184551
-3.429768	CORPORA	-0.1072339
-3.307692	CORPUS	-0.1072339
-3.307692	CORRECT	-0.1667124
-3.429768	CORRECTLY	-0.1072339
-3.429768	COULD	-0.1072339
-3.429768	CPLUS	-0.1072339
-3.429768	CPU	-0.1072339
-2.405427	CREATE	-0.1427124
-2.976165	CREATED	-0.1072339
-3.429768	CREATING	-0.1072339
-3.429768	CREATION	-0.1072339
-3.429768	CTRL	-0.1072339
-3.429768	CURRENT	-0.1072339
-3.307692	CUT	-0.1072339
-3.307692	D	-0.1072339
-2.083838	DATA	-0.2268963
-2.555714	DATASET	-0.2481872
-2.716929	DATASETS	-0.1072339
-3.429768	DATE	-0.1072339
-3.429768	DEAL	-0.1072339
-3.429768	DEALS	-0.1072339
-3.429768	DECIDED	-0.1072339
-3.429768	DECODE	-0.1072339
-2.787424	DECODING	-0.2576107
-3.429768	DELIMITER	-0.1072339
-3.429768	DELVED	-0.1072339
-3.114133	DESCRIBED	-0.1072339
-3.429768	DESCRIPTION	-0.1072339
-3.307692	DETAILED	-0.1072339
-3.429768	DETAILS	-0.1072339
-3.429768	DEVELOPERS	-0.1072339
-3.429768	DICT	-0.1072339
-3.114133	DICTIONARY	-0.1072339
-3.307692	DID	-0.1072339
-3.429768	DIDN'T	-0.1072339
-3.429768	DIFFERENCE	-0.1072339
-3.429768	DIFFERENCES	-0.1072339
-2.716929	DIFFERENT	-0.1507458
-3.429768	DIGIT	-0.1072339
-2.787424	DIGITS	-0.1184957
-3.429768	DIR	-0.1072339
-3.429768	DIRECT	-0.1072339
-2.716929	DIRECTORIES	-0.1968121
-2.205386	DIRECTORY	-0.3428268
-3.429768	DISPLAYS	-0.1072339
-3.429768	DISTRIBUTED	-0.1072339
-3.429768	DIVIDE	-0.1072339
-2.656296	DO	-0.1736839
-3.307692	DOC	-0.1072339
-3.307692	DOCUMENTATION	-0.1072339
-3.429768	DOES	-0.1072339
-3.429768	DOESN'T	-0.1072339
-3.307692	DON'T	-0.1300574
-2.976165	DONE	-0.1261692
-3.114133	DOT	-0.1459679
-2.976165	DOWNLOAD	-0.1072339
-3.429768	DOWNLOADED	-0.1072339
-3.429768	DUMMIES	-0.1072339
-3.429768	DURATION	-0.1072339
-3.307692	DURING	-0.1072339
-3.307692	DYNAMIC	-0.1072339
-2.787424	EACH	-0.1627754
-3.429768	EASE	-0.1072339
-3.429768	EASIER	-0.1072339
-3.429768	EASY	-0.1072339
-3.429768	EDITOR	-0.1072339
-3.429768	EFFECT	-0.1072339
-3.429768	EGS	-0.1072339
-2.716929	EH	-0.1213574
-2.871621	EHM	-0.1072339
-3.429768	EITHER	-0.1072339
-3.307692	ELSE	-0.1459679
-3.429768	ENCOUNTER	-0.1072339
-3.429768	ENCOURAGE	-0.1072339
-3.114133	END	-0.1359557
-3.429768	ENDING	-0.1072339
-3.429768	ENDS	-0.1072339
-3.429768	ENGLISH	-0.1072339
-3.114133	ENOUGH	-0.1359557
-3.429768	ENTIRE	-0.1072339
-3.307692	ENVIRONMENT	-0.1072339
-3.429768	ENVIRONMENTS	-0.1072339
-3.307692	EVALUATE	-0.1072339
-3.429768	EVEN	-0.1072339
-3.429768	EVER	-0.1072339
-2.716929	EVERY	-0.1682564
-2.787424	EVERYTHING	-0.1459679
-2.871621	EXAMPLE	-0.1549465
-3.307692	EXAMPLES	-0.1072339
-3.429768	EXECUTABLE	-0.1072339
-3.429768	EXECUTES	-0.1072339
-3.114133	EXEMPLARY	-0.1072339
-3.429768	EXISTING	-0.1072339
-3.429768	EXIT	-0.1072339
-3.307692	EXPERIENCE	-0.1072339
-3.429768	EXPLANATION	-0.1072339
-3.429768	EXPRESSION	-0.1072339
-3.307692	EXTERNAL	-0.1072339
-3.307692	EXTRACTION	-0.1072339
-2.871621	F	-0.1072339
-3.429768	FACT	-0.1072339
-3.429768	FAMILIAR	-0.1072339
-3.307692	FEATURE	-0.1667124
-3.429768	FEATURES	-0.1072339
-3.307692	FEEL	-0.1667124
-3.429768	FELT	-0.1072339
-3.307692	FEMALE	-0.1072339
-2.787424	FIELD	-0.1359557
-3.114133	FIELDS	-0.1072339
-2.270087	FILE	-0.2318531
-3.429768	FILENAME	-0.1072339
-2.225901	FILES	-0.2349149
-3.429768	FILETWO	-0.1072339
-3.429768	FILL	-0.1072339
-3.429768	FINALIZATION	-0.1072339
-3.429768	FINALIZE	-0.1072339
-3.307692	FINALLY	-0.1072339
-2.787424	FIND	-0.1072339
-3.114133	FINISHED	-0.1459679
-3.429768	FINISHING	-0.1072339
-2.871621	FIRST	-0.1072339
-2.716929	FIVE	-0.1682564
-2.976165	FIX	-0.2392772
-3.429768	FIXES	-0.1072339
-3.429768	FIXING	-0.1072339
-2.512994	FOLDER	-0.2471284
-2.976165	FOLDERS	-0.1300574
-3.307692	FOLLOW	-0.1072339
-3.114133	FOLLOWING	-0.1459678
-3.429768	FOLLOWS	-0.1072339
-1.744241	FOR	-0.231658
-3.429768	FORM	-0.1072339
-3.307692	FORMAT	-0.1072339
-3.307692	FOUND	-0.1072339
-2.976165	FOUR	-0.1300574
-3.114133	FREE	-0.1072339
-2.149086	FROM	-0.1754964
-3.307692	FULL	-0.1667124
-3.429768	FUNCTIONALITY	-0.1072339
-3.429768	FURTHER	-0.1072339
-3.307692	FUTURE	-0.1072339
-2.976165	G	-0.1072339
-3.307692	GENDER	-0.1667124
-3.307692	GENDERS	-0.1072339
-3.429768	GENERAL	-0.1072339
-3.429768	GENERATE	-0.1072339
-3.429768	GENERATES	-0.1072339
-2.787424	GET	-0.1072339
-3.429768	GETTING	-0.1072339
-3.429768	GIT	-0.1072339
-3.429768	GIVE	-0.1072339
-3.429768	GLUED	-0.1072339
-2.603099	GO	-0.2623986
-2.787424	GOOD	-0.1402184
-3.429768	GRAM	-0.1072339
-3.429768	GRAMMAR	-0.1072339
-3.429768	GRAMMARS	-0.1072339
-3.114133	GREP	-0.1072339
-3.429768	GUIDE	-0.1072339
-3.429768	HABIT	-0.1072339
-3.429768	HAND	-0.1072339
-3.429768	HANDY	-0.1072339
-3.429768	HAPPENED	-0.1072339
-3.429768	HAPPENS	-0.1072339
-2.656296	HAS	-0.1682564
-2.438409	HAVE	-0.145543
-3.429768	HELP	-0.1072339
-2.656296	HERE	-0.1572204
-3.429768	HISTORICAL	-0.1072339
-3.429768	HISTORY	-0.1072339
-3.307692	HM	-0.1072339
-3.429768	HONESTLY	-0.1072339
-2.555714	HOW	-0.6372172
-3.429768	HTML	-0.1072339
-3.307692	HTTP	-0.1072339
-3.429768	HTTPS	-0.1072339
-3.429768	HUNDRED	-0.1072339
-2.054556	I	-0.2561116
-3.114133	I'M	-0.1072339
-2.716929	ID	-0.1459678
-3.429768	IDEA	-0.1072339
-3.429768	IDENTICAL	-0.1072339
-2.555714	IF	-0.2859758
-3.429768	IMAGINE	-0.1072339
-3.114133	IMPORTANT	-0.1072339
-3.429768	IMS	-0.1072339
-1.634595	IN	-0.3459277
-3.429768	INCONVENIENT	-0.1072339
-3.429768	INCORRECT	-0.1072339
-3.429768	INDIVIDUAL	-0.1072339
-3.429768	INFER	-0.1072339
-3.429768	INFORMATION	-0.1072339
-3.429768	INFORMS	-0.1072339
-3.307692	INPUT	-0.1667124
-2.976165	INSIDE	-0.1359557
-3.307692	INSTALL	-0.1072339
-2.871621	INSTALLATION	-0.2094614
-3.307692	INSTALLED	-0.1072339
-3.429768	INSTEAD	-0.1072339
-3.429768	INSTRUCTIONS	-0.1072339
-3.429768	INTENTION	-0.1072339
-2.871621	INTO	-0.1072339
-3.429768	INTRODUCTION	-0.1072339
-3.429768	INVERSE	-0.1072339
-1.93201	IS	-0.1779272
-3.429768	ISSUES	-0.1072339
-1.921462	IT	-0.241417
-2.346144	IT'S	-0.1604049
-3.307692	ITEM	-0.1072339
-3.429768	ITEMS	-0.1072339
-3.429768	ITS	-0.1072339
-2.716929	JACKSON	-0.4823152
-3.307692	JOB	-0.1072339
-3.307692	JOBS	-0.1072339
-3.429768	JOURNAL	-0.1072339
-3.429768	JUMP	-0.1072339
-2.346144	JUST	-0.1234131
-2.083838	KALDI	-0.1820324
-3.307692	KEPT	-0.1459679
-3.307692	KIND	-0.1072339
-2.976165	KNOW	-0.1402184
-3.429768	KNOWING	-0.1072339
-3.429768	KNOWLEDGE	-0.1072339
-3.429768	LABEL	-0.1072339
-3.429768	LABELING	-0.1072339
-2.976165	LABELS	-0.1072339
-2.512994	LANGUAGE	-0.2973798
-3.307692	LANGUAGES	-0.1072339
-3.307692	LAST	-0.1072339
-3.429768	LAUNCHED	-0.1072339
-3.429768	LAZY	-0.1072339
-3.307692	LEARN	-0.1072339
-3.429768	LEARNING	-0.1072339
-3.429768	LEAST	-0.1072339
-3.307692	LESS	-0.1072339
-3.429768	LET	-0.1072339
-2.787424	LET'S	-0.1234131
-3.114133	LEXICON	-0.1072339
-3.307692	LIBRARIES	-0.1072339
-3.307692	LIBRISPEECH	-0.1072339
-3.114133	LIKE	-0.1359557
-3.429768	LIKED	-0.1072339
-3.429768	LIKELY	-0.1072339
-3.307692	LINE	-0.1072339
-3.429768	LINEAR	-0.1072339
-3.114133	LINES	-0.1072339
-3.429768	LINGUISTIC	-0.1072339
-3.429768	LINK	-0.1072339
-3.114133	LINKS	-0.1072339
-2.871621	LINUX	-0.1072339
-2.716929	LIST	-0.1234131
-3.429768	LISTED	-0.1072339
-3.114133	LISTS	-0.1072339
-3.429768	LITTLE	-0.1072339
-3.429768	LM	-0.1072339
-2.871621	LOCAL	-0.1234131
-3.429768	LOCATION	-0.1072339
-3.429768	LOGS	-0.1072339
-2.871621	LOOK	-0.1906639
-3.429768	LOOKING	-0.1072339
-2.871621	LOOKS	-0.1667124
-3.307692	LOOP	-0.1072339
-3.429768	LOST	-0.1072339
-3.429768	M	-0.1072339
-3.429768	MACHINE	-0.1072339
-2.976165	MADE	-0.1072339
-3.429768	MAIN	-0.1072339
-3.307692	MAINLY	-0.1072339
-2.976165	MAKE	-0.1300574
-3.429768	MAKEFILE	-0.1072339
-3.429768	MAKING	-0.1072339
-3.307692	MALE	-0.1072339
-3.114133	MANY	-0.1072339
-3.114133	MAPPING	-0.294026
-3.429768	MATCHED	-0.1072339
-3.429768	MATCHING	-0.1072339
-3.114133	MAY	-0.1359557
-3.114133	ME	-0.1072339
-3.307692	MEAN	-0.1072339
-3.429768	MEANINGFUL	-0.1072339
-3.114133	MEANS	-0.1459678
-3.429768	MECHANISM	-0.1072339
-3.307692	MENTIONED	-0.1072339
-3.429768	MENTIONS	-0.1072339
-3.307692	METHODS	-0.1072339
-3.307692	MFCC	-0.1072339
-3.429768	MIDDLE	-0.1072339
-3.429768	MIGH	-0.1072339
-3.307692	MIGHT	-0.1667124
-2.976165	MINI	-0.4189648
-3.307692	MISSING	-0.1072339
-3.429768	MISTAKE	-0.1072339
-3.307692	MISTAKES	-0.1667124
-3.307692	MODE	-0.1072339
-3.307692	MODEL	-0.1072339
-3.429768	MODELING	-0.1072339
-3.429768	MODELLING	-0.1072339
-3.307692	MODIFICATIONS	-0.1667124
-3.429768	MODIFIED	-0.1072339
-3.429768	MODIFY	-0.1072339
-3.429768	MOMENT	-0.1072339
-3.429768	MONO	-0.1072339
-3.429768	MONOPHONE	-0.1072339
-2.871621	MORE	-0.2094614
-2.871621	MOST	-0.1072339
-3.429768	MUCH	-0.1072339
-3.307692	MUST	-0.1667124
-2.716929	MY	-0.1184957
-3.429768	N	-0.1072339
-2.656296	NAME	-0.1410478
-3.307692	NAMED	-0.1667124
-3.429768	NAMES	-0.1072339
-3.307692	NAMING	-0.1072339
-3.429768	NANO	-0.1072339
-2.871621	NECESSARY	-0.1072339
-2.656296	NEED	-0.3207379
-3.307692	NEEDED	-0.1072339
-2.976165	NEW	-0.1072339
-3.429768	NEWLY	-0.1072339
-3.307692	NEXT	-0.1213574
-3.429768	NICE	-0.1072339
-2.976165	NICOLAS	-0.1300574
-2.976165	NINE	-0.1359557
-3.429768	NJ	-0.1072339
-2.976165	NO	-0.1072339
-3.429768	NOISE	-0.1072339
-3.429768	NONSILENCE	-0.1072339
-3.307692	NORMAL	-0.1072339
-2.976165	NORMALLY	-0.1072339
-2.474102	NOT	-0.1213574
-3.429768	NOTHING	-0.1072339
-3.429768	NOTICABLE	-0.1072339
-3.307692	NOTICE	-0.1072339
-2.871621	NOW	-0.1279322
-2.976165	NUMBER	-0.1541472
-3.307692	OBVIOUSLY	-0.1667124
-3.429768	OCCUR	-0.1072339
-1.891273	OF	-0.244795
-3.307692	OFFICIAL	-0.1667124
-3.429768	OFTEN	-0.1072339
-3.429768	OH	-0.1072339
-3.114133	OKAY	-0.1072339
-2.555714	ON	-0.1428625
-2.027124	ONE	-0.2558468
-2.555714	ONLY	-0.1261692
-3.429768	OPEN	-0.1072339
-3.429768	OPERATE	-0.1072339
-3.307692	OPERATING	-0.1072339
-3.307692	OPERATIONS	-0.1072339
-3.429768	OPINION	-0.1072339
-3.429768	OPPOSITE	-0.1072339
-3.429768	OPTIMIZATION	-0.1072339
-3.307692	OPTION	-0.1459679
-3.429768	OPTIONAL	-0.1072339
-2.374775	OR	-0.1147092
-3.114133	ORDER	-0.1072339
-3.429768	ORG	-0.1072339
-2.976165	OTHER	-0.1300574
-3.429768	OTHERWISE	-0.1072339
-2.555714	OUR	-0.2093399
-2.976165	OUT	-0.1072339
-3.307692	OUTPUT	-0.1072339
-3.114133	OVER	-0.1459678
-3.114133	OWN	-0.1072339
-3.429768	PARALLEL	-0.1072339
-3.429768	PARENT	-0.1072339
-2.716929	PART	-0.2806646
-2.787424	PARTICULAR	-0.1402184
-3.429768	PARTS	-0.1072339
-3.429768	PASS	-0.1072339
-3.429768	PASTE	-0.1072339
-3.114133	PATH	-0.1300574
-3.114133	PATTERN	-0.1072339
-3.429768	PATTERNS	-0.1072339
-3.429768	PEOPLE	-0.1072339
-2.976165	PER	-0.1072339
-2.976165	PERFECT	-0.1359557
-3.114133	PERSON	-0.1072339
-3.429768	PERSONALLY	-0.1072339
-3.429768	PHOENIX	-0.1072339
-2.976165	PHONE	-0.1072339
-2.976165	PHONES	-0.1072339
-3.307692	PHONETIC	-0.1072339
-3.429768	PIECE	-0.1072339
-3.429768	PLACE	-0.1072339
-3.114133	PLACED	-0.1459679
-3.429768	PLAIN	-0.1072339
-3.429768	PLAY	-0.1072339
-3.307692	PLEASE	-0.1072339
-3.429768	PLUS	-0.1072339
-3.307692	POINT	-0.1072339
-3.429768	POINTS	-0.1072339
-3.429768	POPULAR	-0.1072339
-3.429768	PORTABLE	-0.1072339
-3.114133	POSSIBLE	-0.1459679
-3.429768	PRE-RECORDED	-0.1072339
-3.307692	PRECISELY	-0.1072339
-3.429768	PRECONDITION	-0.1072339
-3.429768	PREDEFINED	-0.1072339
-3.307692	PREPARATION	-0.1072339
-3.429768	PREPARE	-0.1072339
-3.307692	PREPARED	-0.1072339
-3.429768	PRESENT	-0.1072339
-3.429768	PREVIOUS	-0.1072339
-3.307692	PRINT	-0.1667124
-3.429768	PRINTS	-0.1072339
-3.307692	PROBABLY	-0.1072339
-3.307692	PROBLEM	-0.1072339
-3.307692	PROBLEMS	-0.1072339
-3.429768	PROCEED	-0.1072339
-3.429768	PROCESS	-0.1072339
-3.429768	PROCESSES	-0.1072339
-3.307692	PROCESSING	-0.1072339
-3.429768	PROGRAM	-0.1072339
-3.114133	PROGRAMMING	-0.2094614
-3.429768	PROGRAMS	-0.1072339
-2.787424	PROJECT	-0.219409
-3.429768	PRONOUNCED	-0.1072339
-3.429768	PRONUNCIATION	-0.1072339
-3.114133	PROPER	-0.1072339
-3.429768	PROPERLY	-0.1072339
-3.429768	PROVIDE	-0.1072339
-3.429768	PSEUDO	-0.1072339
-3.307692	PURPOSE	-0.1072339
-2.871621	PUT	-0.1072339
-3.307692	PYTHON	-0.1667124
-3.429768	QUALITY	-0.1072339
-3.429768	QUANTITY	-0.1072339
-3.307692	QUICKLY	-0.1072339
-2.976165	QUITE	-0.1234131
-3.429768	R	-0.1072339
-3.114133	READ	-0.1072339
-3.114133	READY	-0.1459679
-3.429768	REALLY	-0.1072339
-3.429768	REASON	-0.1072339
-3.429768	REASONS	-0.1072339
-3.429768	RECIPE	-0.1072339
-2.976165	RECIPIES	-0.1300574
-2.555714	RECIPY	-0.1836454
-3.429768	RECOGNITION	-0.1072339
-3.307692	RECOGNIZABLE	-0.1072339
-3.429768	RECOMMEND	-0.1072339
-3.429768	RECOMMENDED	-0.1072339
-3.429768	RECORD	-0.1072339
-3.429768	RECORDED	-0.1072339
-2.716929	RECORDING	-0.1402184
-3.429768	RECORDINGID	-0.1072339
-2.787424	RECORDINGS	-0.1234131
-3.307692	REDIRECTION	-0.1072339
-3.429768	REGULAR	-0.1072339
-3.429768	RELATE	-0.1072339
-2.871621	RELATED	-0.5158748
-3.429768	RELATES	-0.1072339
-3.429768	RELATIVELY	-0.1072339
-3.429768	REMOVES	-0.1072339
-3.429768	REPEAT	-0.1072339
-3.429768	REPRESENT	-0.1072339
-3.429768	REPRESENTATION	-0.1072339
-3.429768	REPRESENTING	-0.1072339
-3.429768	REQUIREMENT	-0.1072339
-3.429768	REQUIRES	-0.1072339
-3.429768	RESOURCES	-0.1072339
-3.429768	REST	-0.1072339
-3.307692	RESULT	-0.1072339
-2.976165	RESULTS	-0.1261692
-3.307692	REVISION	-0.1667124
-3.429768	RICH	-0.1072339
-3.429768	RIGHT	-0.1072339
-3.429768	RM	-0.1072339
-3.429768	ROOT	-0.1072339
-3.429768	ROUGHLY	-0.1072339
-3.429768	RULE	-0.1072339
-3.307692	RUN	-0.1072339
-3.429768	RUNNIG	-0.1072339
-2.871621	RUNNING	-0.1300574
-3.429768	RUNS	-0.1072339
-3.429768	S5	-0.1072339
-3.429768	SAFETY	-0.1072339
-3.429768	SAID	-0.1072339
-3.307692	SAME	-0.1072339
-3.307692	SAVE	-0.1072339
-3.429768	SAVES	-0.1072339
-3.429768	SAY	-0.1072339
-3.429768	SAYS	-0.1072339
-3.307692	SCORING	-0.1667124
-3.307692	SCP	-0.1300574
-3.429768	SCRATCH	-0.1072339
-2.656296	SCRIPT	-0.1627754
-2.293989	SCRIPTS	-0.1808144
-3.429768	SCROLL	-0.1072339
-3.429768	SEARCH	-0.1072339
-3.429768	SEARCHING	-0.1072339
-3.429768	SECOND	-0.1072339
-3.429768	SECONDS	-0.1072339
-3.114133	SECTION	-0.1300574
-3.429768	SECTIONS	-0.1072339
-3.429768	SED	-0.1072339
-2.716929	SEE	-0.1434431
-3.429768	SEES	-0.1072339
-2.976165	SELECT	-0.1300574
-3.429768	SEND	-0.1072339
-3.114133	SENTENCE	-0.1072339
-3.307692	SENTENCES	-0.1072339
-3.114133	SEPARATE	-0.1072339
-3.307692	SEPARATED	-0.1072339
-3.429768	SERVER	-0.1072339
-3.429768	SERVERS	-0.1072339
-3.429768	SESSION	-0.1072339
-2.716929	SET	-0.2167839
-3.429768	SETS	-0.1072339
-3.429768	SETTING	-0.1072339
-3.429768	SEVEN	-0.1072339
-3.429768	SEVERAL	-0.1072339
-3.429768	SH	-0.1072339
-3.114133	SHARED	-0.1072339
-3.429768	SHELL	-0.1072339
-3.307692	SHIFT	-0.1072339
-3.307692	SHORT	-0.1072339
-3.429768	SHORTEST	-0.1072339
-2.787424	SHOULD	-0.1359557
-3.114133	SHOW	-0.2094614
-2.976165	SILENCE	-0.1359557
-3.429768	SIMILAR	-0.1072339
-2.976165	SIMPLE	-0.1072339
-3.429768	SIMPLER	-0.1072339
-3.114133	SINCE	-0.1459679
-3.429768	SINGLE	-0.1072339
-3.429768	SITE	-0.1072339
-3.429768	SITUATION	-0.1072339
-3.307692	SIX	-0.1667124
-3.429768	SIZE	-0.1072339
-3.429768	SLIGHTLY	-0.1072339
-3.114133	SMALL	-0.1459679
-2.474102	SO	-0.2068578
-3.429768	SOFTWARE	-0.1072339
-3.429768	SOLID	-0.1072339
-3.429768	SOLUTION	-0.1072339
-2.270087	SOME	-0.1123167
-2.976165	SOMETHING	-0.1072339
-3.307692	SORRY	-0.1072339
-3.429768	SORTED	-0.1072339
-2.976165	SORTING	-0.1072339
-3.429768	SORTS	-0.1072339
-3.114133	SOURCE	-0.294026
-2.976165	SPACE	-0.1300574
-2.405427	SPEAKER	-0.2203839
-2.871621	SPEAKERID	-0.1072339
-2.438409	SPEAKERS	-0.174781
-3.307692	SPECIAL	-0.1072339
-3.429768	SPECIFIC	-0.1072339
-3.307692	SPECIFY	-0.1072339
-2.555714	SPEECH	-0.2651665
-3.429768	SPLIT	-0.1072339
-2.787424	SPOKEN	-0.3177304
-3.429768	SRI	-0.1072339
-3.307692	SRILM	-0.1072339
-3.429768	STABLE	-0.1072339
-3.307692	STANDS	-0.1667124
-3.307692	STAR	-0.1072339
-2.976165	START	-0.1359557
-3.429768	STARTED	-0.1072339
-3.429768	STARTING	-0.1072339
-3.429768	STATIC	-0.1072339
-2.871621	STEP	-0.1300574
-3.307692	STEPS	-0.1359557
-3.429768	STICK	-0.1072339
-3.429768	STILL	-0.1072339
-3.429768	STOP	-0.1072339
-3.429768	STORE	-0.1072339
-3.307692	STORED	-0.1072339
-3.429768	STRAIGHT	-0.1072339
-3.429768	STRANGE	-0.1072339
-3.429768	STREAMS	-0.1072339
-3.429768	STREET	-0.1072339
-3.307692	STRING	-0.1667124
-3.307692	STRINGS	-0.1072339
-2.976165	STRUCTURE	-0.1072339
-3.307692	STUFF	-0.1072339
-3.429768	SUBCOMMAND	-0.1072339
-3.429768	SUBFOLDER	-0.1072339
-3.307692	SUBFOLDERS	-0.1072339
-3.429768	SUBJECT	-0.1072339
-3.429768	SUBVERSION	-0.1072339
-3.429768	SUCCESSFUL	-0.1072339
-3.114133	SUCCESSFULLY	-0.1072339
-2.871621	SUCH	-0.1300574
-3.429768	SUDDENLY	-0.1072339
-3.307692	SUGGEST	-0.1072339
-3.429768	SUGGESTS	-0.1072339
-3.429768	SUM	-0.1072339
-3.429768	SUMMARY	-0.1072339
-3.429768	SUPPLIES	-0.1072339
-3.429768	SURE	-0.1072339
-3.429768	SURROUNDED	-0.1072339
-3.429768	SWITCHES	-0.1072339
-3.429768	SYMBOLIC	-0.1072339
-3.429768	SYMLINK	-0.1072339
-3.429768	SYNTAX	-0.1072339
-2.716929	SYSTEM	-0.185349
-2.976165	SYSTEMS	-0.1906639
-3.429768	TAKE	-0.1072339
-3.307692	TAKEN	-0.1667124
-3.429768	TAKES	-0.1072339
-3.307692	TASK	-0.1667124
-3.429768	TEAMLAB	-0.1072339
-2.976165	TELLS	-0.1300574
-3.429768	TEN	-0.1072339
-3.307692	TERMINAL	-0.1072339
-2.871621	TEST	-0.1261692
-3.429768	TESTED	-0.1072339
-2.976165	TESTING	-0.1300574
-2.319284	TEXT	-0.2981237
-3.429768	THAN	-0.1072339
-1.965285	THAT	-0.2597979
-2.976165	THAT'S	-0.1072339
-1.758325	THE	-0.2207526
-3.429768	THEIR	-0.1072339
-2.976165	THEM	-0.1072339
-3.307692	THEN	-0.1072339
-2.787424	THEO	-0.2576107
-2.405427	THERE	-0.1975573
-2.512994	THESE	-0.1531643
-3.114133	THEY	-0.1072339
-3.114133	THING	-0.1072339
-3.114133	THINK	-0.1072339
-3.429768	THIRD	-0.1072339
-3.429768	THIRTY	-0.1072339
-2.054556	THIS	-0.217332
-3.307692	THOUSAND	-0.1072339
-2.512994	THREE	-0.1261692
-3.429768	THROUGH	-0.1072339
-3.114133	TIME	-0.1072339
-3.114133	TIMES	-0.1072339
-1.629245	TO	-0.2329451
-3.429768	TOOL	-0.1072339
-2.871621	TOOLKIT	-0.1072339
-2.656296	TOOLS	-0.1386635
-3.429768	TOTAL	-0.1072339
-3.429768	TRACKS	-0.1072339
-3.429768	TRADITION	-0.1072339
-2.716929	TRAIN	-0.1197653
-3.429768	TRAINED	-0.1072339
-2.656296	TRAINING	-0.1496666
-3.429768	TRANSCRIBING	-0.1072339
-2.976165	TRANSCRIPTION	-0.1234131
-3.114133	TRANSCRIPTIONS	-0.1072339
-3.429768	TRANSFER	-0.1072339
-3.429768	TRANSPOSE	-0.1072339
-3.114133	TRIPHONE	-0.1072339
-3.429768	TRUE	-0.1072339
-3.429768	TRUSTWORTHY	-0.1072339
-2.976165	TRY	-0.4189648
-2.787424	TUTORIAL	-0.1359557
-3.429768	TUTORIALS	-0.1072339
-2.319284	TWO	-0.1429664
-3.307692	TXT	-0.1072339
-3.429768	UBUNTU	-0.1072339
-3.429768	UNAMBIGUOUS	-0.1072339
-3.429768	UNCOMMENT	-0.1072339
-3.429768	UNDER	-0.1072339
-3.114133	UNDERSCORE	-0.1072339
-3.429768	UNDERSCORES	-0.1072339
-3.307692	UNDERSTANDING	-0.1072339
-3.429768	UNDERSTOOD	-0.1072339
-3.429768	UNIFORM	-0.1072339
-3.429768	UNIQUE	-0.1072339
-3.429768	UNIT	-0.1072339
-3.429768	UNIX	-0.1072339
-3.429768	UNKNOWN	-0.1072339
-3.429768	UNTIL	-0.1072339
-3.114133	UP	-0.1072339
-3.429768	UPDATE	-0.1072339
-3.429768	UPDATES	-0.1072339
-3.429768	URL	-0.1072339
-3.307692	US	-0.1072339
-2.555714	USE	-0.1308662
-2.555714	USED	-0.2117779
-2.976165	USEFUL	-0.1072339
-2.716929	USING	-0.1234131
-2.787424	USUALLY	-0.1072339
-3.429768	UTERRANCEID	-0.1072339
-3.429768	UTILITY	-0.1072339
-2.787424	UTILS	-0.1777184
-2.293989	UTTERANCE	-0.2041844
-3.429768	UTTERANCEID	-0.1072339
-2.603099	UTTERANCES	-0.124683
-3.307692	VALIDATE	-0.1072339
-3.307692	VALIDATED	-0.1072339
-3.307692	VALIDATION	-0.1072339
-3.429768	VALUES	-0.1072339
-3.429768	VARIABLE	-0.1072339
-3.307692	VARIOUS	-0.1072339
-2.976165	VERY	-0.1072339
-3.307692	VIDEO	-0.1072339
-3.114133	VIM	-0.1072339
-3.429768	VISIBLE	-0.1072339
-3.307692	VOXFORGE	-0.1072339
-3.429768	WAITING	-0.1072339
-3.114133	WALL	-0.294026
-3.114133	WANT	-0.294026
-3.429768	WARNING	-0.1072339
-2.976165	WAS	-0.1072339
-2.656296	WAV	-0.2471284
-2.656296	WAY	-0.1682564
-1.881658	WE	-0.4659523
-3.429768	WEBONE	-0.1072339
-3.307692	WEBSITE	-0.1072339
-3.114133	WELL	-0.1359557
-3.307692	WERE	-0.1072339
-2.976165	WHAT	-0.1072339
-3.429768	WHATEVER	-0.1072339
-2.976165	WHEN	-0.1072339
-3.114133	WHERE	-0.1072339
-2.185797	WHICH	-0.2127754
-3.429768	WHILE	-0.1072339
-3.429768	WHOLE	-0.1072339
-3.307692	WHY	-0.1072339
-3.429768	WIDELY	-0.1072339
-2.405427	WILL	-0.1757547
-3.429768	WINDOW	-0.1072339
-3.307692	WINDOWS	-0.1667124
-3.429768	WIT	-0.1072339
-2.014032	WITH	-0.1500073
-2.787424	WITHOUT	-0.1261692
-2.976165	WORD	-0.1072339
-2.871621	WORDS	-0.1300574
-3.114133	WORK	-0.1072339
-3.307692	WORKING	-0.1072339
-3.429768	WORKS	-0.1072339
-2.603099	WOULD	-0.1939636
-3.307692	WRITE	-0.1072339
-3.429768	WRITTEN	-0.1072339
-3.429768	WRONG	-0.1072339
-3.307692	YEAH	-0.1072339
-3.429768	YES	-0.1072339
-3.429768	YESNO	-0.1072339
-3.307692	YET	-0.1072339
-2.027124	YOU	-0.2903692
-2.247432	YOUR	-0.2155621
-3.429768	YWELWER	-0.1072339
-2.976165	YWEWELER	-0.1359557
-2.555714	ZERO	-0.1609745
-3.429768	ZIELINSKI	-0.1072339

\2-grams:
-0.5630019	* </s>
-3.17613	<s> ACOUSTIC
-2.555122	<s> ACTUALLY
-3.17613	<s> ADDITIONAL
-3.207204	<s> ADJUST
-3.112329	<s> AFTER
-3.207204	<s> AHA
-2.544209	<s> ALL
-3.17613	<s> ALMOST
-2.800534	<s> ALRIGHT
-2.378783	<s> ALSO
-3.207204	<s> ALTHOUGH
-1.123745	<s> AND	-0.1080108
-2.108209	<s> AS
-2.555122	<s> ASR	-0.1066434
-2.636809	<s> AUDIO
-3.112329	<s> AUTOMATIC
-3.003717	<s> AUTOMATICALLY
-3.207204	<s> AUTOMATION
-3.17613	<s> AWK
-3.207204	<s> BASICALLY
-3.207204	<s> BASING
-2.754658	<s> BE
-3.207204	<s> BESIDES
-2.051302	<s> BUT
-2.72839	<s> BY
-3.112329	<s> CHANGE
-3.003717	<s> COMMAND
-3.054637	<s> CONFIGURATION
-3.207204	<s> CONSIDER
-3.207204	<s> COOL
-3.207204	<s> CPLUS
-2.16008	<s> CREATE	-0.2384586
-2.81335	<s> CREATING
-3.17613	<s> D
-2.067405	<s> DATA	-0.04874302
-2.916907	<s> DIRECTORIES
-2.544209	<s> DIRECTORY
-3.207204	<s> DISTRIBUTED
-3.17613	<s> DOC
-2.74518	<s> DONE
-3.054637	<s> DOWNLOAD
-3.17613	<s> DYNAMIC
-1.982304	<s> EACH	-0.03086108
-2.672193	<s> EH
-3.003717	<s> EHM
-3.17613	<s> ENVIRONMENT
-2.916907	<s> EVERY
-3.003717	<s> EXAMPLE
-2.719464	<s> F
-3.17613	<s> FEEL
-2.59737	<s> FILE
-2.426939	<s> FIRST	-0.3618829
-2.211182	<s> FIVE	-0.1066434
-1.633899	<s> FOR	-0.1823487
-2.226547	<s> FROM	-0.06795216
-2.958147	<s> GET
-3.207204	<s> GETTING
-2.378783	<s> GO	-0.3618829
-3.207204	<s> GRAM
-2.879246	<s> HAS
-1.712467	<s> HERE	-0.2060781
-3.17613	<s> HM
-2.812499	<s> HOW
-2.81335	<s> HTML
-1.580255	<s> I	-0.01460187
-3.112329	<s> I'M
-1.884629	<s> IF	-0.3092709
-3.207204	<s> IMAGINE
-1.41639	<s> IN	-0.3634048
-3.054637	<s> INSIDE
-3.207204	<s> INTRODUCTION
-1.415276	<s> IT	-0.286525
-2.506624	<s> IT'S
-2.657958	<s> JUST
-2.195574	<s> KALDI
-2.59075	<s> LANGUAGE
-3.17613	<s> LAST
-3.207204	<s> LET
-1.829966	<s> LET'S
-3.17613	<s> LIBRISPEECH
-3.17613	<s> LINE
-3.207204	<s> LM
-3.003717	<s> LOCAL
-2.81335	<s> LOGS
-3.003717	<s> LOOK
-3.207204	<s> M
-3.207204	<s> MAIN
-3.054637	<s> MAKE
-3.207204	<s> MONO
-3.207204	<s> MONOPHONE
-3.003717	<s> MOST
-2.672193	<s> MY
-3.003717	<s> NECESSARY
-2.466385	<s> NEXT
-3.054637	<s> NINE
-3.207204	<s> NJ
-3.054637	<s> NO
-3.054637	<s> NORMALLY
-2.754658	<s> NOT
-1.436942	<s> NOW	-0.3548941
-3.17613	<s> OFFICIAL
-3.207204	<s> OH
-1.595096	<s> OKAY	-0.02772859
-2.812499	<s> ON
-1.70023	<s> ONE	-0.1803981
-3.17613	<s> OPERATING
-2.68019	<s> OR
-2.81335	<s> ORG
-1.910979	<s> PATTERN	-0.1193608
-3.054637	<s> PERFECT
-3.207204	<s> PERSONALLY
-3.17613	<s> PLEASE
-3.17613	<s> PROBABLY
-3.112329	<s> PROGRAMMING
-2.958147	<s> PROJECT
-2.719464	<s> PUT
-3.17613	<s> PYTHON
-3.054637	<s> QUITE
-3.17613	<s> REVISION
-3.207204	<s> RULE
-3.003717	<s> RUNNING
-3.207204	<s> SAFETY
-3.17613	<s> SCORING
-2.672193	<s> SEE	-0.1066434
-3.054637	<s> SELECT
-3.17613	<s> SENTENCES
-2.916907	<s> SET
-3.207204	<s> SETTING
-2.81335	<s> SH	-0.1066434
-3.054637	<s> SIMPLE
-3.112329	<s> SINCE
-3.17613	<s> SIX
-1.616129	<s> SO	-0.0313605
-3.054637	<s> SOMETHING
-3.003717	<s> SPEAKERID
-3.207204	<s> SRI
-3.17613	<s> SRILM
-3.054637	<s> START
-3.207204	<s> SUMMARY
-3.17613	<s> TAKEN
-3.17613	<s> TASK
-3.003717	<s> TEST
-2.636809	<s> TEXT
-1.598572	<s> THE	-0.1030391
-2.466385	<s> THEN
-2.703622	<s> THERE
-2.35657	<s> THESE
-3.112329	<s> THEY
-1.297938	<s> THIS	-0.2922787
-2.59075	<s> THREE
-1.914075	<s> TO
-2.650356	<s> TOOLS
-2.916907	<s> TRAIN
-3.112329	<s> TRIPHONE
-3.054637	<s> TRY
-3.207204	<s> UNCOMMENT
-3.207204	<s> UNIX
-3.112329	<s> UP
-2.609725	<s> USE
-2.812499	<s> USED
-3.054637	<s> USEFUL
-2.695185	<s> UTILS
-3.207204	<s> UTTERANCEID
-3.054637	<s> VERY
-3.17613	<s> VOXFORGE
-2.203503	<s> WAV	-0.04947972
-1.462217	<s> WE	-0.3100334
-3.112329	<s> WELL
-3.207204	<s> WHATEVER
-3.054637	<s> WHEN
-2.527843	<s> WHICH
-2.108288	<s> YEAH	-0.0815407
-3.207204	<s> YES
-1.655014	<s> YOU	-0.1004366
-1.849559	<s> YOUR	-0.02596283
-1.229581	A </s>
-2.260076	A BASE
-2.236644	A BETTER
-1.808057	A BIT
-2.030251	A FILE
-2.1213	A FOLDER	-0.2297804
-1.720574	A FOR
-2.236644	A FREE
-2.18973	A GOOD
-2.175154	A LIST
-2.260076	A LITTLE
-2.204812	A LOCAL
-2.204812	A LOOK
-2.260076	A MISTAKE
-1.808057	A MODEL	-0.06723786
-2.161052	A NAME
-2.220436	A NEW
-2.175154	A PART
-2.18973	A PARTICULAR
-2.260076	A PLACE
-2.252823	A PROBLEM
-2.252823	A RECOGNIZABLE
-2.260076	A RECORDINGID
-2.260076	A REGULAR
-2.260076	A RICH
-2.252823	A SCORING
-2.175154	A SET
-2.252823	A SHORT
-2.220436	A SIMPLE
-2.260076	A SITUATION
-2.260076	A SLIGHTLY
-2.236644	A SMALL
-2.252823	A SPECIAL
-2.204812	A STEP
-2.252823	A TERMINAL
-1.724533	A TEXT	-0.1066434
-2.260076	A TRADITION
-2.260076	A UNIQUE
-2.161052	A WAY
-0.6249985	ABLE TO
-0.9498395	ABOUT SPEAKERS
-0.9524546	ABOUT SPEECH
-0.6587758	ABSOLUTE BEGINNERS
-0.6574439	ACCESS UTILS
-0.6534728	ACCIDENTALLY OR
-0.6587758	ACKNOWLEDGE WHERE
-0.9361521	ACOUSTIC DATA
-0.9515811	ACOUSTIC LANGUAGE
-0.6465013	ACTION I
-0.6508453	ACTUAL FILES
-1.85496	ACTUALLY APPLY
-1.831961	ACTUALLY CONTAINS
-1.85496	ACTUALLY EASIER
-1.838637	ACTUALLY G
-1.85496	ACTUALLY HAPPENED
-1.641864	ACTUALLY IS
-1.764592	ACTUALLY IT'S
-1.764592	ACTUALLY JUST
-1.838637	ACTUALLY KNOW
-1.818909	ACTUALLY LIST
-1.852039	ACTUALLY NORMAL
-1.563792	ACTUALLY THE
-1.800038	ACTUALLY USE
-1.838637	ACTUALLY VERY
-1.620991	ACTUALLY WE
-1.776089	ACTUALLY WILL
-1.112802	ADD FILE
-1.13088	ADD NECESSARY
-1.062686	ADD THE
-0.9542068	ADDITIONAL TOOLS
-0.9568483	ADDITIONAL WORDS
-0.6570009	ADJUST MY
-1.135362	AFTER FINISHING
-1.135362	AFTER SUCCESSFUL
-1.095446	AFTER YOU
-0.457901	AGAIN </s>
-1.400447	AGAIN AND
-1.048676	AGAIN THE
-1.485003	AGAIN WITH
-0.6587758	AHA OKAY
-0.5630019	ALGEBRA </s>
-0.6561162	ALGORITHM CAN
-1.284199	ALL </s>
-2.134739	ALL BASED
-2.134739	ALL BEGINNERS
-2.134739	ALL COMMENTS
-2.14542	ALL COMMON
-2.092932	ALL DATASETS
-2.134739	ALL FIELDS
-1.301529	ALL FILES
-1.674483	ALL FIVE	-0.1066434
-1.734071	ALL FOR
-2.123904	ALL FOUR
-2.123904	ALL NEW
-1.889751	ALL ONE
-1.686041	ALL OTHER
-2.064022	ALL OUR
-2.134739	ALL SHARED
-2.113332	ALL SUCH
-2.150164	ALL TEN
-0.820729	ALL THE
-2.054798	ALL THESE
-2.073447	ALL UTTERANCES
-1.815365	ALL WE
-1.889751	ALL YOU
-0.6473666	ALLOW KALDI
-0.6456377	ALLOWING YOU
-0.9586184	ALMOST READY
-0.9568483	ALMOST STEP
-0.6547925	ALPHABET SO
-1.349161	ALREADY CONTAINS
-1.35621	ALREADY DOWNLOADED
-0.8853459	ALREADY HAVE
-1.351234	ALREADY OUT
-1.120458	ALRIGHT BECAUSE
-1.097884	ALRIGHT I
-1.084644	ALRIGHT IT
-1.725241	ALSO A
-1.76484	ALSO ACTUALLY
-1.828234	ALSO BRING
-1.343823	ALSO CREATE
-1.797105	ALSO DIFFERENT
-1.825725	ALSO FEEL
-1.802723	ALSO GOOD
-1.76484	ALSO HAVE
-1.635775	ALSO IT
-1.000226	ALSO NEED	-0.3213658
-1.828234	ALSO SORTS
-1.825725	ALSO SUGGEST
-0.6456377	ALTERNATIVELY YOU
-0.6417726	ALTHOUGH IT
-0.62541	AMATEUR IN
-0.4847492	AMOUNT OF
-1.69521	AN AMATEUR
-1.679527	AN ANOTHER
-1.216522	AN ASR	-0.4868217
-1.628039	AN AUDIO
-1.69521	AN EFFECT
-1.69521	AN ENTIRE
-1.679527	AN EXAMPLE
-1.67051	AN ID
-1.69521	AN IDENTICAL
-1.624012	AN UTTERANCE
-1.325538	AND </s>
-1.786802	AND ALL	-0.04542702
-2.463367	AND ALSO
-1.880471	AND ANOTHER	-0.4868216
-2.37816	AND ASR
-2.37816	AND BECAUSE
-2.600614	AND CHECK
-2.669064	AND COMPARE
-2.68522	AND COMPLEX
-2.104436	AND CREATE
-2.68522	AND CURRENT
-1.97227	AND DATA
-2.68522	AND DIRECT
-2.600614	AND DOWNLOAD
-2.669064	AND DYNAMIC
-2.540421	AND EVERYTHING
-2.669064	AND EXTERNAL
-2.68522	AND FELT
-2.275306	AND FILE
-2.249315	AND FINALLY
-2.513189	AND FIVE
-2.68522	AND FIXING
-1.869379	AND FOR
-2.669064	AND FOUND
-2.540421	AND GET
-2.68522	AND GIVE
-2.463367	AND GO
-2.37816	AND HAVE
-2.487564	AND HERE
-2.440448	AND HOW
-2.122484	AND I
-1.691334	AND IN	-0.06554867
-2.669064	AND INSTALL
-2.569476	AND INSTALLATION
-1.154487	AND IT	-0.01984755
-2.084312	AND IT'S	-0.06786399
-2.513189	AND JACKSON
-2.669064	AND LEARN
-2.540421	AND LET'S
-2.669064	AND LIBRARIES
-2.513189	AND LIST
-2.600614	AND MAKE
-2.669064	AND MFCC
-2.68522	AND MODIFY
-2.600614	AND NORMALLY
-2.397946	AND NOT
-2.101526	AND ONE
-2.68522	AND OPTIMIZATION
-2.600614	AND OTHER
-2.669064	AND OUTPUT
-2.669064	AND PHONETIC
-2.634159	AND PLACED
-2.669064	AND PRINT
-2.669064	AND PROCESSING
-2.569476	AND PUT
-2.669064	AND PYTHON
-2.68522	AND REMOVES
-2.600614	AND RESULTS
-2.669064	AND SAVE
-2.171092	AND SCRIPT	-0.1066434
-2.68522	AND SCROLL
-2.669064	AND SHIFT
-2.634159	AND SMALL
-2.359236	AND SPEAKER
-2.68522	AND STABLE
-2.669064	AND STEPS
-2.249315	AND SUBFOLDERS
-2.68522	AND SUPPLIES
-2.569476	AND TEST
-2.68522	AND TESTED
-2.30696	AND TEXT
-2.053171	AND THAT
-1.495626	AND THE	-0.03901941
-2.68522	AND THEIR
-1.899076	AND THEN
-2.540421	AND THEO
-2.359236	AND THERE
-2.634159	AND THEY
-2.122484	AND THIS
-1.560273	AND TO
-2.634159	AND TRANSCRIPTIONS
-2.30696	AND TWO
-1.266433	AND WE	-0.109993
-2.22199	AND WHEN	-0.1066434
-2.669064	AND WHY
-2.540421	AND WITHOUT
-2.463367	AND WOULD
-1.33577	ANOTHER FOLDER
-1.350822	ANOTHER NEW
-1.291599	ANOTHER ONE	-0.2375
-1.337889	ANOTHER RECIPY
-1.353016	ANOTHER THING
-1.626435	ANY AUDIO
-1.610232	ANY FILES
-1.69304	ANY KIND
-1.683703	ANY LABELS
-1.69304	ANY MISTAKES
-1.69304	ANY PROBLEMS
-1.622327	ANY SCRIPTS
-1.695064	ANY SIZE
-1.683703	ANY SORTING
-1.656331	ANY SPEECH
-1.626435	ANY TEXT
-0.8944317	ANYTHING IN
-0.94724	ANYTHING IT'S
-0.6592036	APPEND REDIRECTION
-0.633724	APPENDS THE
-0.6583314	APPLY FIX
-0.5630019	APPROACH </s>
-0.626647	ARCHIVE AND
-1.550459	ARE ALL
-2.077051	ARE AUTOMATED
-2.062297	ARE BASED
-2.062297	ARE ENOUGH
-2.022198	ARE FIVE
-2.05192	ARE FOUR
-1.943582	ARE JUST
-1.620294	ARE KEPT
-1.243378	ARE NOT
-2.05192	ARE PERFECT
-2.062297	ARE PLACED
-2.077051	ARE PRESENT
-2.062297	ARE READY
-2.077051	ARE RELATIVELY
-1.92025	ARE SOME
-2.077051	ARE SPECIFIC
-2.072515	ARE STORED
-1.681628	ARE THE
-1.959864	ARE THERE
-1.935665	ARE TWO
-1.605512	ARE USUALLY
-2.077051	ARE WIDELY
-0.7848144	ARGUMENTS </s>
-0.8944317	ARGUMENTS IN
-0.6249985	AROUND TO
-0.6592036	ART MIGHT
-0.7728796	AS A	-0.05717903
-1.604739	AS AN
-2.081591	AS FOLLOWS
-1.553256	AS I	-0.1066434
-2.071422	AS LEXICON
-2.071422	AS ME
-1.622389	AS MUST	-0.1066434
-2.081591	AS OPPOSITE
-1.776566	AS THE
-1.83578	AS WE
-0.7795165	AS WELL	-0.4103271
-1.22697	AS YOU	-0.5837317
-1.090246	ASR </s>
-1.567151	ASR AND
-1.764887	ASR AUTOMATIC
-0.4619799	ASR SYSTEM	-0.1441801
-0.9431175	ASR SYSTEMS
-0.6434861	ASSUME THAT
-0.5630019	ASSUMED </s>
-1.13088	AT ANOTHER
-1.135362	AT IMS
-1.135362	AT LEAST
-0.650409	ATTACH ALL
-0.9084244	ATTACHED FOR
-0.8936673	ATTACHED TO
-0.7848144	ATTACHMENT </s>
-0.9586184	ATTACHMENT SECTION
-1.060438	ATTRIBUTES FOR
-1.116613	ATTRIBUTES IT'S
-1.081103	ATTRIBUTES OF
-0.5124696	AUDIO DATA	-0.1715523
-0.8553087	AUDIO FILE	-0.04428305
-0.8546413	AUDIO FILES	-0.0427151
-1.908723	AUDIO INPUT
-1.443351	AUDIO RECORDINGS	-0.1066434
-0.6593904	AUTHORS DEVELOPERS
-0.6570009	AUTOMATED USING
-1.135362	AUTOMATIC SOFTWARE
-1.124337	AUTOMATIC SPEECH
-1.135362	AUTOMATIC UPDATES
-1.213211	AUTOMATICALLY AND
-1.356064	AUTOMATICALLY BUILDS
-1.331564	AUTOMATICALLY BY
-1.355136	AUTOMATICALLY PLEASE
-1.356064	AUTOMATICALLY UPDATE
-0.626647	AUTOMATION AND
-0.6249985	AWAY TO
-1.085831	AWK IS
-1.039643	AWK TO
-1.079928	AWK WE
-0.6249985	BACK TO
-0.6328854	BASE FOR
-0.3069026	BASED ON
-0.6465013	BASENAME THIS
-0.7995396	BASH </s>
-1.274351	BASH AND
-1.433754	BASH COMMANDS
-1.433754	BASH LOOP
-1.434819	BASH SUBCOMMAND
-0.6400657	BASICALLY WE
-0.6404918	BASICS OF
-0.6556745	BASING ON
-1.158541	BE A
-2.220069	BE ABLE
-2.07705	BE ACTUALLY
-2.134181	BE AGAIN
-2.213869	BE ATTACHED
-2.220069	BE CAREFUL
-1.768408	BE CONSIDERED	-0.1066434
-2.186002	BE CREATED
-2.213869	BE D
-1.756059	BE DONE	-0.06469847
-2.220069	BE EITHER
-2.220069	BE EVEN
-2.213869	BE FOUND
-1.475822	BE IN
-2.220069	BE INCONVENIENT
-2.220069	BE INCORRECT
-1.766206	BE INSTALLED	-0.06546053
-2.220069	BE NICE
-2.186002	BE NO
-1.902973	BE ONE
-2.220069	BE SORTED
-1.737928	BE THE
-2.159319	BE THEO
-2.099009	BE THREE
-2.220069	BE TRAINED
-2.220069	BE UNIFORM
-2.11042	BE USED
-2.186002	BE USEFUL
-2.213869	BE VALIDATION
-2.007911	BE YOUR
-2.186002	BE YWEWELER
-0.9807861	BECAUSE IT
-0.9970264	BECAUSE IT'S
-1.674112	BECAUSE OF
-1.795509	BECAUSE SPEECH
-1.791525	BECAUSE THREE
-1.824465	BECAUSE VIM
-0.6226081	BECAUSE WE
-0.6593904	BECOME COMPLETE
-0.8939329	BEFORE </s>
-1.084644	BEFORE IT
-1.135362	BEFORE RUNNIG
-0.6452066	BEGIN WITH
-0.8939329	BEGINNERS </s>
-1.132201	BEGINNERS INSIDE
-1.124337	BEGINNERS ON
-0.6404918	BEGINNING OF
-0.6249985	BELONGS TO
-0.5807347	BELOW </s>
-1.125411	BELOW IF
-0.633724	BESIDES THE
-0.6765008	BETTER </s>
-1.242964	BETTER BUT
-1.259177	BETTER UNDERSTANDING
-0.6587758	BETWEEN MANY
-0.6570009	BIG DATASETS
-0.6592036	BIGGER EXPERIENCE
-1.135362	BIT BORING
-1.135362	BIT LAZY
-1.135362	BIT LOST
-0.5630019	BORING </s>
-0.650409	BREAKS ALL
-0.6456377	BRING YOU
-0.6543521	BUILD ASR
-0.6593904	BUILDS EXECUTABLE
-1.855842	BUT APPENDS
-1.847203	BUT AT
-1.834992	BUT FIRST
-1.25026	BUT IN
-1.316097	BUT IT
-1.773353	BUT IT'S
-1.834992	BUT NOW
-1.847203	BUT SINCE
-1.847203	BUT THEY
-1.829012	BUT USUALLY
-0.9936015	BUT WE
-1.688236	BUT WITH
-1.759861	BY AT
-1.30706	BY HAND
-1.73966	BY JACKSON
-1.253334	BY ONE
-1.302742	BY SPACE
-1.749643	BY STEP	-0.1066434
-1.210434	BY THE
-1.692921	BY TWO
-1.767061	BY WIT
-0.5630019	C </s>
-0.62541	CALCULATIONS IN
-0.9361521	CALLED KALDI
-0.9577325	CALLED MINI
-2.077337	CAN ACCESS
-1.970424	CAN ACTUALLY
-1.595275	CAN ALSO
-1.243757	CAN BE
-1.613191	CAN CHECK
-2.07289	CAN COMPARE
-2.042738	CAN COPY
-2.014191	CAN DO
-2.033012	CAN FIND
-2.005078	CAN GO
-1.946136	CAN JUST
-1.978832	CAN NOT
-2.077337	CAN OCCUR
-2.07289	CAN QUICKLY
-1.602353	CAN SEE	-0.04897934
-2.062868	CAN SHOW
-2.07289	CAN SPECIFY
-1.62199	CAN STILL
-1.591779	CAN USE	-0.03867508
-2.07289	CAN VALIDATE
-0.6578875	CAPITAL F
-0.6452066	CAREFUL WITH
-0.9367175	CASE </s>
-1.609412	CASE BECAUSE
-1.515023	CASE IS
-1.13884	CASE IT
-1.59826	CASE IT'S
-1.50307	CASE OF
-1.605663	CASE THERE
-1.500132	CASE WE
-0.6578875	CD COMMAND
-1.111349	CHANGE DIRECTORY
-0.6478461	CHANGE THE
-0.633724	CHANGED THE
-0.6587758	CHAPTER BEFORE
-1.006603	CHECK </s>
-1.337889	CHECK IF
-1.329476	CHECK THERE
-1.295434	CHECK THIS
-1.267464	CHECK WE
-0.8967327	CHECKING AND
-0.9594721	CHECKING PREPARED
-0.6434861	CHECKS THAT
-0.8939329	CHOICE </s>
-1.060438	CHOICE FOR
-1.039643	CHOICE TO
-0.6593904	CHOSEN UBUNTU
-0.5630019	CLONE </s>
-0.5630019	CLUSTERS </s>
-0.7848144	CODE </s>
-0.9084244	CODE FOR
-0.7529103	COMMAND </s>
-1.336183	COMMAND SO
-0.841702	COMMAND TO
-0.8967327	COMMANDS AND
-0.8944317	COMMANDS IN
-1.048151	COMMENTS IN
-0.6710608	COMMENTS INSIDE	-0.1066434
-0.9481047	COMMON OR
-0.9533297	COMMON UTTERANCES
-0.6452066	COMMUNICATE WITH
-0.9253403	COMPARE IT
-0.9577325	COMPARE RESULTS
-0.6556745	COMPILATION ON
-0.6422004	COMPLAINT IS
-0.5630019	COMPLETE </s>
-0.6565583	COMPLETELY DO
-0.6593904	COMPLEX GRAMMARS
-0.8967327	COMPONENTS AND
-0.9437981	COMPONENTS ARE
-0.5630019	COMPRESSION </s>
-0.650409	CONF DIRECTORY
-0.7848144	CONFIG </s>
-0.94724	CONFIG IT'S
-0.6491025	CONFIGS FROM
-0.4290725	CONFIGURATION FILES	-0.06299666
-1.259779	CONFIGURATION MODIFICATIONS
-0.4752446	CONNECT TO	-0.1066434
-0.6570009	CONNECTS EVERY
-0.6552333	CONSIDER THESE
-0.650409	CONSIDERED AS
-0.6404918	CONSIST OF
-0.5630019	CONSISTENT </s>
-1.128251	CONTAIN EVERY
-1.124337	CONTAIN ONLY
-1.062686	CONTAIN THE
-0.4754988	CONTAINED IN
-0.6556745	CONTAINING ZERO
-1.09512	CONTAINS </s>
-1.540603	CONTAINS EVERY
-1.061484	CONTAINS ONE
-1.505957	CONTAINS SCRIPTS
-1.392102	CONTAINS THE
-1.527683	CONTAINS THREE
-1.558615	CONTAINS WRONG
-0.5630019	CONTENT </s>
-0.626647	CONTENTS AND
-0.6570009	CONTROL SYSTEM
-0.5630019	CONVENIENT </s>
-0.6587758	CONVINCED ME
-0.5630019	COOL </s>
-1.455991	COPY IS
-1.057848	COPY IT
-1.559214	COPY PASTE
-0.7080601	COPY THE
-1.515934	COPY TWO
-0.6592036	CORPORA DOCUMENTATION
-0.8967327	CORPUS AND
-0.9594721	CORPUS TXT
-0.4359177	CORRECT </s>
-0.5630019	CORRECTLY </s>
-0.6565583	COULD DO
-0.6593904	CPLUS PLUS
-0.5630019	CPU </s>
-1.238582	CREATE </s>
-1.271918	CREATE A	-0.1543528
-1.631319	CREATE AND
-2.082986	CREATE ANOTHER
-2.116476	CREATE ANYTHING
-2.003638	CREATE ASR
-2.121437	CREATE CONF
-2.094008	CREATE CONFIGURATION
-1.878489	CREATE DATA
-2.121437	CREATE DICT
-2.061749	CREATE EH
-2.022157	CREATE FOLDER
-2.105316	CREATE FOLLOWING
-1.420776	CREATE IN
-2.105316	CREATE LEXICON
-2.105316	CREATE LINKS
-2.121437	CREATE S5
-1.952392	CREATE SOME
-2.116476	CREATE SUBFOLDERS
-1.702189	CREATE THE
-2.022157	CREATE THESE
-1.865107	CREATE THIS
-2.022157	CREATE THREE
-1.278696	CREATE TWO
-1.94441	CREATE YOUR
-1.257283	CREATED BEFORE
-1.239992	CREATED BY
-1.220112	CREATED FROM
-1.248551	CREATED HERE
-0.9598451	CREATING PORTABLE
-0.9598451	CREATING STATIC
-0.5630019	CREATION </s>
-0.9598451	CTRL C
-0.9598451	CTRL R
-0.6593904	CURRENT RECOMMENDED
-0.9568483	CUT COMMAND
-0.9286385	CUT THAT
-0.7848144	D </s>
-0.9594721	D STANDS
-0.7796768	DATA </s>
-2.331282	DATA AFTER
-1.758142	DATA AND
-1.797059	DATA AS
-2.35379	DATA COMPRESSION
-1.903743	DATA DIR	-0.06455822
-2.272	DATA DIRECTORIES
-1.49386	DATA DIRECTORY	-0.05309069
-2.219847	DATA FOLDER
-1.826967	DATA FOR
-2.074946	DATA FROM
-2.025115	DATA I
-1.37537	DATA IN
-2.30063	DATA INTO
-1.716778	DATA IS
-1.535001	DATA LOCAL	-0.04873828
-2.17329	DATA OR
-2.331282	DATA ORDER
-1.319665	DATA PREPARATION	-0.03623956
-2.331282	DATA PROPER
-1.895623	DATA SECTION
-2.315686	DATA SORTING
-2.35379	DATA STREAMS
-2.315686	DATA STRUCTURE
-2.315686	DATA TESTING
-1.973395	DATA THAT
-1.741492	DATA TO
-1.872933	DATA TRAIN	-0.04927519
-2.35379	DATA TRANSFER
-1.920967	DATA WE
-2.286079	DATA WITHOUT
-0.449126	DATASET </s>
-1.488096	DATASET AND
-1.576849	DATASET IS
-1.681696	DATASET LET'S
-1.685097	DATASET LOOKS
-1.688525	DATASET PER
-1.661828	DATASET SO
-1.065558	DATASETS </s>
-1.312446	DATASETS AND
-1.447633	DATASETS ARE
-1.343579	DATASETS FOR
-1.306478	DATASETS IN
-1.413466	DATASETS ONE
-1.401009	DATASETS THAT
-0.626647	DATE AND
-0.6452066	DEAL WITH
-0.6452066	DEALS WITH
-0.6249985	DECIDED TO
-0.6592036	DECODE CONFIG
-1.360546	DECODING AND
-1.5013	DECODING OBVIOUSLY
-1.50222	DECODING PROCESS
-0.450699	DECODING RESULTS	-0.1746579
-0.5630019	DELIMITER </s>
-0.6593904	DELVED THROUGH
-0.8939329	DESCRIBED </s>
-1.133525	DESCRIBED BELOW
-1.040713	DESCRIBED IN
-0.6404918	DESCRIPTION OF
-0.9598451	DETAILED EXPLANATION
-0.9568483	DETAILED INSTALLATION
-0.6565583	DETAILS HERE
-0.5630019	DEVELOPERS </s>
-0.650409	DICT DIRECTORY
-0.8939329	DICTIONARY </s>
-1.060438	DICTIONARY FOR
-1.094233	DICTIONARY WITH
-0.9598451	DID GIT
-0.922067	DID WE
-0.6570009	DIDN'T SEE
-0.6422004	DIFFERENCE IS
-0.62541	DIFFERENCES IN
-1.158609	DIFFERENT </s>
-1.672713	DIFFERENT DATASETS
-1.614492	DIFFERENT DIRECTORY
-1.603729	DIFFERENT FROM
-1.440293	DIFFERENT IN
-1.693827	DIFFERENT OPERATING
-1.69566	DIFFERENT QUALITY
-0.8641614	DIFFERENT SPEAKERS	-0.06354812
-1.668579	DIFFERENT TRAINING
-0.9608602	DIGIT </s>
-1.194946	DIGIT IS
-1.223363	DIGIT WHICH	-0.1066434
-1.245107	DIGIT ZERO
-1.092825	DIGITS AND
-1.581943	DIGITS ARE
-1.608126	DIGITS BY
-1.619849	DIGITS DATASET
-1.564162	DIGITS FROM
-1.654386	DIGITS GRAMMAR
-1.648501	DIGITS LEXICON
-1.654386	DIGITS RECORDED
-1.571187	DIGITS WHICH
-0.7848144	DIR </s>
-0.8967327	DIR AND
-0.6465013	DIRECT THIS
-0.5928923	DIRECTORIES </s>
-1.037387	DIRECTORIES STRUCTURE
-1.498327	DIRECTORIES SUCCESSFULLY
-1.49089	DIRECTORIES UTILS
-0.3402366	DIRECTORY </s>
-1.471659	DIRECTORY AND
-2.079509	DIRECTORY CALLED
-2.004853	DIRECTORY CREATE
-1.788164	DIRECTORY FOR
-1.729622	DIRECTORY IN
-1.993533	DIRECTORY JUST
-1.999156	DIRECTORY OR
-2.066351	DIRECTORY STRUCTURE
-1.72659	DIRECTORY TO
-2.053335	DIRECTORY USUALLY
-2.066351	DIRECTORY WHEN
-1.956087	DIRECTORY WHICH
-2.004853	DIRECTORY WILL
-0.626647	DISPLAYS AND
-0.6592036	DISTRIBUTED REVISION
-0.6512821	DIVIDE YOUR
-1.557049	DO IS
-1.180505	DO IT
-1.220331	DO NOT
-1.695952	DO STRAIGHT
-0.8361192	DO THE	-0.3355654
-1.588336	DO THIS
-1.647317	DO WILL
-0.9550855	DOC ID
-0.9361521	DOC KALDI
-0.9344711	DOCUMENTATION I
-0.9261625	DOCUMENTATION IS
-0.6547925	DOES NOT
-0.6592036	DOESN'T MEAN
-1.332924	DON'T ACTUALLY
-1.347098	DON'T GET
-0.8853459	DON'T HAVE
-1.343001	DON'T NEED
-0.7995396	DONE </s>
-1.423824	DONE EVERYTHING
-1.426309	DONE NOW
-1.359454	DONE WITH
-1.423824	DONE WITHOUT
-1.134998	DOT SCP
-0.6693906	DOT WAV
-0.9608602	DOWNLOAD </s>
-1.141794	DOWNLOAD AND
-1.193421	DOWNLOAD IT
-1.213682	DOWNLOAD KALDI
-0.6465013	DOWNLOADED THIS
-0.5630019	DUMMIES </s>
-0.6491025	DURATION FROM
-0.9429418	DURING A
-0.9559661	DURING PARTICULAR
-0.9594721	DYNAMIC LIBRARIES
-0.9586184	DYNAMIC PROGRAMMING
-1.696245	EACH AUDIO
-1.27791	EACH FILE
-1.72262	EACH FOLDER
-1.237525	EACH OF
-1.745893	EACH PROJECT
-1.760481	EACH SENTENCE
-0.9347513	EACH SPEAKER
-1.765262	EACH STRING
-1.767365	EACH SUBFOLDER
-0.6404918	EASE OF
-0.6400657	EASIER WE
-0.626647	EASY AND
-0.6456377	EDITOR YOU
-0.6456377	EFFECT YOU
-0.650409	EGS DIRECTORY
-1.494014	EH ALL
-1.543894	EH BASH
-1.558615	EH CD
-1.468284	EH I
-1.550552	EH NO
-1.558615	EH SYMBOLIC
-1.032045	EH THE
-1.434673	EHM CONVENIENT
-1.431022	EHM MAPPING
-1.428398	EHM NORMALLY
-1.428398	EHM SPACE
-1.434673	EHM VALUES
-1.330455	EHM WE
-0.6521571	EITHER UTTERANCE
-0.5807347	ELSE </s>
-1.048151	ELSE IN
-0.6561162	ENCOUNTER ANY
-0.6456377	ENCOURAGE YOU
-0.9749882	END </s>
-0.7726735	END OF	-0.3618829
-1.209167	END WITH
-0.6578875	ENDING LOOK
-0.6452066	ENDS WITH
-0.6552333	ENGLISH LANGUAGE
-0.9749882	ENOUGH </s>
-1.168291	ENOUGH FOR
-0.7531052	ENOUGH TO
-0.6574439	ENTIRE SPOKEN
-0.7848144	ENVIRONMENT </s>
-0.9261625	ENVIRONMENT IS
-0.5630019	ENVIRONMENTS </s>
-0.9481047	EVALUATE OR
-0.9594721	EVALUATE OUTPUT
-0.6593904	EVEN BIGGER
-0.6593904	EVER DELVED
-1.559068	EVERY ACTION
-1.508725	EVERY FILE
-1.559068	EVERY SINGLE
-1.522619	EVERY SPEAKER
-0.7260706	EVERY UTTERANCE
-1.551816	EVERY WORD
-1.408163	EVERYTHING BY
-1.434966	EVERYTHING CORRECTLY
-0.972195	EVERYTHING ELSE	-0.06168884
-0.9407535	EVERYTHING IS
-0.8314663	EXAMPLE </s>
-1.722436	EXAMPLE ALL
-1.79235	EXAMPLE HERE
-1.682789	EXAMPLE I
-1.511147	EXAMPLE IN
-1.828379	EXAMPLE NANO
-1.336669	EXAMPLE SCRIPTS
-1.571921	EXAMPLE THE
-1.760999	EXAMPLE THERE
-1.229587	EXAMPLE TO
-1.623827	EXAMPLE WE
-0.9586184	EXAMPLES BELOW
-0.8944317	EXAMPLES IN
-0.6593904	EXECUTABLE PROGRAMS
-0.6592036	EXECUTES VALIDATION
-1.124337	EXEMPLARY DATASET
-1.129564	EXEMPLARY PROJECT
-1.114069	EXEMPLARY SCRIPTS
-0.6517194	EXISTING FILE
-0.6404918	EXIT OF
-0.9420873	EXPERIENCE AS
-0.8936673	EXPERIENCE TO
-0.6404918	EXPLANATION OF
-0.5630019	EXPRESSION </s>
-0.9598451	EXTERNAL CLUSTERS
-0.9542068	EXTERNAL TOOLS
-1.134803	EXTRACTION CONFIG
-1.135362	EXTRACTION PROCESSES
-1.079928	EXTRACTION WE
-1.040014	F </s>
-1.43356	F FEMALE
-1.262918	F IN
-1.400537	F OR
-1.43356	F STANDS
-1.428398	F TELLS
-0.6434861	FACT THAT
-0.6452066	FAMILIAR WITH
-0.4960527	FEATURE EXTRACTION
-0.6517194	FEATURES FILE
-0.4957964	FEEL FREE	-0.1066434
-0.6508453	FELT A
-0.7848144	FEMALE </s>
-0.8967327	FEMALE AND
-1.104693	FIELD </s>
-1.017615	FIELD AND
-1.353498	FIELD IN
-1.4449	FIELD IS
-1.09438	FIELD NUMBER	-0.06721414
-1.434844	FIELD OF
-1.111539	FIELDS ARE
-1.13088	FIELDS AUTOMATICALLY
-1.040713	FIELDS IN
-0.7402775	FILE </s>
-2.218236	FILE AGAIN
-1.795971	FILE BECAUSE
-2.303265	FILE CONNECTS
-1.483246	FILE CONTAINS	-0.04928183
-1.61215	FILE FOR
-2.297132	FILE FORMAT
-2.049827	FILE FROM
-2.218236	FILE HAS
-2.003157	FILE I
-2.303265	FILE INFORMS
-1.216992	FILE IS
-2.283396	FILE LISTS
-1.476614	FILE NAME
-1.988652	FILE ONE
-1.844336	FILE PATH
-2.256148	FILE RELATED
-2.269558	FILE TELLS
-1.954378	FILE THAT
-1.824341	FILE THE
-2.297132	FILE US
-2.269558	FILE WAS
-1.666352	FILE WE
-1.752456	FILE WHICH
-1.981578	FILE WITH
-2.243139	FILE WITHOUT
-2.297132	FILE YET
-0.6473666	FILENAME KALDI
-0.6562583	FILES </s>
-1.267671	FILES AND
-2.012966	FILES AS
-2.163673	FILES AUTOMATICALLY
-2.086226	FILES BECAUSE
-2.095185	FILES BUT
-2.086226	FILES BY
-1.549726	FILES FOR
-1.505639	FILES IN
-1.889867	FILES IS
-2.060408	FILES IT'S
-1.744808	FILES NAMED	-0.1066434
-1.867867	FILES OF
-2.185403	FILES PLACED
-2.196252	FILES PROCESSING
-2.163673	FILES RELATED
-2.095185	FILES SO
-1.325176	FILES THAT
-1.667448	FILES WHICH	-0.1066434
-1.931271	FILES WITH
-1.937521	FILES YOU
-0.6456377	FILETWO ONE
-0.6583314	FILL OUT
-0.5630019	FINALIZATION </s>
-0.633724	FINALIZE THE
-1.120458	FINALLY HAVE
-1.097884	FINALLY I
-1.097884	FINALLY THIS
-1.085754	FIND </s>
-1.539881	FIND EH
-1.558469	FIND FEATURES
-1.550145	FIND OUT
-1.556991	FIND RESULT
-1.546697	FIND SUCH
-1.465479	FIND THIS
-1.558469	FIND TRUSTWORTHY
-1.133828	FINISHED SUCCESSFULLY
-0.6478461	FINISHED THE
-0.6465013	FINISHING THIS
-1.676139	FIRST ASR
-1.732285	FIRST COMPLAINT
-1.690248	FIRST DATASET
-1.709804	FIRST FIELD
-1.548717	FIRST OF	-0.3618829
-1.592238	FIRST ONE
-1.704832	FIRST PART
-1.690248	FIRST SPEECH
-1.730081	FIRST TASK
-1.725071	FIRST THING
-1.725071	FIRST TRIPHONE
-1.54528	FIRST WE
-1.125477	FIVE </s>
-1.50329	FIVE A
-1.557781	FIVE FEMALE
-0.7335238	FIVE HUNDRED	-0.3205082
-1.557781	FIVE MALE
-1.551816	FIVE NINE
-0.4275288	FIX DATA	-0.06788221
-1.210385	FIX IT
-0.6417726	FIXES IT
-0.6473666	FIXING DATA
-0.4824158	FOLDER </s>
-1.652696	FOLDER FROM
-1.178747	FOLDER IN	-0.1066434
-1.710371	FOLDER NAME
-1.734164	FOLDER REPRESENTING
-1.732559	FOLDER SAME
-1.734164	FOLDER WEBONE
-1.019137	FOLDERS </s>
-1.219595	FOLDERS AND
-1.349161	FOLDERS RELATED
-0.87067	FOLDERS WITH
-0.9594721	FOLLOW HTTP
-0.9550855	FOLLOW MY
-0.6640064	FOLLOWING FILES
-1.115986	FOLLOWING SCRIPTS
-0.5630019	FOLLOWS </s>
-2.549329	FOR ABSOLUTE
-1.673205	FOR ALL
-2.390654	FOR AN
-2.390654	FOR ANY
-2.514888	FOR BEGINNERS
-2.107457	FOR CHECKING
-2.538574	FOR COMMANDS
-1.649693	FOR DATA	-0.04970156
-2.448344	FOR DECODING
-2.549329	FOR DELIMITER
-2.538574	FOR DETAILED
-2.448344	FOR DIGITS
-2.549329	FOR DUMMIES	-0.1066434
-1.516718	FOR EACH	-0.04663182
-2.549329	FOR EASE
-1.180626	FOR EXAMPLE	-0.01264814
-2.538574	FOR EXAMPLES
-2.448344	FOR FIELD
-2.538574	FOR FUTURE
-2.549329	FOR HISTORICAL
-2.016218	FOR IT
-2.42825	FOR JACKSON
-1.905662	FOR KALDI
-2.549329	FOR LABELING
-2.356055	FOR LANGUAGE
-2.514888	FOR LINES
-2.538574	FOR LOOP
-2.469412	FOR MOST
-2.42825	FOR MY
-2.491555	FOR NICOLAS
-2.37301	FOR OUR
-2.514888	FOR OVER
-2.514888	FOR PROPER
-2.469412	FOR RUNNING
-2.107457	FOR SEARCHING
-1.969012	FOR SOME
-2.37301	FOR SPEECH
-2.469412	FOR SUCH
-2.085674	FOR TESTING
-2.266245	FOR TEXT
-2.047749	FOR THAT
-1.197128	FOR THE
-2.085674	FOR THEM
-1.233181	FOR THIS	-0.0274891
-2.42825	FOR TRAIN
-1.724432	FOR TRAINING	-0.06687518
-2.549329	FOR TRANSCRIBING
-2.549329	FOR TUTORIALS
-2.538574	FOR WORKING
-1.636808	FOR YOU
-2.227463	FOR YOUR
-0.626647	FORM AND
-0.9261625	FORMAT IS
-0.922883	FORMAT OF
-0.9429418	FOUND A
-0.8944317	FOUND IN
-1.019137	FOUR </s>
-1.294804	FOUR ONE
-0.8853459	FOUR SPEAKERS
-1.353317	FOUR TIMES
-1.134803	FREE ACOUSTIC
-1.135362	FREE PRE-RECORDED
-1.039643	FREE TO
-1.26292	FROM </s>
-1.921751	FROM ALL
-2.059921	FROM COPY
-1.622346	FROM EVERYTHING	-0.1066434
-2.041192	FROM JACKSON
-1.548616	FROM KALDI
-2.069597	FROM MINI
-1.53698	FROM ONE
-2.014531	FROM OUR
-2.093546	FROM PREVIOUS
-1.63793	FROM SCRATCH
-2.079494	FROM SOURCE
-0.8671799	FROM THE
-2.050455	FROM THEO
-2.005996	FROM THESE
-1.958033	FROM TWO
-1.95053	FROM UTTERANCE
-2.079494	FROM WALL
-1.935902	FROM YOUR
-2.014531	FROM ZERO
-0.4957964	FULL PATH
-0.5630019	FUNCTIONALITY </s>
-0.5630019	FURTHER </s>
-0.7848144	FUTURE </s>
-0.9594721	FUTURE PROBABLY
-1.246826	G CAN
-1.255523	G G
-1.210503	G I
-1.194946	G IS
-0.4359177	GENDER </s>
-0.7848144	GENDERS </s>
-0.944656	GENDERS FILE
-0.5630019	GENERAL </s>
-0.6417726	GENERATE IT
-0.6417726	GENERATES IT
-1.538291	GET A
-1.592017	GET DECODING
-1.415806	GET FOR
-1.588221	GET LIST
-1.545082	GET SOME
-1.420919	GET THE
-1.370025	GET TO
-1.609052	GET UNAMBIGUOUS
-1.541673	GET YOUR
-0.6583314	GETTING RESULTS
-0.6593904	GIT CLONE
-0.6583314	GIVE THEM
-0.6452066	GLUED WITH
-1.016601	GO </s>
-1.696946	GO BACK
-1.601634	GO ONE
-1.669375	GO OUR
-1.69228	GO OVER
-0.48307	GO TO	-0.02411755
-0.8482946	GOOD </s>
-1.501341	GOOD HABIT
-1.501341	GOOD IDEA
-0.9662412	GOOD TO
-1.417179	GOOD WITH
-0.6593904	GRAM QUANTITY
-0.5630019	GRAMMAR </s>
-0.5630019	GRAMMARS </s>
-0.8939329	GREP </s>
-1.13088	GREP COMMAND
-1.132201	GREP FOUR
-0.6456377	GUIDE YOU
-0.6328854	HABIT FOR
-0.7848144	HAND </s>
-0.9319618	HAND WITH
-0.6592036	HANDY OPERATIONS
-0.6547925	HAPPENED SO
-0.9598451	HAPPENS ACCIDENTALLY
-0.9286385	HAPPENS THAT
-1.50329	HAS A
-1.482204	HAS DATA
-1.534063	HAS ONLY
-1.551816	HAS QUITE
-1.508725	HAS SOME
-0.6981196	HAS TO	-0.06776798
-2.151933	HAVE AGAIN
-2.003177	HAVE ALL
-1.751467	HAVE ANY
-2.241413	HAVE CHOSEN
-1.944367	HAVE DATA
-2.205831	HAVE DONE
-2.241413	HAVE EVER
-2.012268	HAVE FILES
-2.22042	HAVE FINISHED	-0.1066434
-2.22042	HAVE FREE
-1.85263	HAVE IT
-2.164793	HAVE JACKSON
-2.241413	HAVE LIKED
-2.205831	HAVE MADE
-2.191716	HAVE MORE
-2.205831	HAVE NICOLAS
-2.103991	HAVE NOT
-2.191716	HAVE NOW
-1.644771	HAVE ONE
-2.178046	HAVE RECORDINGS
-2.241413	HAVE REQUIREMENT
-2.031043	HAVE SOME
-2.081869	HAVE SPEAKER
-1.306555	HAVE THE
-1.766855	HAVE THEO
-2.081869	HAVE THERE
-1.652726	HAVE THIS
-2.115489	HAVE THREE
-1.270134	HAVE TO	-0.1904603
-1.712915	HAVE TWO
-2.021554	HAVE YOUR
-0.6456377	HELP YOU
-1.17383	HERE </s>
-1.654207	HERE ARE
-1.682562	HERE BY
-1.620275	HERE DATA
-1.511735	HERE FOR	-0.1066434
-1.22716	HERE I
-1.517422	HERE THE
-0.8790596	HERE WE	-0.03813723
-1.606005	HERE YOU
-0.6593904	HISTORICAL REASONS
-0.6328854	HISTORY FOR
-0.7848144	HM </s>
-0.9344711	HM I
-0.6593904	HONESTLY RECOMMEND
-0.1232191	HOW TO	-0.02889926
-1.656462	HOW WELL
-0.7848144	HTML </s>
-0.9598451	HTML PARENT
-0.7848144	HTTP </s>
-0.9361521	HTTP KALDI
-0.6473666	HTTPS KALDI
-0.9559661	HUNDRED RECORDINGS
-0.9533297	HUNDRED UTTERANCES
-2.295147	I ASSUME
-1.104474	I CAN	-0.03928658
-2.295147	I DECIDED
-2.215701	I DO
-2.239074	I FIND
-1.458271	I HAVE
-2.295147	I HONESTLY
-2.289452	I INSTALLED
-1.831098	I KNOW	-0.1066434
-2.295147	I LAUNCHED
-1.831098	I MADE	-0.1066434
-2.289452	I MENTIONED
-2.215701	I NEED
-2.251249	I PUT
-2.295147	I REALLY
-2.289452	I SPECIFY
-2.295147	I STARTED
-1.000502	I THINK	-0.03127344
-1.464279	I USE
-2.193522	I USED
-2.239074	I USUALLY
-1.831098	I WAS
-1.242652	I WILL	-0.03935271
-1.4663	I WOULD
-1.132201	I'M DONE
-1.040713	I'M IN
-1.134803	I'M SORRY
-0.9863523	ID </s>
-1.160598	ID AND
-1.681172	ID BECAUSE
-1.732866	ID FILETWO
-1.180415	ID FOR
-1.205455	ID OF
-1.730847	ID SEPARATED
-1.72153	ID SPACE
-0.6249985	IDEA TO
-0.6565583	IDENTICAL WAY
-1.719484	IF EVERYTHING
-1.642102	IF I
-1.733119	IF NEEDED
-1.564427	IF THE
-1.60153	IF WE
-0.4227028	IF YOU	-0.03565251
-1.674466	IF YOUR
-0.6434861	IMAGINE THAT
-1.109024	IMPORTANT DIRECTORY
-1.112802	IMPORTANT FILE
-1.039643	IMPORTANT TO
-0.6400657	IMS WE
-1.472448	IN </s>
-2.054994	IN A
-2.491024	IN AN
-1.914583	IN AND
-2.42633	IN ASR
-2.370036	IN AUDIO
-2.546775	IN BASH
-2.588362	IN CASE
-2.411558	IN CREATE	-0.03784632
-1.747003	IN DATA	-0.06756608
-2.527385	IN DATASETS
-2.163297	IN DECODING
-1.76959	IN DIRECTORY	-0.3990026
-2.163297	IN EACH
-2.643708	IN ENGLISH
-2.527385	IN EVERY
-2.610751	IN EXEMPLARY
-2.320208	IN FILES
-2.457474	IN FOLDER
-2.643708	IN GENERAL
-2.610751	IN GREP
-2.124564	IN IT
-1.248971	IN KALDI
-2.457474	IN LANGUAGE
-1.822353	IN MY	-0.04824914
-2.633429	IN NORMAL
-1.984376	IN ONE	-0.1066434
-2.473925	IN ONLY
-2.588362	IN OTHER
-1.811275	IN OUR	-0.06281476
-2.633429	IN PREPARED
-2.610751	IN PROPER
-2.357033	IN SCRIPTS
-2.188622	IN SEPARATE
-2.344408	IN SOME
-2.473925	IN SPEECH
-2.588362	IN TESTING
-2.370036	IN TEXT
-0.7316186	IN THE	-0.02698801
-0.9068079	IN THIS	-0.2607727
-2.147198	IN TOOLS
-2.643708	IN TOTAL
-1.786476	IN TWO
-2.546775	IN UTILS
-2.633429	IN VARIOUS
-2.610751	IN WALL
-1.579144	IN YOUR	-0.04862821
-0.6328854	INCONVENIENT FOR
-0.6543521	INCORRECT BECAUSE
-0.6570009	INDIVIDUAL RECORDING
-0.633724	INFER THE
-0.5630019	INFORMATION </s>
-0.6592036	INFORMS ABOUT
-0.4762622	INPUT AND
-0.6765008	INSIDE </s>
-1.228818	INSIDE A
-1.23978	INSIDE CREATE
-1.100335	INSTALL KALDI
-1.12304	INSTALL LANGUAGE
-1.112802	INSTALL SOME
-0.4706006	INSTALLATION </s>
-1.308005	INSTALLATION I
-1.356665	INSTALLATION INSTRUCTIONS
-0.8939329	INSTALLED </s>
-1.13088	INSTALLED AUTOMATICALLY
-1.100335	INSTALLED KALDI
-0.6404918	INSTEAD OF
-0.6561162	INSTRUCTIONS GO
-0.6249985	INTENTION TO
-1.33577	INTO FOLDER
-1.356064	INTO SIMILAR
-1.323271	INTO TEXT
-1.344307	INTO TRAIN
-1.317154	INTO YOUR
-0.5630019	INTRODUCTION </s>
-0.6404918	INVERSE OF
-1.306028	IS </s>
-1.298539	IS A
-2.272752	IS ACTUALLY
-2.151549	IS ALL
-2.488904	IS ALMOST
-1.993258	IS ALSO
-2.339807	IS AN
-1.75097	IS AND
-2.488904	IS ATTACHED
-2.488904	IS CALLED
-2.488904	IS CONTAINED
-2.488904	IS CORPUS
-2.488904	IS CORRECT
-2.499761	IS DECODE
-2.045216	IS ENOUGH
-2.01846	IS GOOD
-1.939583	IS JUST
-1.977233	IS LANGUAGE
-2.488904	IS MFCC
-2.441466	IS MINI
-2.488904	IS MISSING
-2.488904	IS NAMED
-2.441466	IS NICOLAS
-1.969438	IS NOT
-2.058113	IS NOTHING
-2.488904	IS OBVIOUSLY
-1.831579	IS ONE
-2.441466	IS PERFECT
-2.465	IS POSSIBLE
-2.488904	IS PRECISELY
-2.499761	IS PREDEFINED
-2.499761	IS PRONOUNCED	-0.1066434
-1.472248	IS QUITE	-0.04917348
-2.465	IS READY
-2.322048	IS RECIPY
-2.441466	IS SILENCE
-2.488904	IS SIX
-2.499761	IS SURROUNDED
-2.419141	IS TEST
-2.214678	IS TEXT
-1.804328	IS THAT
-1.35077	IS THE
-2.397908	IS THEO
-1.452666	IS TO
-2.377665	IS TRAIN
-2.499761	IS TRUE
-2.499761	IS UNKNOWN
-1.985172	IS USED
-2.01846	IS USUALLY
-2.499761	IS VARIABLE
-2.001497	IS WAV
-0.6456377	ISSUES YOU
-0.7877594	IT </s>
-2.33711	IT ALSO
-1.656603	IT AND
-2.292759	IT BE
-1.945765	IT BECAUSE
-2.470553	IT BREAKS
-1.428187	IT CAN	-0.08229993
-2.470553	IT DIDN'T
-2.470553	IT DISPLAYS
-2.024421	IT DOES	-0.1066434
-2.470553	IT DOESN'T
-2.470553	IT ENDS
-2.442261	IT FINISHED
-1.708282	IT FOR
-1.875852	IT FROM
-2.470553	IT GENERATES
-2.024421	IT HAPPENS
-2.352961	IT HAS
-2.352961	IT HERE
-1.783172	IT IN
-2.470553	IT INSTEAD
-1.370732	IT IS	-0.01713493
-2.239895	IT JUST
-2.01408	IT LISTS
-2.404311	IT LOOKS
-2.461762	IT MAINLY
-2.442261	IT MEANS
-2.461762	IT MIGHT
-2.321817	IT ON
-2.470553	IT SEES
-1.433985	IT SHOULD	-0.2566091
-2.470553	IT SWITCHES
-2.470553	IT TAKES
-2.422872	IT TELLS
-1.657743	IT WAS
-1.626339	IT WILL	-0.3618829
-1.829935	IT WITH
-2.442261	IT WORK
-2.33711	IT WOULD
-1.871006	IT'S ACTUALLY
-1.932935	IT'S ALREADY
-1.940395	IT'S ENOUGH
-1.91839	IT'S GOOD
-0.8965534	IT'S JUST
-1.950914	IT'S MUCH
-1.877467	IT'S NOT
-1.940395	IT'S OKAY
-1.758627	IT'S ONE
-1.890684	IT'S ONLY
-1.940395	IT'S POSSIBLE
-1.486674	IT'S QUITE
-1.890684	IT'S USED
-1.84007	IT'S UTTERANCE
-1.947691	IT'S VALIDATED
-1.947691	IT'S WORKING
-0.7848144	ITEM </s>
-0.9568483	ITEM MOST
-0.62541	ITEMS IN
-0.9577325	ITS PHONE
-0.946377	ITS TEXT
-0.1788472	JACKSON </s>
-1.502817	JACKSON STAR
-0.9261625	JOB IS
-0.9319618	JOB WITH
-0.7848144	JOBS </s>
-0.9568483	JOBS LOCAL
-1.24169	JOURNAL BUT
-1.245107	JOURNAL RECIPY
-1.258983	JOURNAL STEPS
-1.252023	JOURNAL UTILS
-0.6249985	JUMP TO
-1.457998	JUST A
-1.491645	JUST AN
-1.9338	JUST BASH
-1.950247	JUST CHECK
-1.941946	JUST COPY
-1.873615	JUST CREATE
-1.9338	JUST DIGITS
-1.958709	JUST END
-1.967006	JUST EVALUATE
-1.970677	JUST INVERSE
-1.970677	JUST KNOWING
-1.970677	JUST LINK
-1.917954	JUST NEED	-0.1066434
-1.902666	JUST ONLY
-1.970677	JUST PRINTS
-1.853035	JUST TEXT
-1.318449	JUST TO
-1.902666	JUST ZERO
-0.7376357	KALDI </s>
-2.104234	KALDI ACTUALLY
-1.695591	KALDI AND
-2.036696	KALDI ARE
-2.243038	KALDI AUTHORS
-2.23705	KALDI COMPONENTS
-2.171871	KALDI DATASETS
-2.171871	KALDI DIRECTORIES
-2.019183	KALDI DIRECTORY
-2.2101	KALDI DOWNLOAD
-2.23705	KALDI ENVIRONMENT
-1.556124	KALDI FOR	-0.1066434
-2.243038	KALDI FUNCTIONALITY
-1.683538	KALDI IN
-2.196979	KALDI INSTALLATION
-2.136737	KALDI ON
-2.2101	KALDI RECIPIES
-2.243038	KALDI REQUIRES
-2.243038	KALDI ROOT
-2.159841	KALDI SCRIPT
-1.714876	KALDI SCRIPTS
-2.223629	KALDI SOURCE
-1.503324	KALDI TO
-2.196979	KALDI TOOLKIT
-1.7597	KALDI TOOLS
-1.769249	KALDI TUTORIAL
-2.243038	KALDI URL
-2.171871	KALDI USING
-1.850604	KALDI WE
-0.5807347	KEPT </s>
-1.048151	KEPT IN
-0.946377	KIND AUDIO
-0.922883	KIND OF
-1.477945	KNOW HOW
-1.004702	KNOW THAT	-0.0669295
-1.494564	KNOW THAT'S
-1.357657	KNOW THE
-1.036945	KNOW WHAT
-0.6434861	KNOWING THAT
-0.6592036	KNOWLEDGE ABOUT
-0.6593904	LABEL PARTS
-0.633724	LABELING THE
-1.239992	LABELS BECAUSE
-1.162565	LABELS FOR
-1.236615	LABELS OR
-1.25377	LABELS RELATED
-1.073815	LANGUAGE </s>
-0.7108822	LANGUAGE DATA
-0.7196947	LANGUAGE MODEL	-0.04881238
-1.307766	LANGUAGE MODELING
-1.7691	LANGUAGE MODELLING
-0.9559661	LANGUAGES BASH
-0.9594721	LANGUAGES MAINLY
-0.9598451	LAST CHAPTER
-0.9594721	LAST JOB
-0.6517194	LAUNCHED SOME
-0.626647	LAZY AND
-0.9524546	LEARN HOW
-0.9598451	LEARN MEANINGFUL
-0.6593904	LEARNING ALGORITHM
-0.6593904	LEAST SEVERAL
-1.134803	LESS AMOUNT
-1.135362	LESS PROGRAM
-1.039643	LESS TO
-0.6417726	LET IT
-1.784543	LET'S CHECK
-1.795916	LET'S CONNECT
-1.730787	LET'S CREATE
-1.72079	LET'S JUST
-1.784543	LET'S MAKE
-1.798388	LET'S PROCEED
-1.790303	LET'S READ
-1.338088	LET'S SAVE
-1.767706	LET'S SEE
-1.784543	LET'S START
-1.338947	LET'S TAKE	-0.1066434
-1.784543	LET'S TRY
-0.8939329	LEXICON </s>
-1.043939	LEXICON AND
-1.134803	LEXICON TXT
-0.7848144	LIBRARIES </s>
-0.9395337	LIBRARIES FROM
-1.006603	LIBRISPEECH </s>
-1.342157	LIBRISPEECH AGAIN
-1.213211	LIBRISPEECH AND
-1.313123	LIBRISPEECH AS
-1.356064	LIBRISPEECH RECIPE
-1.197501	LIKE IT
-0.780314	LIKE THIS
-1.143456	LIKE TO
-0.6249985	LIKED TO
-0.6400657	LIKELY WE
-0.7848144	LINE </s>
-0.9598451	LINE UTILITY
-0.6593904	LINEAR ALGEBRA
-1.105279	LINES FROM
-1.135362	LINES MATCHING
-1.039643	LINES TO
-0.6593904	LINGUISTIC RESOURCES
-0.6249985	LINK TO
-0.8939329	LINKS </s>
-1.040713	LINKS IN
-1.039643	LINKS TO
-1.006603	LINUX </s>
-1.356064	LINUX REPRESENTATION
-1.34864	LINUX RUNNING
-1.342157	LINUX TOOLS
-1.329476	LINUX WILL
-1.444344	LIST ALL
-1.497097	LIST ATTRIBUTES
-1.446966	LIST FILES
-0.9967661	LIST OF
-1.452259	LIST SOME
-1.310421	LIST TO
-0.6491025	LISTED FROM
-1.383694	LISTS ALL
-1.395658	LISTS AUDIO
-1.420621	LISTS EH
-1.434673	LISTS NONSILENCE
-1.434673	LISTS OPTIONAL
-1.428398	LISTS SILENCE
-0.6592036	LITTLE BIT
-0.6587758	LM ORDER
-1.318172	LOCAL AND
-1.499946	LOCAL CORPUS
-1.501194	LOCAL CPU
-1.01877	LOCAL DIRECTORY
-1.485446	LOCAL SYSTEM
-1.385735	LOCAL WE
-0.62541	LOCATION IN
-0.9084244	LOGS FOR
-0.9395337	LOGS FROM
-1.432254	LOOK AT
-1.435273	LOOK CONSISTENT
-0.5891342	LOOK FOR
-1.42792	LOOK INTO
-0.6328854	LOOKING FOR
-1.095724	LOOKS BETTER
-1.096745	LOOKS CORRECT	-0.1066434
-1.092555	LOOKS GOOD	-0.1066434
-1.095724	LOOKS LIKE
-0.8944317	LOOP IN
-0.9586184	LOOP MEANS
-0.5630019	LOST </s>
-0.6592036	M MALE
-0.6593904	MACHINE LEARNING
-0.9608602	MADE </s>
-1.226638	MADE A	-0.1066434
-1.246826	MADE ANY
-1.239992	MADE BY
-0.6473666	MAIN KALDI
-0.9559661	MAINLY BASH
-0.9598451	MAINLY DEALS
-1.302165	MAKE DATA
-1.278684	MAKE IT
-1.321133	MAKE SOME
-0.893512	MAKE SURE
-0.6508453	MAKEFILE FILES
-0.6556745	MAKING OUR
-0.7848144	MALE </s>
-0.9498395	MALE SPEAKERS
-1.134803	MANY MISTAKES
-1.132201	MANY RECIPIES
-1.133525	MANY TIMES
-0.2778011	MAPPING </s>
-0.6452066	MATCHED WITH
-0.6508453	MATCHING A
-0.7909029	MAY BE
-1.252656	MAY FIND
-1.259177	MAY NOTICE
-1.133525	ME DESCRIBED
-1.121747	ME SO
-1.089412	ME THAT
-0.9594721	MEAN ANYTHING
-0.9286385	MEAN THAT
-0.6578875	MEANINGFUL EHM
-1.126603	MEANS GO
-0.6570646	MEANS THAT
-0.6587758	MECHANISM POSSIBLE
-0.8939329	MENTIONED </s>
-1.133525	MENTIONED BEFORE
-1.040713	MENTIONED IN
-0.6592036	MENTIONS VOXFORGE
-0.7848144	METHODS </s>
-0.9437981	METHODS ARE
-0.9594721	MFCC EXTRACTION
-0.9594721	MFCC FEATURE
-0.5630019	MIDDLE </s>
-0.6547925	MIGH BE
-0.4934054	MIGHT BE
-0.2082456	MINI LIBRISPEECH
-0.9253403	MISSING IT
-0.9594721	MISSING YEAH
-0.8944317	MISTAKE IN
-0.9489712	MISTAKE THERE
-0.4754988	MISTAKES IN
-0.9542068	MODE AGAIN
-0.922883	MODE OF
-1.237801	MODEL FOR
-1.353016	MODEL ORDER
-1.337889	MODEL RECIPY
-1.34864	MODEL TOOLKIT
-1.342157	MODEL TRAINING
-0.9429418	MODELING FILES
-0.9568483	MODELING TOOLKIT
-0.6578875	MODELLING TOOLKIT
-0.4754988	MODIFICATIONS IN
-0.6592036	MODIFIED ARGUMENTS
-0.6592036	MODIFY ARGUMENTS
-0.6543521	MOMENT BECAUSE
-0.5630019	MONO </s>
-0.6565583	MONOPHONE TRAINING
-1.35593	MORE PRECISELY
-1.337163	MORE SPEAKERS
-0.5296599	MORE THAN	-0.06571677
-1.353016	MOST IMPORTANT
-1.325329	MOST IT'S
-1.356064	MOST LIKELY
-1.269274	MOST OF
-1.356064	MOST PEOPLE
-0.6593904	MUCH SIMPLER
-0.4934054	MUST BE	-0.06778759
-1.188566	MY EXAMPLE
-1.648501	MY EXEMPLARY
-1.65259	MY EXPERIENCE
-1.65259	MY NAMING
-1.654386	MY OPINION
-1.648501	MY OWN
-1.648501	MY PATTERN
-1.654386	MY PIECE
-1.63599	MY TUTORIAL
-0.5630019	N </s>
-1.178743	NAME </s>
-1.78538	NAME ALREADY
-1.74343	NAME BUT
-1.790921	NAME DOT
-1.542859	NAME FOR
-1.798692	NAME GLUED
-1.657541	NAME I
-0.9404981	NAME OF	-0.1801832
-1.728688	NAME OR
-1.798692	NAME OTHERWISE
-1.774507	NAME WITHOUT
-1.78538	NAME YWEWELER
-0.4754988	NAMED IN	-0.06795033
-0.5630019	NAMES </s>
-0.9598451	NAMING APPROACH
-0.9598451	NAMING WORKS
-0.6556745	NANO IF
-1.237801	NECESSARY FOR
-1.299303	NECESSARY KALDI
-1.34864	NECESSARY LINUX
-1.355136	NECESSARY STUFF
-1.206882	NECESSARY TO
-1.744199	NEED AN
-1.71849	NEED AUDIO
-1.767881	NEED DON'T
-1.734379	NEED NOT
-0.3640926	NEED TO	-0.2012657
-1.71538	NEED UTTERANCE
-1.76935	NEED YWELWER
-0.7848144	NEEDED </s>
-0.9084244	NEEDED FOR
-1.257283	NEW END
-1.243396	NEW FOLDER
-1.258983	NEW LINE
-1.255523	NEW RECIPIES
-0.6583314	NEWLY MADE
-1.50294	NEXT FILE
-1.441378	NEXT IS
-1.061484	NEXT ONE	-0.3618829
-1.540603	NEXT PART
-1.547211	NEXT STEP
-1.55392	NEXT THING
-1.557184	NEXT VIDEO	-0.1066434
-0.6556745	NICE IF
-1.019137	NICOLAS </s>
-0.8414404	NICOLAS AND
-1.215016	NICOLAS IN
-1.271708	NICOLAS WE
-0.6765008	NINE </s>
-1.259874	NINE SEVEN
-1.241369	NINE SPEAKERS
-0.6456377	NJ ONE
-1.258983	NO EXTERNAL
-1.258983	NO PROBLEM
-1.25377	NO SUCH
-1.187372	NO WE
-0.6593904	NOISE ENVIRONMENTS
-0.6583314	NONSILENCE PHONES
-0.9084244	NORMAL FOR
-0.9594721	NORMAL MODE
-1.224997	NORMALLY ALL
-1.25377	NORMALLY EHM
-1.193421	NORMALLY IT
-1.207347	NORMALLY YOU
-2.003696	NOT ALREADY
-2.026988	NOT AROUND
-1.536058	NOT BE
-2.022792	NOT CONTAINED
-1.529617	NOT CREATE
-1.967182	NOT DO
-2.026988	NOT FAMILIAR
-1.985055	NOT FIND
-1.925473	NOT HAVE
-2.022792	NOT MEAN
-2.022792	NOT MENTIONED
-1.994276	NOT NECESSARY
-1.569646	NOT NEEDED	-0.1066434
-1.950014	NOT ONLY
-2.013326	NOT SHARED
-2.003696	NOT SILENCE
-1.651528	NOT THE
-1.950014	NOT USE
-1.950014	NOT USED
-2.026988	NOT VISIBLE
-2.022792	NOT YET
-0.9568483	NOTHING MORE
-0.8936673	NOTHING TO
-0.6593904	NOTICABLE DIFFERENCES
-0.944656	NOTICE SOME
-0.9489712	NOTICE THERE
-1.610267	NOW ALL
-1.190244	NOW I
-1.543618	NOW IS
-1.540378	NOW IT
-1.633632	NOW IT'S
-1.629649	NOW TEXT
-1.625703	NOW UTTERANCE
-1.169145	NOW WE	-0.2305281
-1.570445	NOW YOU
-0.8648073	NUMBER OF
-0.8725729	NUMBER ONE
-1.326791	NUMBER TWO
-0.4359177	OBVIOUSLY </s>
-0.62541	OCCUR IN
-2.392541	OF ACTUAL
-1.831741	OF ALL
-2.27919	OF ANY
-2.392541	OF ART
-2.182636	OF AUDIO
-2.392541	OF CALCULATIONS
-1.514562	OF DATA
-2.392541	OF DATE
-2.321757	OF EACH
-2.161515	OF FILE
-2.141373	OF FILES
-1.893867	OF HOW	-0.1066434
-2.385239	OF INPUT
-2.392541	OF LINEAR
-1.781678	OF ONE
-2.26588	OF OUR
-2.392541	OF PARALLEL
-2.385239	OF PROBLEMS
-2.29292	OF SCRIPT
-2.352646	OF SOMETHING
-1.872156	OF SPEAKER	-0.06726639
-2.228235	OF SPEAKERS
-2.26588	OF SPEECH
-2.321757	OF SPOKEN
-2.385239	OF STRINGS
-0.7540749	OF THE	-0.2551872
-2.252965	OF THESE
-1.180489	OF THIS
-2.252965	OF THREE
-2.385239	OF UNDERSTANDING
-1.851479	OF UTTERANCE
-2.27919	OF UTTERANCES
-2.392541	OF WAITING
-1.535998	OF YOUR	-0.06796817
-0.4949979	OFFICIAL PROJECT
-0.6417726	OFTEN IT
-0.626647	OH AND
-1.145312	OKAY </s>
-1.464998	OKAY AND
-1.747629	OKAY ANOTHER
-1.711026	OKAY BUT
-1.731563	OKAY HERE
-1.624884	OKAY I
-1.742208	OKAY LET'S
-1.747629	OKAY LOOKS
-1.711026	OKAY SO
-1.59701	OKAY THAT
-1.75312	OKAY THAT'S
-1.516291	OKAY THE	-0.1066434
-1.75868	OKAY WHERE
-1.297362	ON DIFFERENT
-1.292048	ON HOW	-0.1066434
-1.697375	ON JUST
-1.73966	ON MY
-1.767061	ON SOLUTION
-1.711017	ON SPEAKERS
-1.210434	ON THE
-1.764861	ON WINDOWS
-1.274791	ON YOUR	-0.1066434
-1.058424	ONE </s>
-2.199841	ONE ACTUALLY
-2.158016	ONE AUDIO
-1.837944	ONE BY	-0.1066434
-1.87269	ONE FIELD
-1.810225	ONE FILE
-2.271261	ONE FIVE
-2.31192	ONE FIX
-1.845027	ONE FOR
-1.88315	ONE FOUR
-1.025739	ONE IS
-2.222367	ONE LANGUAGE
-2.31192	ONE NUMBER
-2.340726	ONE OPTION
-2.326365	ONE OVER
-2.326365	ONE PERSON
-2.31192	ONE PHONE
-2.271261	ONE RECORDING
-2.326365	ONE SEPARATE
-1.8332	ONE SPEAKER
-1.31145	ONE THOUSAND	-0.04850238
-2.326365	ONE TIME
-2.158016	ONE TWO
-1.814724	ONE UTTERANCE
-2.347144	ONE WARNING
-1.529888	ONE WORD
-1.049147	ONE ZERO	-0.2258617
-1.732576	ONLY DIFFERENCE
-1.2648	ONLY DIGITS
-1.711016	ONLY FIELD
-1.701519	ONLY HAS
-1.678648	ONLY HAVE	-0.3618829
-1.220722	ONLY ONE
-1.720725	ONLY SELECT
-1.730464	ONLY SORRY
-1.711016	ONLY SPOKEN
-1.504739	ONLY THE
-0.6508453	OPEN A
-0.626647	OPERATE AND
-0.9550855	OPERATING SYSTEM
-0.9577325	OPERATING SYSTEMS
-0.9437981	OPERATIONS ARE
-0.8936673	OPERATIONS TO
-0.6473666	OPINION KALDI
-0.6249985	OPPOSITE TO
-0.6404918	OPTIMIZATION OF
-0.5807347	OPTION </s>
-1.131407	OPTION F
-0.6583314	OPTIONAL SILENCE
-1.827641	OR ALTERNATIVELY
-1.818825	OR ATTRIBUTES
-1.827641	OR CAPITAL
-1.827641	OR FIXES
-1.546323	OR FOR
-1.824944	OR KEPT
-1.812553	OR LABELS
-1.748946	OR OR
-1.794261	OR RECORDING	-0.1066434
-1.818825	OR SHARED
-1.827641	OR SUDDENLY
-1.553123	OR THE
-1.217986	OR TO
-1.661543	OR YOU
-0.8939329	ORDER </s>
-1.135362	ORDER N
-1.095446	ORDER ONE
-0.7848144	ORG </s>
-0.9594721	ORG DOC
-1.353317	OTHER FIELDS
-1.351234	OTHER LABELS
-0.8917906	OTHER RECIPIES
-1.323076	OTHER SCRIPTS
-0.6539122	OTHERWISE THERE
-1.687344	OUR CASE
-1.602381	OUR DATA
-1.696376	OUR INTENTION
-1.691114	OUR OWN
-0.6444078	OUR RECIPY	-0.3326905
-1.228082	OUR SYSTEM
-1.683606	OUR WORDS
-1.188876	OUT OF
-1.229938	OUT SOME
-1.136419	OUT TO
-1.255523	OUT WHAT
-0.922883	OUTPUT OF
-0.9327967	OUTPUT YOU
-0.6635949	OVER ALL
-1.124221	OVER THREE
-1.102137	OWN </s>
-1.566116	OWN ASR
-1.55198	OWN AUDIO	-0.1066434
-1.512141	OWN DATA
-1.592017	OWN PROJECT
-1.577028	OWN RECIPY
-1.548517	OWN SCRIPTS
-1.588221	OWN SET
-1.609052	OWN TRACKS
-0.6592036	PARALLEL JOBS
-0.6552333	PARENT FOLDER
-0.8934945	PART </s>
-0.4439544	PART IS	-0.2386567
-1.420366	PART OF
-1.494564	PARTICULAR CASE
-1.429157	PARTICULAR KALDI
-1.034002	PARTICULAR RECORDING	-0.1066434
-1.027211	PARTICULAR SPEAKER
-1.469868	PARTICULAR SPEAKERS
-0.6404918	PARTS OF
-0.5630019	PASS </s>
-0.6465013	PASTE THIS
-0.746075	PATH </s>
-1.343001	PATH AGAIN
-1.273441	PATH OF
-1.2135	PATH TO
-1.496798	PATTERN MEANS
-1.493746	PATTERN PHONE
-1.490716	PATTERN SPEAKERID
-1.499752	PATTERN STAR
-1.455914	PATTERN TEXT
-1.501048	PATTERN UTERRANCEID
-1.493746	PATTERN WORD
-0.62541	PATTERNS IN
-0.6465013	PEOPLE I
-1.245107	PER DATASET
-1.137756	PER IN
-1.250284	PER RECORDING
-1.2383	PER SPEAKER
-0.7630436	PERFECT FOR
-1.144728	PERFECT IN
-1.257585	PERFECT TIME
-0.8939329	PERSON </s>
-1.121747	PERSON BUT
-1.134803	PERSON DURING
-0.6465013	PERSONALLY I
-0.7848144	PHOENIX </s>
-0.9598451	PHOENIX SERVER
-0.9608602	PHONE </s>
-1.207347	PHONE ONE
-1.257283	PHONE TRANSCRIPTIONS
-1.233264	PHONE TWO
-0.9608602	PHONES </s>
-1.236615	PHONES OR
-1.199555	PHONES THAT
-1.223363	PHONES WHICH
-0.9598451	PHONETIC ALPHABET
-0.9577325	PHONETIC TRANSCRIPTION
-0.6404918	PIECE OF
-0.6587758	PLACE WHERE
-0.9101179	PLACED </s>
-0.639986	PLACED IN
-0.5630019	PLAIN </s>
-0.6452066	PLAY WITH
-0.9598451	PLEASE OPEN
-0.9598451	PLEASE SEND
-0.6593904	PLUS MIGH
-0.922883	POINT OF
-0.9344711	POINT THIS
-0.6249985	POINTS TO	-0.1066434
-0.6556745	POPULAR SPEECH
-0.6593904	PORTABLE MAKEFILE
-1.131407	POSSIBLE RUNNING
-0.6395967	POSSIBLE TO
-0.6574439	PRE-RECORDED SPOKEN
-0.7848144	PRECISELY </s>
-0.9586184	PRECISELY DESCRIBED
-0.5630019	PRECONDITION </s>
-0.6530338	PREDEFINED IT'S
-1.006603	PREPARATION </s>
-1.213211	PREPARATION AND
-1.317154	PREPARATION ARE
-1.346468	PREPARATION EACH
-1.344307	PREPARATION PART
-0.9361521	PREPARE DATA
-0.9568483	PREPARE RUNNING
-0.9361521	PREPARED DATA
-0.9455156	PREPARED SCRIPTS
-0.62541	PRESENT IN
-0.6578875	PREVIOUS STEP
-0.4806136	PRINT THE
-0.633724	PRINTS THE
-0.9542068	PROBABLY HAS
-0.9327967	PROBABLY YOU
-0.7848144	PROBLEM </s>
-0.9319618	PROBLEM WITH
-0.7848144	PROBLEMS </s>
-0.9319618	PROBLEMS WITH
-0.6593904	PROCEED FURTHER
-0.6587758	PROCESS MAY
-0.5630019	PROCESSES </s>
-0.7848144	PROCESSING </s>
-0.9598451	PROCESSING PATTERNS
-0.6539122	PROGRAM WILL
-1.322339	PROGRAMMING AS
-0.5272182	PROGRAMMING LANGUAGE	-0.3618829
-1.35593	PROGRAMMING LANGUAGES
-0.626647	PROGRAMS AND
-0.4984726	PROJECT </s>
-1.61022	PROJECT FINALIZATION
-1.416732	PROJECT IN
-1.61022	PROJECT SITE
-1.602968	PROJECT STRUCTURE
-1.608934	PROJECT WEBSITE
-0.62541	PRONOUNCED IN
-0.9586184	PRONUNCIATION DICTIONARY
-0.922883	PRONUNCIATION OF
-1.100335	PROPER KALDI
-1.132201	PROPER SORTING
-1.126943	PROPER WAY
-0.5630019	PROPERLY </s>
-0.6249985	PROVIDE TO
-0.6592036	PSEUDO PHONETIC
-0.7848144	PURPOSE </s>
-0.922883	PURPOSE OF
-1.383694	PUT ALL
-1.390833	PUT SOME
-1.300216	PUT THE
-1.428398	PUT THEM
-1.402997	PUT THERE
-1.410463	PUT THESE
-0.4359177	PYTHON </s>
-0.6593904	QUALITY NOISE
-0.5630019	QUANTITY </s>
-0.9598451	QUICKLY BUILD
-0.9577325	QUICKLY FIX
-1.485446	QUITE DIFFERENT
-1.491233	QUITE EHM
-1.037827	QUITE IMPORTANT	-0.1066434
-1.501194	QUITE OFTEN
-1.499946	QUITE SPECIAL
-1.494155	QUITE USEFUL
-0.6249985	R TO
-1.442198	READ ALL
-1.478803	READ ANY
-1.306478	READ IN
-1.391295	READ IT
-1.450376	READ SOME
-1.493746	READ SOMETHING
-1.347904	READ THE
-0.9101179	READY </s>
-0.6395967	READY TO
-0.6561162	REALLY WOULD
-0.6592036	REASON WHY
-0.650409	REASONS ALL
-0.6565583	RECIPE AGAIN
-0.746075	RECIPIES </s>
-1.319198	RECIPIES ARE
-1.315355	RECIPIES AS
-1.326988	RECIPIES JUST
-0.7974817	RECIPY </s>
-0.8923131	RECIPY AND	-0.0678101
-1.720575	RECIPY BUT
-1.543079	RECIPY FOR
-1.49448	RECIPY IN
-1.610971	RECIPY IS
-1.645728	RECIPY THIS
-1.594583	RECIPY WE
-1.675686	RECIPY WHICH
-1.213211	RECOGNITION AND
-1.356064	RECOGNITION SUBJECT
-1.344307	RECOGNITION SYSTEM
-1.350822	RECOGNITION SYSTEMS
-1.267464	RECOGNITION WE
-0.9515811	RECOGNIZABLE FOLDER
-0.9542068	RECOGNIZABLE WAY
-0.5630019	RECOMMEND </s>
-0.6556745	RECOMMENDED RECIPY
-0.6512821	RECORD YOUR
-0.62541	RECORDED IN
-0.8482946	RECORDING </s>
-1.449035	RECORDING FILES
-1.438982	RECORDING FROM
-1.486175	RECORDING ID
-1.039296	RECORDING SESSION
-0.5630019	RECORDINGID </s>
-1.075787	RECORDINGS </s>
-1.348539	RECORDINGS FOR
-0.9967661	RECORDINGS OF
-1.494155	RECORDINGS PER
-1.414052	RECORDINGS WITH
-1.48833	RECORDINGS WITHOUT
-0.9507094	REDIRECTION BUT
-0.9568483	REDIRECTION COMMAND
-0.6593904	REGULAR EXPRESSION
-0.6249985	RELATE TO
-0.1534884	RELATED TO
-0.6249985	RELATES TO
-0.6593904	RELATIVELY EASY
-0.6561162	REMOVES UTTERANCES
-0.633724	REPEAT THE	-0.3618829
-0.6583314	REPRESENT TESTING
-0.649973	REPRESENTATION WHICH
-0.6574439	REPRESENTING PARTICULAR
-0.6434861	REQUIREMENT THAT
-0.6593904	REQUIRES SOLID
-0.6578875	RESOURCES SUCH
-0.9577325	REST NINE
-0.922883	REST OF
-0.9429418	RESULT FILES
-0.8936673	RESULT TO
-0.7995396	RESULTS </s>
-1.274351	RESULTS AND
-1.385882	RESULTS AS
-1.269113	RESULTS IN
-1.421353	RESULTS USING
-0.4961645	REVISION CONTROL	-0.1066434
-0.626647	RICH AND
-0.6593904	RIGHT AWAY
-0.6556745	RM DATASET
-0.6587758	ROOT PATH
-0.626647	ROUGHLY AND
-0.6583314	RULE NUMBER
-1.415512	RUN AN
-1.338887	RUN IT
-1.418059	RUN SCRIPT
-1.300216	RUN THE
-1.410463	RUN THESE
-1.362957	RUN THIS
-0.6521571	RUNNIG SCRIPTS
-1.302165	RUNNING KALDI
-1.35621	RUNNING PROPERLY
-0.8818064	RUNNING SCRIPTS
-1.298469	RUNNING THIS
-0.6574439	RUNS DECODING
-0.650409	S5 DIRECTORY
-0.6593904	SAFETY MECHANISM
-0.6543521	SAID BY
-1.115704	SAME </s>
-1.618844	SAME DATASET
-1.572715	SAME DIRECTORY
-1.444219	SAME FOR	-0.03750063
-1.397942	SAME IN
-1.648204	SAME PERSON
-1.643886	SAME SIMPLE
-1.639611	SAME TEST
-1.587553	SAME UTTERANCE
-1.627032	SAME WAY
-1.084644	SAVE IT
-1.062686	SAVE THE
-1.097884	SAVE THIS
-0.6534728	SAVES OR
-0.7848144	SAY </s>
-0.9568483	SAY MORE
-0.6456377	SAYS ONE
-0.4944664	SCORING SCRIPT
-1.019137	SCP </s>
-0.8414404	SCP AND
-1.243247	SCP FOR
-1.345044	SCP PART
-0.7848144	SCRATCH </s>
-0.9507094	SCRATCH BUT
-0.7913687	SCRIPT </s>
-1.191146	SCRIPT AND
-1.767365	SCRIPT EXECUTES
-1.534353	SCRIPT FOR
-1.750702	SCRIPT INTO
-1.304767	SCRIPT PROGRAMMING
-1.67138	SCRIPT WHICH
-1.709233	SCRIPT WILL
-1.629192	SCRIPT WITH
-0.8129368	SCRIPTS </s>
-2.010644	SCRIPTS ALLOWING
-1.372147	SCRIPTS AND
-1.502375	SCRIPTS ARE
-1.865748	SCRIPTS AS
-1.999141	SCRIPTS BELOW
-1.553383	SCRIPTS CREATION	-0.1066434
-1.402267	SCRIPTS FOR
-1.847982	SCRIPTS FROM
-1.366366	SCRIPTS IN
-2.010644	SCRIPTS RIGHT
-1.602081	SCRIPTS TO
-1.49459	SCRIPTS WHICH
-2.010644	SCRIPTS YESNO
-0.6249985	SCROLL TO
-0.6328854	SEARCH FOR
-0.8967327	SEARCHING AND
-0.9598451	SEARCHING PLAIN
-0.6570009	SECOND PART
-0.6593904	SECONDS ROUGHLY
-0.746075	SECTION </s>
-1.219595	SECTION AND
-1.315355	SECTION AS
-1.35621	SECTION RELATES
-0.6328854	SECTIONS FOR
-0.5630019	SED </s>
-1.574695	SEE FOR
-1.804828	SEE IF
-1.517905	SEE IN
-1.322095	SEE THAT	-0.1066434
-1.280789	SEE THE
-1.782508	SEE THERE
-1.335488	SEE THIS
-1.361513	SEE UTTERANCE	-0.1066434
-1.636144	SEE WE
-1.391402	SEE WHAT
-1.689805	SEE YOU	-0.1066434
-0.6434861	SEES THAT
-0.8903502	SELECT FIELD	-0.1066434
-1.326988	SELECT JUST
-1.349161	SELECT MORE
-1.294804	SELECT ONE
-0.6583314	SEND THEM
-0.9608602	SENTENCE </s>
-1.194946	SENTENCE IS
-1.259727	SENTENCE SAID
-1.231598	SENTENCE UTTERANCE
-0.8939329	SENTENCES </s>
-1.089412	SENTENCES THAT
-1.125638	SENTENCES UTTERANCES
-1.224997	SEPARATE DIRECTORY
-1.255523	SEPARATE FOLDERS
-1.255523	SEPARATE PHONES
-1.2383	SEPARATE SPEAKER
-0.9498395	SEPARATED BY
-0.946377	SEPARATED TEXT
-0.5630019	SERVER </s>
-0.650409	SERVERS AS
-0.8939329	SESSION </s>
-1.119172	SESSION THERE
-1.094233	SESSION WITH
-0.8741611	SET </s>
-0.6603515	SET OF	-0.06753897
-1.038357	SET UP	-0.3618829
-0.5630019	SETS </s>
-0.6578875	SETTING LOCAL
-0.6525952	SEVEN TWO
-0.6570009	SEVERAL DIFFERENT
-0.6473666	SH DATA	-0.1066434
-1.135362	SHARED BETWEEN
-1.100335	SHARED KALDI
-1.126943	SHARED TOOLS
-0.626647	SHELL AND
-0.9568483	SHIFT F
-0.9577325	SHIFT G
-0.9550855	SHORT EH
-0.9559661	SHORT TUTORIAL
-0.6593904	SHORTEST UNIT
-1.085396	SHOULD BE
-1.554219	SHOULD CONTAIN
-1.519648	SHOULD CREATE
-1.558761	SHOULD GUIDE
-1.525733	SHOULD NOT
-1.087625	SHOULD USE
-1.342219	SHOW HOW
-1.356665	SHOW NOTICABLE
-0.5215454	SHOW YOU	-0.06787609
-0.9749882	SILENCE </s>
-0.7954397	SILENCE PHONES	-0.1066434
-1.225736	SILENCE WHICH
-0.6593904	SIMILAR LOCATION
-0.9608602	SIMPLE </s>
-1.239992	SIMPLE ASR
-1.250284	SIMPLE SET
-1.257283	SIMPLE TRIPHONE
-0.62541	SIMPLER IN
-1.101094	SINCE I
-0.6538359	SINCE WE
-0.6521571	SINGLE UTTERANCE
-0.626647	SITE AND
-0.6434861	SITUATION THAT
-0.4762622	SIX AND
-0.5630019	SIZE </s>
-0.6570009	SLIGHTLY DIFFERENT
-0.6685579	SMALL DATASET
-1.127799	SMALL TRAINING
-1.844995	SO AS	-0.1066434
-1.972667	SO BASENAME
-1.948716	SO F
-1.928519	SO HERE
-1.798705	SO I
-1.605113	SO IN
-1.878844	SO IT'S
-1.941879	SO LET'S
-1.955663	SO NORMALLY
-0.6578696	SO THAT
-1.672571	SO THE
-1.347322	SO TO
-1.928519	SO WAV
-1.731075	SO WE
-1.789056	SO YOU
-0.6593904	SOFTWARE COMPILATION
-0.6593904	SOLID KNOWLEDGE
-0.6556745	SOLUTION USED
-1.986097	SOME AMOUNT
-1.977208	SOME ATTRIBUTES
-1.977208	SOME COMMENTS
-1.986097	SOME COMMON
-1.968155	SOME CONFIGURATION
-1.519423	SOME DECODING	-0.1066434
-1.959286	SOME EXAMPLE
-1.986097	SOME EXAMPLES
-1.990033	SOME FORM
-1.990033	SOME HANDY
-1.942075	SOME ID
-1.986097	SOME ITEM
-1.787524	SOME KALDI
-1.986097	SOME MODIFICATIONS
-1.959286	SOME NECESSARY
-1.968155	SOME NUMBER
-1.701959	SOME OF
-1.986097	SOME POINT
-1.990033	SOME PSEUDO
-1.864969	SOME TEXT
-1.959286	SOME WORDS
-1.258983	SOMETHING ELSE
-1.257283	SOMETHING LIKE
-1.255523	SOMETHING SIMPLE
-1.136419	SOMETHING TO
-0.7848144	SORRY </s>
-0.9286385	SORRY THAT
-0.5630019	SORTED </s>
-0.9608602	SORTING </s>
-1.245107	SORTING IF
-1.137756	SORTING IN
-1.259727	SORTING ISSUES
-0.6417726	SORTS IT
-0.307982	SOURCE CODE	-0.2356459
-1.019137	SPACE </s>
-0.8414404	SPACE AND
-1.355329	SPACE SEPARATED
-1.2135	SPACE TO
-0.5929434	SPEAKER </s>
-1.358476	SPEAKER AND
-1.970002	SPEAKER DURING
-1.672286	SPEAKER FOR
-1.93007	SPEAKER HAS
-1.936517	SPEAKER ID
-1.612911	SPEAKER IN
-1.936517	SPEAKER JACKSON
-1.963307	SPEAKER MAPPING
-1.4991	SPEAKER NAME
-1.741084	SPEAKER OF
-1.972956	SPEAKER SAYS
-1.351665	SPEAKER TO	-0.06803077
-1.006603	SPEAKERID </s>
-1.313123	SPEAKERID AS
-1.355136	SPEAKERID GENDER
-1.276589	SPEAKERID IS
-1.331564	SPEAKERID SPEAKERS
-0.695564	SPEAKERS </s>
-1.261369	SPEAKERS AND
-1.792869	SPEAKERS ASR
-1.80336	SPEAKERS FOLDER
-1.589656	SPEAKERS FOR
-1.853754	SPEAKERS GENDER
-1.853754	SPEAKERS GENDERS
-1.836444	SPEAKERS INTO
-1.836444	SPEAKERS SPEAKERID
-1.830752	SPEAKERS THEO
-1.74391	SPEAKERS WHICH
-1.699915	SPEAKERS YOU
-0.944656	SPECIAL FILE
-0.9542068	SPECIAL WAY
-0.6328854	SPECIFIC FOR
-0.9344711	SPECIFY THIS
-0.9586184	SPECIFY UNDERSCORE
-1.655978	SPEECH CORPORA
-1.642727	SPEECH DECODING
-1.589529	SPEECH FROM
-1.549289	SPEECH IS
-0.4587164	SPEECH RECOGNITION
-1.625214	SPEECH SO
-0.6587758	SPLIT FIELDS
-0.383643	SPOKEN DIGITS
-0.9721213	SPOKEN SENTENCE
-0.6552333	SRI LANGUAGE
-0.7848144	SRILM </s>
-0.9568483	SRILM INSTALLATION
-0.6578875	STABLE LINUX
-0.4800994	STANDS FOR
-0.9550855	STAR JACKSON
-0.8936673	STAR TO
-1.222676	START FROM
-1.259874	START MAKING
-0.7786654	START WITH
-0.6452066	STARTED WITH
-0.6249985	STARTING TO
-0.626647	STATIC AND
-1.019137	STEP </s>
-0.8853459	STEP BY	-0.1066434
-1.280446	STEP IS
-1.347098	STEP TUTORIAL
-0.6765008	STEPS </s>
-1.251026	STEPS DIRECTORIES
-1.225736	STEPS WHICH
-0.6249985	STICK TO
-0.9559661	STILL GET
-0.9524546	STILL USE
-0.5630019	STOP </s>
-0.633724	STORE THE
-0.8944317	STORED IN
-0.9598451	STORED UNDER
-0.6578875	STRAIGHT INTO
-0.6565583	STRANGE NAME
-0.5630019	STREAMS </s>
-0.6593904	STREET JOURNAL
-0.4754988	STRING IN
-0.9559661	STRINGS EACH
-0.9542068	STRINGS NEED
-1.006603	STRUCTURE </s>
-1.317154	STRUCTURE ARE
-1.237801	STRUCTURE FOR
-1.337889	STRUCTURE HOW
-1.329476	STRUCTURE WILL
-0.9524546	STUFF IF
-0.9568483	STUFF RELATED
-0.5630019	SUBCOMMAND </s>
-0.6587758	SUBFOLDER FOLLOWING
-1.121747	SUBFOLDERS BUT
-1.060438	SUBFOLDERS FOR
-1.132201	SUBFOLDERS INSIDE
-0.626647	SUBJECT AND
-0.5630019	SUBVERSION </s>
-0.6473666	SUCCESSFUL KALDI
-0.8939329	SUCCESSFULLY </s>
-1.121747	SUCCESSFULLY BUT
-1.134803	SUCCESSFULLY VALIDATED
-1.317272	SUCH A
-1.315355	SUCH AS
-1.353317	SUCH LINKS
-0.8881984	SUCH UTTERANCES
-0.6574439	SUDDENLY USUALLY
-0.8936673	SUGGEST TO
-0.9327967	SUGGEST YOU	-0.1066434
-0.7848144	SUGGESTS </s>
-0.8936673	SUGGESTS TO
-0.6587758	SUM UP
-0.5630019	SUMMARY </s>
-0.5630019	SUPPLIES </s>
-0.9286385	SURE THAT
-0.9327967	SURE YOU
-0.6543521	SURROUNDED BY
-0.6249985	SWITCHES TO
-0.6587758	SYMBOLIC LINKS
-0.6574439	SYMLINK UTILS
-0.6593904	SYNTAX DETAILS
-0.6525683	SYSTEM </s>
-1.519954	SYSTEM AND
-1.216972	SYSTEM IN
-1.797255	SYSTEM JOBS
-1.619596	SYSTEM OF
-1.799405	SYSTEM SUBVERSION
-1.772617	SYSTEM USING
-1.701526	SYSTEM WHICH
-1.763068	SYSTEM WOULD
-1.799405	SYSTEM WRITTEN
-0.5359548	SYSTEMS </s>
-1.318012	SYSTEMS FOR
-1.288877	SYSTEMS IN
-1.434354	SYSTEMS MUST
-0.6508453	TAKE A	-0.1066434
-0.4899747	TAKEN FROM	-0.1066434
-0.6587758	TAKES TIME
-0.4359177	TASK </s>
-0.650409	TEAMLAB DIRECTORY
-1.355329	TELLS CUT
-1.338942	TELLS HOW
-1.2465	TELLS THE
-0.8932081	TELLS US
-0.6574439	TEN DIGITS
-1.043939	TERMINAL AND
-1.129564	TERMINAL SHOULD
-1.135362	TERMINAL WINDOW
-0.7995396	TEST </s>
-1.274351	TEST AND
-1.342688	TEST IT
-1.421353	TEST SET
-1.434819	TEST SETS
-0.6556745	TESTED ON
-0.746075	TESTING </s>
-1.332924	TESTING BECAUSE
-1.338942	TESTING DATASET
-1.345044	TESTING SET
-1.150667	TEXT </s>
-1.88203	TEXT DATASETS
-1.072213	TEXT FILE
-0.599225	TEXT FILES
-1.673137	TEXT FOR
-1.803377	TEXT FROM
-1.891717	TEXT LOOK
-1.083492	TEXT TRANSCRIPTION	-0.3618829
-0.9327967	THAN ONE
-0.9568483	THAN SPEAKERID
-2.097757	THAT ALL
-2.22699	THAT ALSO
-1.785353	THAT ARE
-2.22699	THAT CAN
-1.863114	THAT CONTAIN	-0.1066434
-2.04139	THAT DATA
-2.250787	THAT EH
-2.250787	THAT EVERY
-2.263193	THAT EVERYTHING
-2.026543	THAT I
-2.215563	THAT IF
-1.959085	THAT IS
-1.235353	THAT IT
-2.316152	THAT ITEM
-2.275963	THAT LINUX
-2.250787	THAT LIST
-1.853209	THAT LOOKS
-2.30269	THAT MANY
-2.275963	THAT MOST
-2.30269	THAT PERSON
-2.263193	THAT SHOULD
-1.213486	THAT THE
-2.172645	THAT THERE
-1.741568	THAT THIS
-1.09893	THAT WE	-0.03898505
-2.172645	THAT WILL
-0.8536434	THAT YOU	-0.04359081
-1.258983	THAT'S ALRIGHT
-1.252023	THAT'S GOOD
-1.165411	THAT'S THE
-1.210503	THAT'S THIS
-2.432906	THE ASR
-2.139624	THE AUDIO
-2.76392	THE BASICS
-2.76392	THE BEGINNING
-2.707504	THE BETTER
-2.745993	THE CHOICE
-2.707504	THE COMMENTS
-2.76392	THE CONFIGS
-1.541139	THE DATA
-2.338145	THE DESCRIPTION	-0.1066434
-2.707504	THE DICTIONARY
-1.619261	THE DIGIT	-0.03762955
-2.090691	THE DIRECTORY
-2.745993	THE DOCUMENTATION
-2.76392	THE EGS
-2.316112	THE END	-0.1066434
-2.76392	THE EXISTING
-2.76392	THE FACT
-2.745993	THE FEATURE
-2.60556	THE FIELD
-1.694951	THE FILE	-0.113466
-2.100047	THE FILES
-1.750443	THE FIRST	-0.03205603
-2.707504	THE FOLLOWING
-2.745993	THE FORMAT
-2.745993	THE FULL
-2.745993	THE FUTURE
-2.523056	THE GO
-2.76392	THE HISTORY
-2.576282	THE ID
-2.76392	THE INDIVIDUAL
-2.745993	THE JOB
-2.189918	THE KALDI
-2.331332	THE LESS
-2.76392	THE MACHINE
-2.76392	THE MIDDLE
-2.670799	THE MINI
-2.76392	THE MOMENT
-2.636956	THE MORE
-2.636956	THE MOST
-1.279592	THE NAME	-0.4315788
-2.745993	THE NAMING
-2.636956	THE NECESSARY
-2.670799	THE NEW
-1.76315	THE NEXT	-0.07505627
-2.745993	THE OFFICIAL
-2.498704	THE ONLY
-2.670799	THE OUT
-2.670799	THE PERFECT
-2.670799	THE PHONES
-2.745993	THE POINT
-2.745993	THE PREPARATION
-2.338145	THE PRONUNCIATION
-2.745993	THE PURPOSE
-2.76392	THE REASON
-2.218964	THE RECIPY	-0.1066434
-2.745993	THE RECOGNIZABLE
-2.576282	THE RECORDING
-2.60556	THE RECORDINGS
-2.745993	THE REDIRECTION
-2.338145	THE REST
-2.745993	THE RESULT
-1.350181	THE SAME	-0.1437871
-2.244576	THE SCRIPT
-2.341481	THE SCRIPTS
-2.76392	THE SECOND
-2.76392	THE SHORTEST
-2.316112	THE SOURCE	-0.1066434
-2.413017	THE SPEAKER
-2.183173	THE SPEAKERS
-2.60556	THE SPOKEN
-2.745993	THE STUFF
-2.76392	THE SYNTAX
-2.576282	THE SYSTEM
-2.670799	THE SYSTEMS
-2.76392	THE TEAMLAB
-2.331332	THE TERMINAL
-2.286069	THE TEST
-2.139624	THE TEXT
-2.76392	THE THIRD
-1.806206	THE TO
-2.548854	THE TOOLS
-2.548854	THE TRAINING
-1.754692	THE TRANSCRIPTION
-2.316112	THE TRANSCRIPTIONS
-1.955135	THE TUTORIAL	-0.06775992
-1.880623	THE UTTERANCE	-0.04616939
-2.523056	THE UTTERANCES
-2.548854	THE WAV
-2.548854	THE WAY
-2.76392	THE WHOLE
-0.6592036	THEIR GENDERS
-1.006603	THEM </s>
-1.208456	THEM IN
-1.356064	THEM NAMES
-1.206882	THEM TO
-1.289694	THEM WITH
-1.402997	THEN CREATE
-1.362957	THEN I
-1.431022	THEN I'M
-1.42579	THEN PUT
-1.300216	THEN THE
-1.428398	THEN TRY
-0.4063008	THEO </s>
-1.421622	THEO IT
-1.414396	THEO WE
-1.497028	THEO YWEWELER
-1.060685	THERE </s>
-1.731881	THERE ALL
-0.7730647	THERE ARE
-1.816545	THERE FOLDERS
-1.301687	THERE IS
-1.821769	THERE MAY
-1.639807	THERE WE
-1.826854	THERE WERE
-1.346801	THERE WILL	-0.1066434
-1.694657	THESE AUDIO
-1.645421	THESE DATA
-1.740432	THESE DIRECTORIES
-0.9292738	THESE FILES
-1.479749	THESE IN
-1.765071	THESE OPERATIONS
-1.278895	THESE SCRIPTS
-1.765071	THESE STRINGS
-1.721539	THESE THREE
-1.694657	THESE TWO
-1.125638	THEY ALSO
-1.111539	THEY ARE
-1.135362	THEY RELATE
-1.085831	THING IS
-1.089412	THING THAT
-1.107772	THING WHICH
-1.065558	THINK </s>
-1.418551	THINK I
-1.496798	THINK I'M
-1.45871	THINK IT'S
-1.401009	THINK THAT
-1.381793	THINK WE	-0.1066434
-1.501048	THINK WHILE
-0.6570009	THIRD PART
-0.6593904	THIRTY SECONDS
-1.282859	THIS </s>
-2.450945	THIS ARCHIVE
-2.149157	THIS AS
-2.206095	THIS AUDIO
-2.366112	THIS BASH
-2.316313	THIS CAN
-2.402796	THIS CASE	-0.04087785
-2.450945	THIS CONTENTS
-2.34887	THIS DIRECTORIES
-2.149157	THIS DIRECTORY
-1.064397	THIS FILE	-0.06513493
-1.530945	THIS IS	-0.05620335
-2.34887	THIS LIST
-1.979855	THIS LOOKS
-2.442064	THIS MODE
-2.045242	THIS ONE
-2.001806	THIS OPTION
-2.42237	THIS PATTERN
-1.945143	THIS RECIPY
-2.34887	THIS RECORDING
-1.410642	THIS SCRIPT
-1.994556	THIS SECTION
-2.442064	THIS SHORT
-2.244225	THIS SPEAKER
-2.257717	THIS SPEAKERS
-2.450945	THIS STRANGE
-2.442064	THIS STRING
-2.450945	THIS SYMLINK
-1.857249	THIS THE
-2.062378	THIS THIS
-1.755668	THIS TO
-1.979855	THIS TOOLKIT	-0.1066434
-1.270431	THIS TUTORIAL	-0.0360187
-1.391579	THIS UTTERANCE	-0.047211
-2.442064	THIS VIDEO	-0.1066434
-2.402796	THIS WAS
-2.332287	THIS WAV
-2.332287	THIS WAY
-1.947814	THIS WE
-2.442064	THIS WEBSITE
-2.402796	THIS WHEN
-2.244225	THIS WILL
-1.250284	THOUSAND FIVE	-0.1066434
-1.259727	THOUSAND ITEMS
-1.257283	THOUSAND LINES
-1.252023	THOUSAND RECORDINGS
-1.238143	THREE AS	-0.1066434
-1.678648	THREE BECAUSE
-1.568975	THREE IS
-1.656921	THREE SCRIPTS
-1.678648	THREE SPEAKERS
-1.711016	THREE SPOKEN
-1.725662	THREE TIMES
-1.725662	THREE UNDERSCORE
-1.715843	THREE WORDS
-1.257981	THREE ZERO
-0.6473666	THROUGH KALDI
-0.8939329	TIME </s>
-1.040713	TIME IN
-1.039643	TIME TO
-1.109024	TIMES AS
-1.040713	TIMES IN
-1.132201	TIMES PER
-2.773188	TO ACKNOWLEDGE
-2.755379	TO ADD
-2.773188	TO ATTACH
-2.369332	TO AUDIO
-2.717127	TO AUTOMATIC
-1.731001	TO BE	-0.02727551
-2.773188	TO BEGIN
-2.717127	TO CHANGE
-2.773188	TO COMMUNICATE
-2.755379	TO CONNECT
-2.295425	TO COPY
-1.490298	TO CREATE	-0.1082594
-2.201329	TO DATA
-2.347141	TO DEAL	-0.1066434
-2.29131	TO DIRECTORY
-2.773188	TO DIVIDE
-1.951017	TO DO	-0.04561476
-2.680629	TO DOWNLOAD
-2.755379	TO EVALUATE
-2.773188	TO EXIT
-2.773188	TO FINALIZE	-0.1066434
-2.61572	TO FIND
-2.755379	TO FOLLOW
-2.773188	TO GENERATE
-1.614743	TO GET	-0.03836684
-2.241271	TO GO	-0.03743283
-2.717127	TO GREP
-2.443732	TO HAVE
-2.773188	TO INFER
-2.340378	TO INSTALL
-2.071789	TO IT
-2.773188	TO JUMP
-2.201329	TO KALDI
-1.97793	TO KNOW
-2.773188	TO LABEL
-2.48633	TO LANGUAGE
-2.281241	TO LET'S
-2.586574	TO LIST
-2.646963	TO LOOK
-1.97793	TO MAKE	-0.06710328
-2.717127	TO ME
-2.586574	TO MY
-2.773188	TO NEWLY
-2.680629	TO NINE
-2.509306	TO ONLY
-2.773188	TO OPERATE
-2.509306	TO OUR
-2.281241	TO PARTICULAR
-2.773188	TO PHOENIX
-2.773188	TO PLAY
-2.347141	TO PREPARE
-2.755379	TO PRINT
-2.773188	TO PROVIDE
-2.755379	TO QUICKLY
-1.623862	TO READ
-2.509306	TO RECIPY
-2.773188	TO RECORD
-2.773188	TO REPEAT	-0.3618829
-2.773188	TO REPRESENT
-1.626826	TO RUN
-2.347141	TO SAY
-2.352566	TO SCRIPTS
-2.773188	TO SEARCH
-1.95759	TO SEE
-2.310089	TO SELECT
-2.717127	TO SEPARATE
-2.267504	TO SET	-0.1066434
-2.325266	TO SHOW
-2.336423	TO SOME
-2.423903	TO SPEAKER
-2.509306	TO SPEECH
-2.773188	TO SPLIT
-2.680629	TO START
-2.773188	TO STORE
-2.773188	TO SUM
-2.107697	TO THAT
-1.219143	TO THE	-0.02135368
-2.48633	TO THESE
-2.717127	TO THINK
-2.773188	TO THIRTY
-1.822127	TO THIS
-2.586574	TO TRAIN
-2.773188	TO TRANSPOSE
-2.369332	TO TWO
-1.345946	TO USE
-2.352566	TO UTTERANCE
-2.717127	TO WALL	-0.1066434
-2.559262	TO WAV
-2.717127	TO WORK
-2.755379	TO WRITE
-1.879035	TO YOUR	-0.06711869
-0.6328854	TOOL FOR
-1.006603	TOOLKIT </s>
-1.34864	TOOLKIT INSTALLATION
-1.355136	TOOLKIT SRILM
-1.282157	TOOLKIT THAT
-1.344307	TOOLKIT USING
-1.149955	TOOLS </s>
-1.129663	TOOLS AND
-1.619773	TOOLS ARE
-1.234853	TOOLS ATTACHMENT
-1.612277	TOOLS DIRECTORY
-1.481684	TOOLS FOR
-1.199866	TOOLS FROM
-1.556555	TOOLS THAT
-0.5630019	TOTAL </s>
-0.5630019	TRACKS </s>
-0.5630019	TRADITION </s>
-1.110775	TRAIN </s>
-1.056553	TRAIN AND
-1.578043	TRAIN DATASET
-1.537	TRAIN DIRECTORY	-0.1066434
-1.476192	TRAIN IT
-1.585276	TRAIN SCRIPT
-1.609198	TRAIN TOOL
-1.585276	TRAIN WAV
-0.626647	TRAINED AND
-0.9681965	TRAINING </s>
-1.132046	TRAINING AND	-0.1066434
-1.195172	TRAINING DATA
-1.222351	TRAINING DATASET	-0.1066434
-1.681051	TRAINING FIRST
-1.550123	TRAINING IS
-1.693808	TRAINING METHODS
-0.6534728	TRANSCRIBING OR
-1.075787	TRANSCRIPTION </s>
-1.318172	TRANSCRIPTION AND
-0.9802914	TRANSCRIPTION FOR
-1.404406	TRANSCRIPTION THAT
-1.441737	TRANSCRIPTION WHICH
-1.479736	TRANSCRIPTION WOULD
-1.162565	TRANSCRIPTIONS FOR
-1.220112	TRANSCRIPTIONS FROM
-1.257283	TRANSCRIPTIONS SINCE
-1.258983	TRANSCRIPTIONS TAKEN
-0.6570009	TRANSFER USING
-0.6570009	TRANSPOSE EVERY
-0.8939329	TRIPHONE </s>
-1.135362	TRIPHONE PASS
-1.126943	TRIPHONE TRAINING
-0.6400657	TRUE WE
-0.6593904	TRUSTWORTHY CONVINCED
-0.2021423	TRY TO
-0.9814662	TUTORIAL </s>
-1.502941	TUTORIAL FOR
-1.453535	TUTORIAL IN
-1.572123	TUTORIAL IS
-1.732721	TUTORIAL MENTIONS
-1.258345	TUTORIAL ON
-1.272444	TUTORIAL SUGGESTS
-1.721127	TUTORIAL TELLS
-1.721127	TUTORIAL TRY
-0.6583314	TUTORIALS MADE
-1.107184	TWO </s>
-2.005814	TWO ADDITIONAL
-1.592075	TWO AND
-1.98831	TWO CONFIGURATION
-1.962834	TWO DATASETS
-1.183508	TWO DIFFERENT
-1.962834	TWO DIRECTORIES
-2.009652	TWO FILENAME
-1.860446	TWO FILES
-1.962834	TWO FIVE
-1.545459	TWO FOLDERS
-2.005814	TWO METHODS
-2.005814	TWO THOUSAND
-1.578249	TWO TO
-1.887322	TWO TWO
-1.553037	TWO UNDERSCORES
-1.98831	TWO VERY
-1.938771	TWO ZERO
-0.7848144	TXT </s>
-0.9420873	TXT AS
-0.6456377	UBUNTU ONE
-0.6583314	UNAMBIGUOUS LABELS
-0.626647	UNCOMMENT AND
-0.6473666	UNDER DATA
-1.121747	UNDERSCORE SO
-1.12304	UNDERSCORE THREE
-1.124337	UNDERSCORE ZERO
-0.8944317	UNDERSCORES IN
-0.9577325	UNDERSCORES THAT'S
-0.7848144	UNDERSTANDING </s>
-0.922883	UNDERSTANDING OF
-0.6574439	UNDERSTOOD EVERYTHING
-0.6452066	UNIFORM WITH
-0.6565583	UNIQUE NAME
-0.6404918	UNIT OF
-0.6593904	UNIX SHELL
-0.6583314	UNKNOWN WORD
-0.6517194	UNTIL SOME
-0.8939329	UP </s>
-1.125638	UP AN	-0.3618829
-1.039643	UP TO
-0.6583314	UPDATE WHAT
-0.6547925	UPDATES SO
-0.6593904	URL HTTPS
-1.089412	US THAT
-1.039643	US TO
-1.114069	US UTTERANCE
-1.92291	USE A
-2.106815	USE APPEND
-1.65074	USE AWK
-1.652478	USE CTRL
-2.101885	USE CUT
-2.047483	USE EH
-1.680342	USE FOR
-2.090795	USE GREP
-1.51075	USE IT
-1.551536	USE KALDI
-2.101885	USE LESS
-2.068599	USE LINUX
-2.057913	USE RECORDINGS
-2.101885	USE SHIFT
-2.079555	USE SPACE
-1.457283	USE THE
-2.008101	USE THESE
-1.545006	USE THIS
-2.008101	USE THREE
-1.95501	USE TWO
-2.079555	USE VERY
-2.090795	USE VIM
-1.930715	USE YOUR
-1.201257	USED </s>
-0.8379962	USED FOR
-0.8285939	USED IN
-1.662043	USED THESE
-1.140379	USED TO
-1.641413	USED TWO
-1.258983	USEFUL COMPONENTS
-1.162565	USEFUL FOR
-1.137756	USEFUL IN
-1.259727	USEFUL SECTIONS
-1.499946	USING HTTP
-1.476909	USING ONLY
-1.45493	USING SCRIPTS
-1.421429	USING THIS
-1.499946	USING WINDOWS
-1.020737	USING YOUR	-0.1066434
-1.546697	USUALLY CONTAINS
-1.553621	USUALLY DESCRIBED
-1.501089	USUALLY SOME
-1.556991	USUALLY STORED
-1.529853	USUALLY USE
-1.529853	USUALLY USED
-1.424718	USUALLY WE
-1.459818	USUALLY YOU
-1.134803	UTERRANCEID FULL
-1.13088	UTERRANCEID SPEAKERID
-1.115339	UTERRANCEID TEXT
-0.6328854	UTILITY FOR
-0.6465938	UTILS AND	-0.3618829
-1.495423	UTILS FIX
-1.444083	UTILS FROM
-1.500544	UTILS VALIDATE
-1.448719	UTILS WHICH
-1.006853	UTTERANCE </s>
-2.066314	UTTERANCE BASED
-2.079056	UTTERANCE BELONGS
-2.079056	UTTERANCE CONSIST
-2.079056	UTTERANCE CONTAINING
-2.023086	UTTERANCE HAS
-0.8863053	UTTERANCE ID	-0.05298081
-1.812153	UTTERANCE IS
-2.066314	UTTERANCE MAPPING
-2.079056	UTTERANCE MATCHED
-2.023086	UTTERANCE NAME
-1.580873	UTTERANCE OR	-0.1066434
-2.057317	UTTERANCE PER
-2.066314	UTTERANCE SENTENCE
-1.991357	UTTERANCE SO
-1.721131	UTTERANCE THE
-1.159097	UTTERANCE TO	-0.06804309
-2.057317	UTTERANCE TRANSCRIPTION
-0.6422004	UTTERANCEID IS
-0.9930201	UTTERANCES </s>
-1.708522	UTTERANCES ACTUALLY
-1.473792	UTTERANCES AND
-1.676226	UTTERANCES ARE
-1.654545	UTTERANCES FROM
-1.465502	UTTERANCES IN
-1.75392	UTTERANCES THAT'S
-1.573728	UTTERANCES WE
-1.764478	UTTERANCES WERE
-1.268126	UTTERANCES WHICH
-1.618054	UTTERANCES WITH
-0.9542068	VALIDATE AGAIN
-0.9361521	VALIDATE DATA
-0.8967327	VALIDATED AND
-0.9586184	VALIDATED SUCCESSFULLY
-0.922883	VALIDATION OF
-0.9481047	VALIDATION OR
-0.6593904	VALUES LISTED
-0.649973	VARIABLE WHICH
-0.9594721	VARIOUS LANGUAGES
-0.9598451	VARIOUS LINGUISTIC
-1.258983	VERY DETAILED
-1.257283	VERY IMPORTANT
-1.257283	VERY SMALL
-1.255523	VERY USEFUL
-0.7848144	VIDEO </s>
-0.9344711	VIDEO I	-0.1066434
-1.120458	VIM BECAUSE
-1.135362	VIM EDITOR
-1.126943	VIM HAS
-0.6593904	VISIBLE UNTIL
-0.7848144	VOXFORGE </s>
-0.9586184	VOXFORGE MANY
-0.6328854	WAITING FOR
-0.307982	WALL STREET	-0.4868216
-0.2977388	WANT TO
-0.6434861	WARNING THAT
-1.494947	WAS A
-1.558469	WAS CHANGED
-1.550145	WAS CREATED
-1.342278	WAS IN
-1.529853	WAS OUR
-1.516833	WAS SPEAKER
-1.558469	WAS STARTING
-1.539881	WAS TRAIN
-1.0325	WAV </s>
-1.728902	WAV DOT
-1.734164	WAV ENDING
-1.672189	WAV FILE
-1.665594	WAV FILES
-1.503581	WAV IN
-0.5377321	WAV SCP	-0.03634404
-0.634494	WAY </s>
-1.500597	WAY AS
-1.559068	WAY CHECKS
-1.477089	WAY I
-1.36558	WAY IN
-1.363617	WAY TO
-2.396219	WE ACTUALLY
-2.074086	WE ALREADY
-1.492281	WE ALSO	-0.2373593
-2.327511	WE ARE
-2.538101	WE ASSUMED
-1.348256	WE CAN	-0.01652602
-2.538101	WE COULD
-2.504339	WE CREATED
-2.531957	WE DID
-1.724757	WE DON'T
-2.440988	WE GO
-0.7981511	WE HAVE	-0.06446391
-2.017198	WE JUST	-0.1066434
-2.074086	WE KNOW
-0.8356008	WE NEED	-0.5181617
-1.490956	WE ONLY	-0.2391669
-2.05915	WE SEE
-2.47788	WE SHOULD
-2.538101	WE STOP
-2.058684	WE THE
-2.429356	WE USED
-2.518198	WE WANT
-0.8338494	WE WILL	-0.1668757
-1.709261	WE WOULD
-0.6473666	WEBONE KALDI
-0.7848144	WEBSITE </s>
-0.9598451	WEBSITE FILL
-0.6765008	WELL </s>
-1.247783	WELL CAN
-1.246171	WELL OUR
-0.9577325	WERE NO
-0.9598451	WERE SAVES
-1.405471	WHAT ACTUALLY
-1.341021	WHAT IS
-1.338887	WHAT IT
-1.367481	WHAT KALDI
-1.43356	WHAT KIND
-1.330455	WHAT WE
-0.6512821	WHATEVER YOUR
-1.210503	WHEN I
-1.193421	WHEN IT
-1.187372	WHEN WE
-1.207347	WHEN YOU
-1.134803	WHERE DID
-1.129564	WHERE PARTICULAR
-1.095446	WHERE YOU
-1.005764	WHICH ARE	-0.1782405
-1.596109	WHICH CONTAINS
-1.965616	WHICH CREATE
-1.859538	WHICH I
-1.645387	WHICH IN
-0.8512666	WHICH IS	-0.03261568
-1.802547	WHICH IT
-1.951705	WHICH JUST
-2.051284	WHICH LISTS
-1.606438	WHICH POINTS	-0.1066434
-2.063342	WHICH RUNS
-2.063342	WHICH SERVERS
-2.026196	WHICH SHOULD
-1.822417	WHICH THAT
-1.938226	WHICH UTTERANCE
-1.783548	WHICH WE
-2.002477	WHICH WOULD
-0.6570009	WHILE USING
-0.6593904	WHOLE CONTENT
-0.922067	WHY WE
-0.9327967	WHY YOU
-0.6556745	WIDELY USED
-1.662515	WILL ACTUALLY	-0.0678193
-2.157478	WILL ADD
-2.162531	WILL ALLOW
-2.123393	WILL AUTOMATICALLY
-0.8605488	WILL BE
-2.162531	WILL BECOME
-2.146114	WILL CHANGE
-2.123393	WILL COPY
-2.033707	WILL CREATE
-1.682101	WILL DO	-0.06502014
-2.162531	WILL ENCOUNTER
-2.112463	WILL GET
-2.081233	WILL GO
-2.042806	WILL HAVE
-2.162531	WILL HELP
-2.016064	WILL JUST
-2.157478	WILL LEARN
-1.666363	WILL NOT
-2.157478	WILL NOTICE
