
\data\
ngram 1=552
ngram 2=1603
ngram 3=95

\1-grams:
-3.015193	*	-0.1705933
-1.089755	</s>
-99	<s>	-0.2513166
-2.047467	A	-0.08283739
-3.015193	ABOUT	-0.08283738
-3.055442	ABSOLUTE	-0.0828374
-3.055442	ACKNOWLEDGE	-0.0828374
-3.015193	ACOUSTIC	-0.08283739
-3.055442	ACTION	-0.08283739
-3.055442	ACTUALLY	-0.08283738
-3.055442	ADD	-0.08283739
-3.055442	ADDITIONAL	-0.08283738
-3.055442	ADJUST	-0.08283739
-3.055442	AFTER	-0.08283738
-3.055442	ALGEBRA	-0.08283739
-2.400773	ALL	-0.1460733
-3.055442	ALLOW	-0.08283739
-3.055442	ALLOWING	-0.08283739
-3.015193	ALMOST	-0.08283739
-3.055442	ALREADY	-0.08283737
-2.564421	ALSO	-0.1245025
-3.055442	ALTHOUGH	-0.08283739
-3.055442	AMATEUR	-0.08283738
-3.015193	AMOUNT	-0.1705933
-2.337448	AN	-0.1008637
-1.644186	AND	-0.0915135
-3.015193	ANOTHER	-0.08283737
-2.677264	ANY	-0.08283739
-3.055442	ANYTHING	-0.08283738
-3.055442	APPROACH	-0.08283739
-2.282192	ARE	-0.08283739
-3.015193	ARGUMENTS	-0.08283737
-3.055442	ART	-0.08283738
-2.23318	AS	-0.1902262
-2.189142	ASR	-0.3386885
-3.055442	ASSUME	-0.08283738
-3.055442	ASSUMED	-0.08283738
-3.055442	AT	-0.08283738
-3.015193	ATTACHED	-0.0828374
-3.055442	ATTACHMENT	-0.08283739
-2.149161	AUDIO	-0.4033294
-3.055442	AUTHORS	-0.08283738
-3.015193	AUTOMATIC	-0.08283739
-3.055442	AUTOMATICALLY	-0.08283738
-3.055442	AUTOMATION	-0.08283739
-3.055442	BASE	-0.08283739
-3.015193	BASED	-0.1705933
-3.055442	BASH	-0.08283738
-3.055442	BASICS	-0.08283739
-3.055442	BASING	-0.08283737
-2.23318	BE	-0.1230518
-3.055442	BECOME	-0.08283738
-3.015193	BEFORE	-0.08283739
-3.055442	BEGIN	-0.08283738
-3.015193	BEGINNERS	-0.08283739
-3.055442	BELONGS	-0.08283739
-2.830129	BELOW	-0.1393292
-3.055442	BESIDES	-0.0828374
-3.015193	BETTER	-0.08283737
-3.055442	BIG	-0.08283737
-3.055442	BIGGER	-0.0828374
-3.055442	BIT	-0.08283738
-3.055442	BUILD	-0.08283739
-3.055442	BUILDS	-0.08283738
-2.830129	BUT	-0.08283738
-2.474934	BY	-0.1101654
-3.055442	C	-0.0828374
-3.055442	CALCULATIONS	-0.08283738
-3.055442	CALLED	-0.08283739
-2.564421	CAN	-0.1575694
-3.055442	CAREFUL	-0.08283738
-2.677264	CASE	-0.1515661
-3.055442	CHAPTER	-0.0828374
-3.055442	CHECKING	-0.08283739
-3.015193	CHOICE	-0.0828374
-3.055442	CHOSEN	-0.08283738
-3.055442	CLUSTERS	-0.08283739
-3.055442	CODE	-0.08283737
-3.015193	COMMENTS	-0.08283739
-3.055442	COMMUNICATE	-0.08283738
-3.055442	COMPILATION	-0.08283737
-3.055442	COMPLETE	-0.08283739
-3.055442	COMPLETELY	-0.08283739
-3.055442	COMPLEX	-0.08283738
-3.015193	COMPONENTS	-0.0828374
-3.055442	COMPRESSION	-0.08283739
-2.830129	CONFIGURATION	-0.1393292
-3.055442	CONNECTS	-0.08283739
-3.055442	CONSIDER	-0.08283738
-3.055442	CONSIDERED	-0.08283739
-3.055442	CONSIST	-0.08283739
-3.015193	CONTAIN	-0.0828374
-3.015193	CONTAINS	-0.0828374
-3.055442	CONTENT	-0.08283739
-3.055442	CONTROL	-0.08283739
-3.055442	CONVINCED	-0.0828374
-3.015193	COPY	-0.08283738
-3.055442	CORPORA	-0.08283738
-3.055442	CPU	-0.08283739
-2.337448	CREATE	-0.1118278
-3.015193	CREATED	-0.08283739
-3.055442	CREATING	-0.08283739
-3.055442	CREATION	-0.08283739
-2.018251	DATA	-0.163602
-2.474934	DATASET	-0.2533742
-2.830129	DATASETS	-0.0828374
-3.055442	DEAL	-0.08283738
-3.055442	DECIDED	-0.08283739
-2.564421	DECODING	-0.2533742
-3.055442	DELVED	-0.08283738
-3.015193	DESCRIBED	-0.08283739
-3.015193	DETAILED	-0.08283739
-3.055442	DETAILS	-0.0828374
-3.055442	DEVELOPERS	-0.08283739
-3.055442	DICTIONARY	-0.08283738
-3.055442	DIFFERENCES	-0.08283738
-2.564421	DIFFERENT	-0.1376466
-2.677264	DIGITS	-0.08283738
-3.055442	DIR	-0.08283739
-2.830129	DIRECTORIES	-0.1393292
-2.23318	DIRECTORY	-0.2561425
-3.055442	DISTRIBUTED	-0.0828374
-3.055442	DIVIDE	-0.08283738
-2.564421	DO	-0.1158436
-3.055442	DOCUMENTATION	-0.08283738
-3.015193	DONE	-0.1393292
-2.830129	DOWNLOAD	-0.0828374
-3.055442	DUMMIES	-0.08283738
-3.015193	DURING	-0.08283738
-3.015193	DYNAMIC	-0.08283739
-2.474934	EACH	-0.1332209
-3.055442	EASE	-0.08283739
-3.055442	EASY	-0.08283739
-3.055442	EFFECT	-0.08283739
-3.055442	ELSE	-0.08283739
-3.055442	ENCOUNTER	-0.08283738
-3.055442	ENDING	-0.08283739
-3.055442	ENGLISH	-0.08283739
-3.015193	ENOUGH	-0.0828374
-3.055442	ENTIRE	-0.08283738
-3.015193	ENVIRONMENT	-0.08283738
-3.055442	ENVIRONMENTS	-0.08283739
-3.055442	EVEN	-0.08283738
-3.055442	EVER	-0.08283738
-2.564421	EVERY	-0.1101654
-2.564421	EXAMPLE	-0.1245025
-3.015193	EXAMPLES	-0.08283739
-3.055442	EXECUTABLE	-0.08283738
-2.830129	EXEMPLARY	-0.08283739
-3.015193	EXPERIENCE	-0.08283739
-3.055442	EXPLANATION	-0.08283739
-3.055442	EXPRESSION	-0.08283739
-3.015193	EXTERNAL	-0.08283739
-3.055442	EXTRACTION	-0.08283738
-3.055442	FACT	-0.08283738
-3.055442	FEATURE	-0.08283738
-3.015193	FEEL	-0.1705933
-3.055442	FELT	-0.08283739
-3.055442	FEMALE	-0.08283739
-3.055442	FIELD	-0.08283739
-2.400773	FILE	-0.1045605
-2.078792	FILES	-0.1488801
-3.055442	FINALIZATION	-0.08283739
-3.055442	FINALLY	-0.08283737
-2.830129	FIND	-0.0828374
-2.830129	FIRST	-0.08283739
-2.830129	FIVE	-0.08283739
-3.055442	FIX	-0.08283738
-3.055442	FIXING	-0.08283738
-2.23318	FOLDER	-0.238554
-2.677264	FOLDERS	-0.1158436
-3.015193	FOLLOW	-0.08283737
-3.055442	FOLLOWING	-0.08283739
-1.737025	FOR	-0.1158436
-3.055442	FORMAT	-0.08283738
-3.055442	FOUND	-0.08283738
-3.055442	FOUR	-0.08283739
-3.015193	FREE	-0.08283739
-2.337448	FROM	-0.1031705
-3.055442	FUNCTIONALITY	-0.08283739
-3.015193	FUTURE	-0.08283737
-3.055442	GENDER	-0.08283739
-3.055442	GENERAL	-0.08283739
-2.677264	GET	-0.08283739
-3.055442	GETTING	-0.08283737
-3.055442	GLUED	-0.08283738
-2.677264	GO	-0.1705933
-2.830129	GOOD	-0.1393292
-3.055442	GRAMMAR	-0.08283739
-3.055442	GRAMMARS	-0.08283739
-3.055442	GUIDE	-0.08283739
-3.055442	HABIT	-0.08283739
-2.677264	HAS	-0.1245025
-2.400773	HAVE	-0.09433949
-3.055442	HELP	-0.08283739
-3.015193	HERE	-0.08283739
-3.055442	HONESTLY	-0.08283738
-2.474934	HOW	-0.5489198
-3.015193	HTTP	-0.0828374
-2.337448	I	-0.09433949
-3.055442	ID	-0.08283737
-3.055442	IDENTICAL	-0.08283738
-2.564421	IF	-0.2533742
-3.055442	IMAGINE	-0.08283738
-3.055442	IMPORTANT	-0.08283739
-1.577872	IN	-0.2250488
-3.055442	INFORMATION	-0.08283739
-3.055442	INFORMS	-0.0828374
-2.677264	INSIDE	-0.08283738
-3.015193	INSTALL	-0.08283739
-2.677264	INSTALLATION	-0.1245025
-3.015193	INSTALLED	-0.0828374
-3.055442	INSTEAD	-0.08283739
-3.055442	INSTRUCTIONS	-0.08283738
-2.677264	INTO	-0.08283739
-1.940817	IS	-0.1053676
-3.055442	ISSUES	-0.08283739
-2.112553	IT	-0.1818883
-3.055442	ITS	-0.0828374
-3.015193	JOB	-0.08283739
-3.015193	JOBS	-0.08283737
-3.055442	JUST	-0.08283739
-1.895936	KALDI	-0.1375522
-3.055442	KNOW	-0.08283739
-3.055442	KNOWLEDGE	-0.0828374
-2.337448	LANGUAGE	-0.1852341
-3.055442	LANGUAGES	-0.08283739
-3.015193	LAST	-0.08283738
-3.055442	LAUNCHED	-0.08283738
-3.055442	LEARN	-0.08283738
-3.055442	LEAST	-0.08283738
-3.055442	LESS	-0.0828374
-3.055442	LET	-0.08283739
-3.055442	LEXICON	-0.08283739
-3.015193	LIBRARIES	-0.08283738
-3.055442	LIBRISPEECH	-0.08283739
-3.015193	LIKE	-0.1705933
-3.055442	LIKED	-0.08283739
-3.015193	LINE	-0.08283739
-3.055442	LINEAR	-0.08283738
-3.015193	LINES	-0.08283738
-3.015193	LINKS	-0.08283739
-2.564421	LINUX	-0.08283739
-3.055442	LISTS	-0.0828374
-3.055442	LITTLE	-0.08283738
-3.015193	LOCAL	-0.08283739
-3.055442	LOCATION	-0.08283738
-3.055442	LOGS	-0.08283739
-3.055442	LOOK	-0.08283739
-3.055442	LOOKING	-0.08283739
-3.055442	LOOKS	-0.0828374
-3.055442	LOST	-0.08283739
-2.830129	MADE	-0.08283739
-3.055442	MAIN	-0.08283739
-3.015193	MAKE	-0.08283739
-3.055442	MAKEFILE	-0.08283739
-3.055442	MALE	-0.08283739
-3.055442	MATCHED	-0.08283738
-3.055442	MATCHING	-0.08283739
-2.830129	MAY	-0.1245025
-3.015193	ME	-0.08283739
-3.055442	MEANS	-0.08283738
-3.055442	MECHANISM	-0.0828374
-3.015193	METHODS	-0.08283739
-3.055442	MFCC	-0.08283738
-3.055442	MIGH	-0.08283739
-3.055442	MIGHT	-0.08283739
-3.055442	MISTAKES	-0.08283738
-3.055442	MODELING	-0.08283738
-3.055442	MODELLING	-0.08283738
-3.015193	MODIFICATIONS	-0.1705933
-3.055442	MODIFIED	-0.0828374
-3.055442	MODIFY	-0.0828374
-3.055442	MONOPHONE	-0.08283739
-3.015193	MORE	-0.08283738
-3.015193	MOST	-0.08283739
-3.015193	MUST	-0.1705933
-2.337448	MY	-0.09902699
-2.677264	NAME	-0.08283739
-3.015193	NAMED	-0.1705933
-3.055442	NAMING	-0.08283738
-2.564421	NECESSARY	-0.08283739
-2.830129	NEED	-0.2478898
-3.015193	NEEDED	-0.08283739
-3.015193	NEW	-0.08283737
-3.055442	NEWLY	-0.08283737
-3.055442	NICE	-0.08283739
-3.015193	NINE	-0.08283738
-3.055442	NO	-0.0828374
-3.055442	NOISE	-0.08283738
-3.055442	NONSILENCE	-0.0828374
-2.830129	NOT	-0.08283738
-3.055442	NOTHING	-0.0828374
-3.055442	NOTICABLE	-0.08283738
-3.015193	NOTICE	-0.08283738
-3.055442	NOW	-0.08283739
-2.830129	NUMBER	-0.1393292
-3.055442	OBVIOUSLY	-0.08283739
-3.055442	OCCUR	-0.08283738
-1.895936	OF	-0.1031705
-3.015193	OFFICIAL	-0.1705933
-2.400773	ON	-0.1196707
-2.047467	ONE	-0.2279349
-2.830129	ONLY	-0.1245025
-3.055442	OPEN	-0.08283739
-3.015193	OPERATING	-0.08283738
-3.055442	OPINION	-0.08283739
-3.055442	OPTIMIZATION	-0.08283739
-3.055442	OPTIONAL	-0.0828374
-3.055442	OR	-0.08283739
-3.055442	ORDER	-0.08283739
-3.055442	OTHER	-0.08283739
-3.055442	OUR	-0.08283738
-3.055442	OVER	-0.08283738
-3.015193	OWN	-0.08283739
-3.055442	PARALLEL	-0.0828374
-2.474934	PARTICULAR	-0.1307949
-3.055442	PASS	-0.08283739
-3.055442	PATH	-0.08283739
-3.015193	PATTERN	-0.08283738
-3.055442	PATTERNS	-0.08283738
-3.055442	PEOPLE	-0.08283739
-2.677264	PERFECT	-0.1245025
-2.830129	PERSON	-0.0828374
-3.055442	PERSONALLY	-0.08283739
-2.830129	PHONE	-0.08283739
-3.015193	PHONES	-0.08283739
-3.055442	PIECE	-0.08283739
-3.055442	PLACE	-0.0828374
-2.830129	PLACED	-0.1393292
-3.055442	PLAIN	-0.08283739
-3.055442	PLAY	-0.08283738
-3.055442	PLEASE	-0.08283738
-3.015193	PLUS	-0.08283738
-3.015193	POINT	-0.0828374
-3.055442	POPULAR	-0.08283739
-3.055442	PORTABLE	-0.08283738
-3.015193	POSSIBLE	-0.08283739
-3.055442	PRECISELY	-0.0828374
-3.055442	PRECONDITION	-0.08283739
-3.055442	PREPARATION	-0.08283739
-3.055442	PREPARE	-0.08283738
-3.015193	PREPARED	-0.08283739
-3.055442	PRESENT	-0.08283738
-3.015193	PROBABLY	-0.08283739
-3.015193	PROBLEMS	-0.08283739
-3.055442	PROCESS	-0.08283737
-3.055442	PROCESSES	-0.08283739
-3.015193	PROCESSING	-0.08283739
-2.830129	PROGRAMMING	-0.1741929
-3.055442	PROGRAMS	-0.08283739
-2.474934	PROJECT	-0.1887992
-3.015193	PROPER	-0.0828374
-3.055442	PROPERLY	-0.08283739
-3.015193	PURPOSE	-0.0828374
-2.564421	PUT	-0.08283739
-3.055442	PYTHON	-0.08283738
-3.055442	QUALITY	-0.08283738
-3.055442	QUICKLY	-0.08283738
-3.015193	READ	-0.08283739
-3.015193	READY	-0.08283739
-3.055442	REALLY	-0.0828374
-3.055442	RECOGNITION	-0.0828374
-3.015193	RECOGNIZABLE	-0.08283738
-3.055442	RECOMMEND	-0.08283739
-3.055442	RECORD	-0.08283738
-3.055442	RECORDED	-0.08283738
-3.015193	RECORDING	-0.1705933
-3.055442	RECORDINGID	-0.08283739
-3.055442	RECORDINGS	-0.08283739
-3.055442	REGULAR	-0.08283738
-3.055442	RELATE	-0.08283739
-2.677264	RELATED	-0.3728285
-3.055442	RELATES	-0.08283739
-3.055442	RELATIVELY	-0.08283738
-3.055442	REPRESENT	-0.08283738
-3.055442	REPRESENTATION	-0.08283739
-3.055442	REPRESENTING	-0.08283738
-3.055442	REQUIRES	-0.08283738
-3.055442	REST	-0.0828374
-3.055442	RESULT	-0.08283739
-2.830129	RESULTS	-0.1158436
-3.015193	REVISION	-0.1705933
-3.055442	RICH	-0.08283739
-3.055442	RM	-0.08283738
-3.055442	ROOT	-0.08283738
-3.055442	RULE	-0.08283737
-3.055442	RUN	-0.08283738
-3.055442	RUNNIG	-0.08283739
-2.677264	RUNNING	-0.08283739
-3.055442	SAFETY	-0.08283738
-3.055442	SAID	-0.08283738
-3.015193	SAME	-0.08283739
-3.055442	SAYS	-0.08283739
-3.055442	SCORING	-0.08283737
-2.400773	SCRIPT	-0.1245025
-2.189142	SCRIPTS	-0.2232203
-3.055442	SEARCHING	-0.08283739
-2.830129	SECTION	-0.1158436
-3.055442	SECTIONS	-0.08283739
-3.055442	SELECT	-0.08283739
-2.830129	SENTENCE	-0.08283739
-3.015193	SENTENCES	-0.08283739
-3.055442	SEPARATE	-0.08283738
-3.055442	SESSION	-0.08283739
-2.564421	SET	-0.2153027
-3.055442	SETS	-0.08283739
-3.055442	SETTING	-0.0828374
-3.055442	SEVERAL	-0.08283739
-3.055442	SH	-0.08283738
-3.055442	SHELL	-0.08283739
-3.055442	SHORT	-0.08283738
-2.830129	SHOULD	-0.0828374
-3.055442	SHOW	-0.0828374
-3.015193	SILENCE	-0.1705933
-3.055442	SIMILAR	-0.08283738
-2.677264	SIMPLE	-0.08283737
-3.055442	SINGLE	-0.08283739
-3.055442	SITE	-0.08283739
-3.055442	SITUATION	-0.08283738
-3.055442	SIX	-0.08283739
-3.055442	SLIGHTLY	-0.08283739
-3.015193	SMALL	-0.08283739
-3.015193	SO	-0.0828374
-3.055442	SOFTWARE	-0.08283738
-3.055442	SOLID	-0.08283738
-3.055442	SOLUTION	-0.08283739
-2.149161	SOME	-0.09628648
-2.677264	SOMETHING	-0.08283738
-3.055442	SORTED	-0.08283739
-2.830129	SORTING	-0.0828374
-2.830129	SOURCE	-0.2478898
-2.474934	SPEAKER	-0.1196707
-3.055442	SPEAKERID	-0.08283739
-2.337448	SPEAKERS	-0.1312038
-2.564421	SPEECH	-0.1741929
-2.677264	SPOKEN	-0.1705933
-3.055442	SRI	-0.08283739
-3.015193	SRILM	-0.08283739
-3.055442	STABLE	-0.08283739
-3.055442	START	-0.08283738
-3.055442	STARTED	-0.08283738
-3.055442	STARTING	-0.08283739
-3.055442	STATIC	-0.08283739
-2.830129	STEP	-0.1393292
-3.055442	STICK	-0.08283739
-3.055442	STRAIGHT	-0.08283738
-3.055442	STREAMS	-0.08283739
-3.055442	STRING	-0.08283738
-3.015193	STRINGS	-0.0828374
-3.015193	STRUCTURE	-0.08283739
-3.015193	STUFF	-0.08283739
-3.055442	SUBFOLDER	-0.08283738
-3.015193	SUBFOLDERS	-0.0828374
-3.055442	SUBJECT	-0.08283739
-3.055442	SUBVERSION	-0.08283739
-3.055442	SUCCESSFUL	-0.08283739
-3.015193	SUCH	-0.08283737
-3.055442	SUM	-0.08283737
-3.055442	SUPPLIES	-0.08283739
-3.055442	SURE	-0.08283739
-3.055442	SYNTAX	-0.08283738
-2.564421	SYSTEM	-0.1127372
-3.015193	SYSTEMS	-0.08283739
-3.055442	TAKEN	-0.08283739
-3.055442	TASK	-0.08283739
-3.055442	TELLS	-0.0828374
-3.015193	TERMINAL	-0.0828374
-3.015193	TEST	-0.08283739
-3.055442	TESTED	-0.08283737
-3.055442	TESTING	-0.08283738
-2.564421	TEXT	-0.1158436
-3.055442	THAN	-0.08283738
-2.018251	THAT	-0.2226878
-1.917797	THE	-0.115442
-3.055442	THEM	-0.08283738
-3.055442	THEN	-0.0828374
-2.564421	THERE	-0.1158436
-2.474934	THESE	-0.08283739
-3.015193	THEY	-0.0828374
-3.055442	THINK	-0.08283738
-2.282192	THIS	-0.1086834
-2.474934	THREE	-0.1101654
-3.055442	THROUGH	-0.08283739
-3.055442	TIME	-0.08283739
-1.644186	TO	-0.1559657
-3.055442	TOOL	-0.08283739
-2.677264	TOOLKIT	-0.08283738
-2.474934	TOOLS	-0.1061545
-3.055442	TRACKS	-0.08283739
-2.830129	TRAIN	-0.08283739
-3.055442	TRAINED	-0.08283739
-2.564421	TRAINING	-0.1158436
-3.015193	TRANSCRIPTION	-0.08283739
-3.055442	TRANSCRIPTIONS	-0.08283738
-3.055442	TRANSFER	-0.08283738
-3.055442	TRANSPOSE	-0.08283739
-3.015193	TRIPHONE	-0.08283739
-3.055442	TRUSTWORTHY	-0.08283738
-3.015193	TRY	-0.1705933
-2.474934	TUTORIAL	-0.1607889
-3.055442	TUTORIALS	-0.08283737
-2.337448	TWO	-0.144039
-3.055442	UBUNTU	-0.08283739
-3.055442	UNCOMMENT	-0.08283739
-3.015193	UNDERSTANDING	-0.0828374
-3.055442	UNIQUE	-0.08283738
-3.055442	UNIX	-0.08283738
-2.830129	UP	-0.08283739
-2.564421	USE	-0.1061545
-2.564421	USED	-0.1741929
-2.830129	USEFUL	-0.08283738
-2.474934	USING	-0.1101654
-3.055442	UTILITY	-0.08283739
-3.055442	UTILS	-0.08283739
-2.564421	UTTERANCE	-0.08283737
-3.055442	UTTERANCEID	-0.08283738
-3.055442	UTTERANCES	-0.08283738
-3.055442	VALIDATE	-0.08283738
-3.015193	VERY	-0.08283739
-3.055442	VOXFORGE	-0.08283739
-3.015193	WANT	-0.1705933
-2.830129	WAS	-0.08283738
-2.830129	WAV	-0.08283739
-2.677264	WAY	-0.2003858
-3.015193	WE	-0.08283739
-3.055442	WEBSITE	-0.08283739
-3.015193	WELL	-0.0828374
-3.055442	WHAT	-0.08283739
-3.055442	WHATEVER	-0.08283738
-3.015193	WHEN	-0.08283738
-3.015193	WHERE	-0.08283739
-2.564421	WHICH	-0.08283737
-3.055442	WHILE	-0.08283738
-3.055442	WHOLE	-0.08283738
-3.055442	WHY	-0.08283739
-3.055442	WIDELY	-0.08283739
-2.337448	WILL	-0.1133054
-3.055442	WINDOW	-0.08283739
-3.015193	WINDOWS	-0.1705933
-3.055442	WIT	-0.08283738
-2.018251	WITH	-0.1008637
-3.015193	WITHOUT	-0.0828374
-3.015193	WORD	-0.08283739
-3.015193	WORDS	-0.08283739
-3.055442	WORK	-0.08283739
-3.015193	WOULD	-0.08283738
-3.055442	WRITTEN	-0.08283738
-1.875123	YOU	-0.2528435
-1.965126	YOUR	-0.1934395
-2.564421	ZERO	-0.1045605
-3.055442	ZIELINSKI	-0.08283739

\2-grams:
-0.4205022	* </s>
-2.86507	<s> ACOUSTIC
-2.880597	<s> ADDITIONAL
-2.880597	<s> ADJUST
-2.880597	<s> AFTER
-2.86507	<s> ALMOST
-2.112823	<s> ALSO
-1.868276	<s> AND
-2.196799	<s> AS
-2.318787	<s> AUDIO
-2.86507	<s> AUTOMATIC
-2.880597	<s> AUTOMATICALLY
-2.880597	<s> AUTOMATION
-2.880597	<s> BASH
-2.880597	<s> BASING
-2.387194	<s> BE
-2.880597	<s> BESIDES
-2.880597	<s> CONSIDER
-2.86507	<s> COPY
-1.638661	<s> CREATE	-0.1266945
-2.447028	<s> CREATING
-1.787847	<s> DATA	-0.0494493
-2.78199	<s> DIRECTORIES
-2.880597	<s> DISTRIBUTED
-2.86507	<s> DONE
-2.78199	<s> DOWNLOAD
-2.86507	<s> DYNAMIC
-1.652086	<s> EACH	-0.03112092
-2.628658	<s> EVERY
-2.628658	<s> EXAMPLE
-2.86507	<s> FEEL
-2.515562	<s> FILE
-2.78199	<s> FIRST
-1.783682	<s> FOR
-2.46843	<s> FROM
-2.880597	<s> GETTING
-2.132978	<s> GO	-0.3097459
-2.698592	<s> HAS
-1.790385	<s> HERE	-0.08187662
-2.568439	<s> HOW
-1.557226	<s> I
-1.764703	<s> IF	-0.2970451
-2.880597	<s> IMAGINE
-1.589362	<s> IN	-0.04940209
-2.698592	<s> INSIDE
-1.699213	<s> IT	-0.1566105
-1.743585	<s> KALDI
-2.46843	<s> LANGUAGE
-2.86507	<s> LAST
-2.880597	<s> LIBRISPEECH
-2.86507	<s> LINE
-2.447028	<s> LOGS
-2.447028	<s> LOOK	-0.1064564
-2.880597	<s> MAIN
-2.86507	<s> MAKE
-2.880597	<s> MONOPHONE
-2.86507	<s> MOST
-2.46843	<s> MY
-2.628658	<s> NECESSARY
-2.880597	<s> NO
-2.78199	<s> NOT
-2.17541	<s> NOW
-2.78199	<s> NUMBER
-2.86507	<s> OFFICIAL
-1.594694	<s> ONE	-0.168801
-2.86507	<s> OPERATING
-2.86507	<s> PATTERN
-2.698592	<s> PERFECT
-2.880597	<s> PERSONALLY
-2.880597	<s> PLEASE
-2.86507	<s> PROBABLY
-2.78199	<s> PROGRAMMING
-2.568439	<s> PROJECT
-2.336531	<s> PUT
-2.86507	<s> REVISION
-2.880597	<s> RULE
-2.880597	<s> SAFETY
-2.86507	<s> SENTENCES
-2.628658	<s> SET
-2.880597	<s> SETTING
-2.447028	<s> SH	-0.1064564
-2.698592	<s> SIMPLE
-2.880597	<s> SIX
-2.86507	<s> SO
-2.698592	<s> SOMETHING
-2.880597	<s> SRI
-2.86507	<s> SRILM
-2.880597	<s> START
-2.86507	<s> TEST
-2.628658	<s> TEXT
-1.887451	<s> THE
-2.17541	<s> THEN
-2.628658	<s> THERE
-2.093561	<s> THESE
-2.86507	<s> THEY
-1.122272	<s> THIS	-0.3884232
-2.568439	<s> THREE
-2.304756	<s> TOOLS
-2.78199	<s> TRAIN
-2.86507	<s> TRY
-2.880597	<s> UNCOMMENT
-2.880597	<s> UNIX
-2.78199	<s> UP
-2.628658	<s> USE
-2.628658	<s> USED
-2.78199	<s> USEFUL
-2.447028	<s> UTILS
-2.880597	<s> UTTERANCEID
-2.86507	<s> VERY
-2.880597	<s> VOXFORGE
-2.154115	<s> WAV	-0.0672619
-2.86507	<s> WELL
-2.880597	<s> WHATEVER
-2.86507	<s> WHEN
-2.628658	<s> WHICH
-1.427657	<s> YOU	-0.02375289
-1.50562	<s> YOUR	-0.02638807
-1.129877	A </s>
-2.115011	A BASE
-2.111032	A BETTER
-1.990124	A FILE
-1.928983	A FOLDER
-2.087884	A GOOD
-2.115011	A LITTLE
-2.061305	A NAME
-2.111032	A NEW
-2.012579	A PARTICULAR
-2.115011	A PLACE
-2.111032	A RECOGNIZABLE
-2.115011	A RECORDINGID
-2.115011	A REGULAR
-2.115011	A RICH
-2.036259	A SET
-2.061305	A SIMPLE
-2.115011	A SITUATION
-2.115011	A SLIGHTLY
-2.111032	A SMALL
-2.087884	A STEP
-2.111032	A TERMINAL
-2.036259	A TEXT
-2.115011	A UNIQUE
-2.061305	A WAY
-1.042748	ABOUT SPEAKERS
-1.050223	ABOUT SPEECH
-0.7583274	ABSOLUTE BEGINNERS
-0.7583274	ACKNOWLEDGE WHERE
-1.023422	ACOUSTIC DATA
-1.042748	ACOUSTIC LANGUAGE
-0.7509189	ACTION I
-0.7372581	ACTUALLY IS
-0.7547203	ADD NECESSARY
-0.7534495	ADDITIONAL TOOLS
-0.7509189	ADJUST MY
-0.7585033	AFTER SUCCESSFUL
-0.6182377	ALGEBRA </s>
-1.593505	ALL BASED
-1.593505	ALL COMMENTS
-1.579887	ALL GET
-0.7099064	ALL THE
-1.464311	ALL YOU
-0.7348198	ALLOW KALDI
-0.7336057	ALLOWING YOU
-1.057376	ALMOST READY
-1.055279	ALMOST STEP
-0.7521824	ALREADY HAVE
-1.546119	ALSO A
-1.072312	ALSO CREATE
-1.649141	ALSO FEEL
-1.641747	ALSO GOOD
-1.560665	ALSO IT
-1.084494	ALSO NEED	-0.1064564
-0.7446561	ALTHOUGH IT
-0.7088652	AMATEUR IN
-0.4770088	AMOUNT OF
-1.699133	AN AMATEUR
-1.697664	AN ANOTHER
-1.111735	AN ASR	-0.4346847
-1.60349	AN AUDIO
-1.699133	AN EFFECT
-1.699133	AN ENTIRE
-1.66845	AN EXAMPLE
-1.699133	AN IDENTICAL
-2.101699	AND ALL
-2.002899	AND ASR
-2.267105	AND COMPLEX
-2.074814	AND CREATE
-1.904482	AND DATA
-2.261579	AND DYNAMIC
-2.261579	AND EXTERNAL
-2.267105	AND FELT
-2.229808	AND FIVE
-2.267105	AND FIXING
-1.709203	AND FOR
-2.194068	AND GET
-2.101699	AND HAVE
-2.13036	AND HOW
-1.583306	AND IN
-2.261579	AND INSTALL
-2.194068	AND INSTALLATION
-2.261579	AND LIBRARIES
-2.267105	AND MFCC
-2.267105	AND MODIFY
-2.267105	AND OPTIMIZATION
-2.229808	AND PLACED
-2.261579	AND PROCESSING
-2.161047	AND PUT
-2.229808	AND RESULTS
-1.682399	AND SCRIPT	-0.1064563
-2.267105	AND SELECT
-2.261579	AND SMALL
-2.267105	AND STABLE
-1.736575	AND SUBFOLDERS
-2.267105	AND SUPPLIES
-2.261579	AND TEST
-2.267105	AND TESTED
-1.636926	AND TO
-2.267105	AND WHY
-1.037836	ANOTHER FOLDER
-1.057376	ANOTHER NEW
-1.39156	ANY AUDIO
-1.380667	ANY FILES
-1.450288	ANY MISTAKES
-1.449423	ANY PROBLEMS
-1.444272	ANY SORTING
-0.7088652	ANYTHING IN
-0.6182377	APPROACH </s>
-1.780296	ARE BASED
-1.780296	ARE ENOUGH
-1.769334	ARE FIVE
-1.756367	ARE PERFECT
-1.769334	ARE PLACED
-1.78215	ARE PRESENT
-1.780296	ARE READY
-1.78215	ARE RELATIVELY
-1.588852	ARE THE
-1.708054	ARE TWO
-1.78215	ARE WIDELY
-0.8123882	ARGUMENTS </s>
-0.9638973	ARGUMENTS IN
-0.7585033	ART MIGHT
-0.9411378	AS A
-1.24331	AS AN
-1.82119	AS ME
-1.261512	AS MUST	-0.1064563
-1.82119	AS WE
-0.9611691	AS WELL	-0.0660145
-1.275122	ASR </s>
-1.7897	ASR AUTOMATIC
-0.4060589	ASR SYSTEM	-0.1395196
-0.9242445	ASR SYSTEMS
-0.7409413	ASSUME THAT
-0.7534495	ASSUMED SPEAKER
-0.7585033	AT LEAST
-0.9915414	ATTACHED FOR
-0.9764378	ATTACHED TO
-0.8123882	ATTACHMENT </s>
-1.055279	ATTACHMENT SECTION
-0.3508099	AUDIO DATA	-0.1592883
-1.254067	AUDIO FILE
-0.9506847	AUDIO FILES
-0.7585033	AUTHORS DEVELOPERS
-1.057726	AUTOMATIC SOFTWARE
-1.050223	AUTOMATIC SPEECH
-0.7585033	AUTOMATICALLY BUILDS
-0.7157913	AUTOMATION AND
-0.7240139	BASE FOR
-0.4847581	BASED ON
-0.7585033	BASH PYTHON
-0.7348198	BASICS OF
-0.7521824	BASING ON
-1.122489	BE A
-2.005816	BE ATTACHED
-2.008659	BE CAREFUL
-1.457714	BE CONSIDERED	-0.1064564
-1.456913	BE DONE	-0.06274118
-2.008659	BE EVEN
-2.008659	BE FOUND
-2.005816	BE INSTALLED	-0.1064564
-2.008659	BE NICE
-1.798811	BE ONE
-2.008659	BE SORTED
-1.73893	BE THE
-2.008659	BE TRAINED
-1.98913	BE USEFUL
-1.761901	BE YOUR
-0.7585033	BECOME COMPLETE
-0.8123882	BEFORE </s>
-1.057726	BEFORE RUNNIG
-0.7409413	BEGIN WITH
-1.052744	BEGINNERS INSIDE
-1.045226	BEGINNERS ON
-0.7157913	BELONGS TO
-0.5597702	BELOW </s>
-1.222846	BELOW IF
-0.7360372	BESIDES THE
-0.8123882	BETTER </s>
-1.057376	BETTER UNDERSTANDING
-0.7572733	BIG DATASETS
-0.7583274	BIGGER EXPERIENCE
-0.7585033	BIT LOST
-0.7471504	BUILD ASR
-0.7585033	BUILDS EXECUTABLE
-1.098399	BUT IN
-1.192052	BUT IT
-1.231494	BUT THEY
-1.528341	BY AT
-0.9384114	BY ONE
-1.521585	BY STEP	-0.1064564
-1.416591	BY THE
-1.528341	BY WIT
-0.7583274	C PLUS
-0.7088652	CALCULATIONS IN
-0.7348198	CALLED KALDI
-1.510902	CAN ALSO
-0.6545741	CAN BE
-1.529377	CAN OCCUR
-1.510902	CAN USE
-0.7409413	CAREFUL WITH
-0.7274501	CASE </s>
-0.868447	CASE IT
-1.359574	CASE OF
-0.7583274	CHAPTER BEFORE
-0.9764378	CHECKING AND
-1.057376	CHECKING PREPARED
-0.9027767	CHOICE </s>
-1.136531	CHOICE FOR
-1.115583	CHOICE TO
-0.7585033	CHOSEN UBUNTU
-0.6182377	CLUSTERS </s>
-0.8123882	CODE </s>
-1.057376	CODE ENVIRONMENT
-0.9638973	COMMENTS IN
-1.052744	COMMENTS INSIDE
-0.7409413	COMMUNICATE WITH
-0.7521824	COMPILATION ON
-0.6182377	COMPLETE </s>
-0.7547203	COMPLETELY DO
-0.7585033	COMPLEX GRAMMARS
-0.9764378	COMPONENTS AND
-1.040285	COMPONENTS ARE
-0.6182377	COMPRESSION </s>
-0.652452	CONFIGURATION FILES
-1.232215	CONFIGURATION MODIFICATIONS
-0.7547203	CONNECTS EVERY
-0.7534495	CONSIDER THESE
-0.7484029	CONSIDERED AS
-0.7348198	CONSIST OF
-1.050223	CONTAIN EVERY
-1.055279	CONTAIN ONLY
-0.9027767	CONTAINS </s>
-1.220857	CONTAINS EVERY
-1.21715	CONTAINS THREE
-0.7157913	CONTENT AND
-0.7547203	CONTROL SYSTEM
-0.7583274	CONVINCED ME
-1.014072	COPY THE
-1.042748	COPY TWO
-0.7585033	CORPORA DOCUMENTATION
-0.6182377	CPU </s>
-1.345381	CREATE A	-0.04973608
-1.556689	CREATE AND
-1.960139	CREATE ANOTHER
-1.962764	CREATE ANYTHING
-1.817712	CREATE ASR
-1.944704	CREATE CONFIGURATION
-1.831699	CREATE FOLDER
-1.231747	CREATE IN
-1.960139	CREATE LINKS
-1.804162	CREATE SOME
-1.960139	CREATE SUBFOLDERS
-1.892637	CREATE THREE
-1.37913	CREATE TWO
-1.730696	CREATE YOUR
-1.057376	CREATED BEFORE
-1.047717	CREATED BY
-1.057726	CREATING PORTABLE
-1.057726	CREATING STATIC
-0.6182377	CREATION </s>
-0.737769	DATA </s>
-1.971037	DATA AS
-2.137699	DATA COMPRESSION
-1.591903	DATA DIR	-0.1064564
-1.971037	DATA FOLDER
-1.605298	DATA IN
-2.090363	DATA INTO
-2.137699	DATA OR
-2.137699	DATA ORDER
-1.591903	DATA PREPARATION	-0.06547368
-2.134217	DATA PROPER
-1.584989	DATA SECTION
-2.113877	DATA SORTING
-2.137699	DATA STREAMS
-1.87753	DATA THAT
-1.652744	DATA TO
-1.584989	DATA TRAIN	-0.04915114
-2.137699	DATA TRANSFER
-0.3670296	DATASET </s>
-1.451775	DATASET IS
-1.531162	DATASET LOOKS
-1.115583	DATASETS AND
-1.136531	DATASETS FOR
-1.181724	DATASETS THAT
-0.7409413	DEAL WITH
-0.7157913	DECIDED TO
-1.380883	DECODING AND
-1.531162	DECODING PROCESS
-0.4145939	DECODING RESULTS	-0.1537521
-0.7585033	DELVED THROUGH
-0.8123882	DESCRIBED </s>
-1.055279	DESCRIBED BELOW
-1.057726	DETAILED EXPLANATION
-1.052744	DETAILED INSTALLATION
-0.7583274	DETAILS HERE
-0.6182377	DEVELOPERS </s>
-0.7409413	DICTIONARY WITH
-0.7088652	DIFFERENCES IN
-1.642377	DIFFERENT DATASETS
-1.585624	DIFFERENT DIRECTORY
-1.64956	DIFFERENT OPERATING
-1.650768	DIFFERENT QUALITY
-0.7787324	DIFFERENT SPEAKERS	-0.06442536
-1.625391	DIFFERENT TRAINING
-1.478117	DIGITS ARE
-1.498797	DIGITS BY
-1.484901	DIGITS FROM
-1.527691	DIGITS GRAMMAR
-1.527691	DIGITS LEXICON
-1.527691	DIGITS RECORDED
-0.6182377	DIR </s>
-0.9322118	DIRECTORIES </s>
-0.6630191	DIRECTORIES STRUCTURE
-0.3938098	DIRECTORY </s>
-1.56782	DIRECTORY AND
-1.825096	DIRECTORY CALLED
-1.769033	DIRECTORY CREATE
-1.608542	DIRECTORY FOR
-1.796351	DIRECTORY WHICH
-1.769033	DIRECTORY WILL
-0.7583274	DISTRIBUTED REVISION
-0.7384824	DIVIDE YOUR
-1.361437	DO IS
-0.8825018	DO NOT
-1.45094	DO STRAIGHT
-1.356694	DO THE
-0.7372581	DOCUMENTATION IS
-0.5597702	DONE </s>
-1.232215	DONE WITHOUT
-0.9027767	DOWNLOAD </s>
-1.115583	DOWNLOAD AND
-1.165038	DOWNLOAD KALDI
-0.7534495	DUMMIES TUTORIAL
-1.025791	DURING A
-1.047717	DURING PARTICULAR
-1.057376	DYNAMIC LIBRARIES
-1.055279	DYNAMIC PROGRAMMING
-1.705745	EACH AUDIO
-1.243636	EACH FILE
-1.726481	EACH FOLDER
-1.623027	EACH OF
-1.771184	EACH PROJECT
-1.808015	EACH SENTENCE
-0.9539145	EACH SPEAKER
-1.820485	EACH STRING
-1.820485	EACH SUBFOLDER
-0.7348198	EASE OF
-0.7157913	EASY AND
-0.7336057	EFFECT YOU
-0.6182377	ELSE </s>
-0.755995	ENCOUNTER ANY
-0.6182377	ENDING </s>
-0.7509189	ENGLISH LANGUAGE
-0.9915414	ENOUGH FOR
-0.9764378	ENOUGH TO
-0.755995	ENTIRE SPOKEN
-0.8123882	ENVIRONMENT </s>
-1.016391	ENVIRONMENT IS
-0.6182377	ENVIRONMENTS </s>
-0.7585033	EVEN BIGGER
-0.7585033	EVER DELVED
-1.528341	EVERY ACTION
-1.528341	EVERY SINGLE
-1.501115	EVERY SPEAKER
-0.9570487	EVERY UTTERANCE
-1.527369	EVERY WORD
-0.8468928	EXAMPLE </s>
-1.650385	EXAMPLE LET
-1.650385	EXAMPLE SCORING
-1.065164	EXAMPLE SCRIPTS
-1.624274	EXAMPLE THERE
-1.411836	EXAMPLE TO
-1.055279	EXAMPLES BELOW
-0.9638973	EXAMPLES IN
-0.7585033	EXECUTABLE PROGRAMS
-1.21715	EXEMPLARY DATASET
-1.21715	EXEMPLARY PROJECT
-1.199076	EXEMPLARY SCRIPTS
-1.037836	EXPERIENCE AS
-0.9764378	EXPERIENCE TO
-0.7348198	EXPLANATION OF
-0.6182377	EXPRESSION </s>
-1.057726	EXTERNAL CLUSTERS
-1.047717	EXTERNAL TOOLS
-0.7585033	EXTRACTION PROCESSES
-0.7409413	FACT THAT
-0.7585033	FEATURE EXTRACTION
-0.4874598	FEEL FREE	-0.1064563
-0.7421761	FELT A
-0.7157913	FEMALE AND
-0.7348198	FIELD OF
-1.911202	FILE CONNECTS
-1.355847	FILE CONTAINS	-0.06710905
-1.911202	FILE FORMAT
-1.878457	FILE HAS
-1.911202	FILE INFORMS
-1.281333	FILE IS
-1.911202	FILE LISTS
-1.878457	FILE NAME
-1.878457	FILE RELATED
-1.911202	FILE TELLS
-1.718656	FILE THAT
-1.862651	FILE WHICH
-1.718656	FILE WITH
-0.7470784	FILES </s>
-1.597849	FILES AND
-1.876521	FILES AS
-1.991863	FILES BUT
-1.654741	FILES FOR
-1.554392	FILES IN
-1.762617	FILES IS
-1.457435	FILES NAMED	-0.1064564
-1.991863	FILES PLACED
-2.007668	FILES PROCESSING
-1.973388	FILES RELATED
-2.007668	FILES SO
-1.387223	FILES THAT
-1.730442	FILES YOU
-0.6182377	FINALIZATION </s>
-0.7521824	FINALLY HAVE
-0.9561697	FIND </s>
-1.355163	FIND RESULT
-1.354469	FIND SUCH
-1.355163	FIND TRUSTWORTHY
-1.464858	FIRST ASR
-1.498797	FIRST DATASET
-1.40403	FIRST OF
-1.505915	FIRST SPEECH
-1.527691	FIRST TASK
-1.526658	FIRST TRIPHONE
-1.185139	FIVE A
-1.232017	FIVE FEMALE
-1.232017	FIVE MALE
-0.7409413	FIX DATA
-0.7409413	FIXING DATA
-0.4591844	FOLDER </s>
-1.734211	FOLDER FROM
-1.12888	FOLDER IN	-0.1064564
-1.769538	FOLDER NAME
-1.787952	FOLDER REPRESENTING
-1.786638	FOLDER SAME
-1.013147	FOLDERS </s>
-1.283101	FOLDERS AND
-1.439606	FOLDERS RELATED
-0.8623942	FOLDERS WITH
-1.057376	FOLLOW HTTP
-1.042748	FOLLOW MY
-0.7434143	FOLLOWING FILES
-2.249061	FOR ABSOLUTE
-2.071458	FOR AN
-2.244045	FOR BEGINNERS
-1.715877	FOR CHECKING
-1.586603	FOR DATA	-0.06762671
-2.15184	FOR DECODING
-2.244045	FOR DETAILED
-2.182319	FOR DIGITS
-2.249061	FOR DUMMIES
-1.67514	FOR EACH
-2.249061	FOR EASE
-1.685073	FOR EXAMPLE
-2.244045	FOR EXAMPLES
-2.244045	FOR FUTURE
-1.832862	FOR KALDI
-2.244045	FOR LINES
-2.071458	FOR MY
-2.249061	FOR OVER
-2.244045	FOR PROPER
-2.182319	FOR RUNNING
-1.715877	FOR SEARCHING
-1.98322	FOR SOME
-2.244045	FOR SUCH
-2.15184	FOR TEXT
-1.555691	FOR THE
-2.249061	FOR TUTORIALS
-1.541023	FOR YOU
-1.877437	FOR YOUR
-0.7372581	FORMAT IS
-0.7088652	FOUND IN
-0.7421761	FOUR ONE
-1.057376	FREE ACOUSTIC
-0.9764378	FREE TO
-1.066318	FROM </s>
-1.648435	FROM COPY
-1.054142	FROM ONE
-1.640685	FROM SOURCE
-1.505355	FROM THE
-1.519254	FROM YOUR
-1.622394	FROM ZERO
-0.6182377	FUNCTIONALITY </s>
-0.8123882	FUTURE </s>
-1.057376	FUTURE PROBABLY
-0.6182377	GENDER </s>
-0.6182377	GENERAL </s>
-1.375322	GET A
-1.431993	GET DECODING
-1.39156	GET SOME
-1.271813	GET TO
-1.359668	GET YOUR
-0.7572733	GETTING RESULTS
-0.7409413	GLUED WITH
-0.6628802	GO </s>
-0.7502182	GO TO	-0.04983487
-1.232675	GOOD HABIT
-0.632603	GOOD TO
-0.6182377	GRAMMAR </s>
-0.6182377	GRAMMARS </s>
-0.7336057	GUIDE YOU
-0.7240139	HABIT FOR
-1.299786	HAS A
-1.351413	HAS ONLY
-0.7460474	HAS TO	-0.1064564
-1.317876	HAVE ANY
-1.882329	HAVE CHOSEN
-1.882329	HAVE EVER
-1.718603	HAVE FILES
-1.880057	HAVE FREE
-1.73016	HAVE IT
-1.882329	HAVE LIKED
-1.866662	HAVE MADE
-1.882329	HAVE RECORDINGS
-1.742034	HAVE SOME
-1.655054	HAVE THE
-1.51339	HAVE TO
-1.675221	HAVE YOUR
-0.7336057	HELP YOU
-1.289573	HERE DATA
-1.232447	HERE FOR	-0.1064564
-1.354469	HERE WE
-1.264165	HERE YOU
-0.7585033	HONESTLY RECOMMEND
-0.1403392	HOW TO	-0.02026021
-0.8123882	HTTP </s>
-1.011765	HTTP KALDI
-1.882329	I ASSUME
-1.882329	I DECIDED
-1.835713	I DO
-1.866662	I FIND
-1.304485	I HAVE
-1.882329	I HONESTLY
-1.880057	I INSTALLED
-1.882329	I LAUNCHED
-1.835713	I PUT
-1.882329	I REALLY
-1.882329	I STARTED
-1.835713	I USED
-1.866662	I WAS
-1.037836	ID AS
-1.016391	ID IS
-0.755995	IDENTICAL WAY
-1.501584	IF I
-1.530459	IF NEEDED
-0.4071958	IF YOU	-0.02338374
-0.7409413	IMAGINE THAT
-0.7484029	IMPORTANT DIRECTORY
-1.748772	IN A
-2.216245	IN AN
-1.773326	IN AND
-2.121242	IN AUDIO
-2.338025	IN CASE
-1.850238	IN DECODING
-1.544043	IN DIRECTORY	-0.1996578
-1.838956	IN EACH
-2.412998	IN ENGLISH
-2.374671	IN EXEMPLARY
-2.080544	IN FILES
-2.166151	IN FOLDER
-1.846123	IN FOR
-2.412998	IN GENERAL
-1.284909	IN KALDI
-2.216245	IN LANGUAGE
-1.555487	IN MY	-0.04853695
-1.748772	IN ONE	-0.1064564
-2.412998	IN OTHER
-2.412998	IN OUR
-2.407313	IN PREPARED
-2.143116	IN SCRIPTS
-2.412998	IN SEPARATE
-1.04585	IN THE
-1.176115	IN THIS	-0.03925366
-2.272881	IN TOOLS
-1.817235	IN TWO
-1.29434	IN YOUR	-0.04887111
-0.7484029	INFORMATION DIRECTORY
-0.7583274	INFORMS ABOUT
-0.9561697	INSIDE </s>
-1.293956	INSIDE A
-1.350324	INSIDE CONFIGURATION
-1.325942	INSIDE CREATE
-1.165038	INSTALL KALDI
-1.20983	INSTALL LANGUAGE
-1.19555	INSTALL SOME
-0.6507652	INSTALLATION </s>
-1.329151	INSTALLATION I
-1.355818	INSTALLATION INSTRUCTIONS
-0.8123882	INSTALLED </s>
-1.011765	INSTALLED KALDI
-0.7348198	INSTEAD OF
-0.755995	INSTRUCTIONS GO
-1.316561	INTO FOLDER
-1.355163	INTO SIMILAR
-1.350324	INTO TRAIN
-1.280938	INTO YOUR
-1.151889	IS </s>
-1.494564	IS A
-2.008914	IS ALL
-2.128628	IS ALMOST
-2.054632	IS ALSO
-1.987742	IS AN
-1.611188	IS AND
-2.128628	IS ATTACHED
-2.128628	IS ENOUGH
-2.105735	IS GOOD
-2.132562	IS JUST
-2.128628	IS NAMED
-2.105735	IS NOT
-2.132562	IS NOTHING
-2.132562	IS OBVIOUSLY
-1.862888	IS ONE
-2.079432	IS PERFECT
-2.128628	IS POSSIBLE
-2.132562	IS PRECISELY
-1.791571	IS THE
-1.167593	IS TO
-2.054632	IS USED
-2.105735	IS WAV
-0.7336057	ISSUES YOU
-0.7043278	IT </s>
-1.58874	IT AND
-1.832724	IT BE
-1.898021	IT CAN
-1.941867	IT INSTEAD
-1.05019	IT IS	-0.03930045
-1.927162	IT WAS
-1.360219	IT WILL	-0.1064564
-1.941867	IT WORK
-1.939736	IT WOULD
-1.055279	ITS PHONE
-1.050223	ITS TEXT
-1.016391	JOB IS
-1.023422	JOB WITH
-0.8123882	JOBS </s>
-1.057376	JOBS LOCAL
-0.7509189	JUST AN
-0.7513458	KALDI </s>
-2.164747	KALDI ACTUALLY
-1.643373	KALDI AND
-2.164747	KALDI AUTHORS
-2.160813	KALDI COMPONENTS
-2.13792	KALDI DIRECTORIES
-1.980448	KALDI DIRECTORY
-2.13792	KALDI DOWNLOAD
-2.160813	KALDI ENVIRONMENT
-1.708851	KALDI FOR
-2.164747	KALDI FUNCTIONALITY
-1.59417	KALDI IN
-2.111617	KALDI INSTALLATION
-2.041099	KALDI ON
-2.164747	KALDI REQUIRES
-2.164747	KALDI ROOT
-1.961977	KALDI SCRIPTS
-2.13792	KALDI SOURCE
-1.643373	KALDI TO
-2.111617	KALDI TOOLKIT
-2.063357	KALDI TOOLS
-1.591022	KALDI TUTORIAL
-2.063357	KALDI USING
-1.014072	KNOW THE
-1.057726	KNOW WHAT
-0.7583274	KNOWLEDGE ABOUT
-0.8719246	LANGUAGE </s>
-0.7712045	LANGUAGE DATA
-1.087329	LANGUAGE MODELING
-1.652063	LANGUAGE MODELLING
-0.6182377	LANGUAGES </s>
-1.057726	LAST CHAPTER
-1.057376	LAST JOB
-0.7459015	LAUNCHED SOME
-0.7534495	LEARN HOW
-0.7585033	LEAST SEVERAL
-0.7583274	LESS AMOUNT
-0.7446561	LET IT
-0.7157913	LEXICON AND
-0.8123882	LIBRARIES </s>
-1.042748	LIBRARIES FROM
-0.6182377	LIBRISPEECH </s>
-0.4836426	LIKE THIS
-0.7157913	LIKED TO
-0.8123882	LINE </s>
-1.057726	LINE UTILITY
-0.7585033	LINEAR ALGEBRA
-1.042748	LINES FROM
-1.057726	LINES MATCHING
-0.9638973	LINKS IN
-0.9764378	LINKS TO
-1.450288	LINUX ALTHOUGH
-1.450288	LINUX REPRESENTATION
-1.438089	LINUX RUNNING
-1.425981	LINUX TOOLS
-1.414202	LINUX WILL
-1.232017	LISTS NONSILENCE
-1.232017	LISTS OPTIONAL
-1.231494	LISTS SILENCE
-0.7585033	LITTLE BIT
-1.057726	LOCAL CPU
-1.050223	LOCAL SYSTEM
-0.7088652	LOCATION IN
-0.9915414	LOGS FOR
-1.042748	LOGS FROM
-0.7240139	LOOK FOR
-0.7240139	LOOKING FOR
-0.7583274	LOOKS LIKE
-0.6182377	LOST </s>
-0.9027767	MADE </s>
-1.224596	MADE ANY
-1.21715	MADE BY
-0.7348198	MAIN KALDI
-1.192052	MAKE IT
-1.19555	MAKE SOME
-1.232017	MAKE SURE
-0.7434143	MAKEFILE FILES
-0.7509189	MALE SPEAKERS
-0.7409413	MATCHED WITH
-0.7421761	MATCHING A
-0.7777818	MAY BE
-1.351413	MAY FIND
-1.355186	MAY NOTICE
-1.057376	ME DESCRIBED
-1.023422	ME THAT
-0.7409413	MEANS THAT
-0.7583274	MECHANISM POSSIBLE
-0.8123882	METHODS </s>
-1.040285	METHODS ARE
-0.7585033	MFCC FEATURE
-0.7484029	MIGH BE
-0.7484029	MIGHT BE
-0.7088652	MISTAKES IN
-1.028174	MODELING FILES
-1.052744	MODELING TOOLKIT
-0.755995	MODELLING TOOLKIT
-0.465104	MODIFICATIONS IN
-0.7583274	MODIFIED ARGUMENTS
-0.7583274	MODIFY ARGUMENTS
-0.7547203	MONOPHONE TRAINING
-1.042748	MORE SPEAKERS
-1.057726	MORE THAN
-1.057726	MOST IMPORTANT
-1.057726	MOST PEOPLE
-0.4830859	MUST BE	-0.06749494
-1.173029	MY EXAMPLE
-1.731833	MY EXEMPLARY
-1.741506	MY EXPERIENCE
-1.743139	MY NAMING
-1.743139	MY OPINION
-1.741506	MY OWN
-1.741506	MY PATTERN
-1.743139	MY PIECE
-1.698268	MY TUTORIAL
-1.232447	NAME FOR
-1.355163	NAME GLUED
-1.268298	NAME OF
-1.354469	NAME WITHOUT
-0.465104	NAMED IN	-0.06774535
-0.7585033	NAMING APPROACH
-1.302152	NECESSARY FOR
-1.34456	NECESSARY KALDI
-1.431993	NECESSARY LINUX
-1.449423	NECESSARY STUFF
-1.271813	NECESSARY TO
-0.3489734	NEED TO	-0.04967538
-0.8123882	NEEDED </s>
-0.9915414	NEEDED FOR
-1.037836	NEW FOLDER
-1.057376	NEW LINE
-0.7572733	NEWLY MADE
-0.7547203	NICE IF
-0.8123882	NINE </s>
-1.042748	NINE SPEAKERS
-0.7583274	NO EXTERNAL
-0.7585033	NOISE ENVIRONMENTS
-0.7583274	NONSILENCE PHONES
-1.355163	NOT ALREADY
-1.33071	NOT HAVE
-1.340406	NOT NECESSARY
-1.354469	NOT NEEDED
-0.7583274	NOTHING MORE
-0.7585033	NOTICABLE DIFFERENCES
-1.032978	NOTICE SOME
-1.050223	NOTICE THERE
-1.213475	NOW ALL
-1.171636	NOW IS
-1.161777	NOW YOU
-0.6463144	NUMBER OF
-1.191191	NUMBER ONE
-0.6182377	OBVIOUSLY </s>
-0.7088652	OCCUR IN
-1.984254	OF ALL
-2.10075	OF ART
-1.891813	OF AUDIO
-2.10075	OF CALCULATIONS
-1.829841	OF DATA
-2.005362	OF EACH
-1.527071	OF HOW	-0.1064564
-2.10075	OF LINEAR
-1.844524	OF ONE
-2.10075	OF PARALLEL
-2.097075	OF PROBLEMS
-1.984254	OF SCRIPT
-2.050929	OF SOMETHING
-2.027548	OF SPEECH
-2.097075	OF STRINGS
-1.775617	OF THE
-2.005362	OF THESE
-1.506019	OF THIS
-2.005362	OF THREE
-2.097075	OF UNDERSTANDING
-1.448369	OF YOUR	-0.1064564
-0.485317	OFFICIAL PROJECT
-1.129266	ON DIFFERENT
-1.126505	ON HOW	-0.1064564
-1.642347	ON MY
-1.699776	ON SOLUTION
-1.54564	ON THE
-1.698367	ON WINDOWS
-1.560336	ON YOUR
-1.093653	ONE </s>
-1.890108	ONE AUDIO
-1.972049	ONE BY
-2.019656	ONE FIVE
-1.481424	ONE FOUR	-0.1064564
-1.810709	ONE IS
-2.019656	ONE PERSON
-2.019656	ONE PHONE
-2.033673	ONE RECORDING
-1.972049	ONE SPEAKER
-1.987345	ONE USE
-0.5737312	ONE ZERO	-0.2168607
-0.7851602	ONLY DIGITS
-1.299786	ONLY ONE
-1.346868	ONLY SPOKEN
-0.7421761	OPEN A
-1.050223	OPERATING SYSTEM
-1.057376	OPERATING SYSTEMS
-0.7348198	OPINION KALDI
-0.7348198	OPTIMIZATION OF
-0.7583274	OPTIONAL SILENCE
-0.7336057	OR YOU
-0.6182377	ORDER </s>
-0.7471504	OTHER SCRIPTS
-0.755995	OUR CASE
-0.7534495	OVER THREE
-1.520663	OWN ASR
-1.513301	OWN AUDIO	-0.1064564
-1.485042	OWN DATA
-1.55947	OWN PROJECT
-1.520663	OWN SCRIPTS
-1.567665	OWN SET
-1.592867	OWN TRACKS
-0.7583274	PARALLEL JOBS
-1.579	PARTICULAR CASE
-1.46584	PARTICULAR KALDI
-1.029068	PARTICULAR RECORDING	-0.1064564
-1.020951	PARTICULAR SPEAKER
-1.549601	PARTICULAR SPEAKERS
-0.6182377	PASS </s>
-0.6182377	PATH </s>
-1.057726	PATTERN MEANS
-1.057376	PATTERN WORD
-0.7088652	PATTERNS IN
-0.7509189	PEOPLE I
-0.7540548	PERFECT FOR
-1.198891	PERFECT IN
-1.355818	PERFECT TIME
-0.9027767	PERSON </s>
-1.228367	PERSON BUT
-1.231494	PERSON DURING
-0.7509189	PERSONALLY I
-1.185139	PHONE ONE
-1.232017	PHONE TRANSCRIPTIONS
-1.20983	PHONE TWO
-0.8123882	PHONES </s>
-1.023422	PHONES THAT
-0.7348198	PIECE OF
-0.7583274	PLACE WHERE
-0.9322118	PLACED </s>
-0.6275708	PLACED IN
-0.6182377	PLAIN </s>
-0.7409413	PLAY WITH
-0.7585033	PLEASE OPEN
-1.057726	PLUS MIGH
-1.057376	PLUS PLUS
-1.011765	POINT OF
-1.040285	POINT THIS
-0.7547203	POPULAR SPEECH
-0.7585033	PORTABLE MAKEFILE
-1.052744	POSSIBLE RUNNING
-0.9764378	POSSIBLE TO
-0.7583274	PRECISELY DESCRIBED
-0.6182377	PRECONDITION </s>
-0.8123882	PREPARATION </s>
-1.047717	PREPARATION EACH
-0.755995	PREPARE RUNNING
-1.023422	PREPARED DATA
-1.0354	PREPARED SCRIPTS
-0.7088652	PRESENT IN
-1.052744	PROBABLY HAS
-1.009471	PROBABLY YOU
-0.8123882	PROBLEMS </s>
-1.023422	PROBLEMS WITH
-0.7572733	PROCESS MAY
-0.6182377	PROCESSES </s>
-0.8123882	PROCESSING </s>
-1.057726	PROCESSING PATTERNS
-1.412911	PROGRAMMING AS
-0.578346	PROGRAMMING LANGUAGE	-0.3097459
-1.451981	PROGRAMMING LANGUAGES
-0.7157913	PROGRAMS AND
-0.510407	PROJECT </s>
-1.70192	PROJECT FINALIZATION
-1.438805	PROJECT IN
-1.70192	PROJECT SITE
-1.700712	PROJECT STRUCTURE
-1.70192	PROJECT WEBSITE
-1.011765	PROPER KALDI
-1.055279	PROPER SORTING
-0.6182377	PROPERLY </s>
-0.8123882	PURPOSE </s>
-1.011765	PURPOSE OF
-1.491793	PUT ALL
-1.458377	PUT SOME
-1.409743	PUT THE
-1.527691	PUT THEM
-1.505915	PUT THERE
-1.498797	PUT THESE
-0.7585033	PYTHON C
-0.7585033	QUALITY NOISE
-0.7585033	QUICKLY BUILD
-1.420051	READ ALL
-1.438089	READ ANY
-1.38608	READ IT
-1.39156	READ SOME
-1.438089	READ SOMETHING
-0.8123882	READY </s>
-0.9764378	READY TO
-0.7583274	REALLY WOULD
-1.115583	RECOGNITION AND
-1.232017	RECOGNITION SUBJECT
-1.220857	RECOGNITION SYSTEM
-1.037836	RECOGNIZABLE FOLDER
-1.052744	RECOGNIZABLE WAY
-0.6182377	RECOMMEND </s>
-0.7384824	RECORD YOUR
-0.7088652	RECORDED IN
-0.4875368	RECORDING SESSION
-0.6182377	RECORDINGID </s>
-0.7348198	RECORDINGS OF
-0.7585033	REGULAR EXPRESSION
-0.7157913	RELATE TO
-0.2322465	RELATED TO
-0.7157913	RELATES TO
-0.7585033	RELATIVELY EASY
-0.7585033	REPRESENT TESTING
-0.7547203	REPRESENTATION WHICH
-0.7534495	REPRESENTING PARTICULAR
-0.7585033	REQUIRES SOLID
-0.7583274	REST NINE
-0.7434143	RESULT FILES
-0.7161933	RESULTS </s>
-1.406632	RESULTS AS
-1.259843	RESULTS IN
-1.428334	RESULTS USING
-0.4875368	REVISION CONTROL	-0.1064564
-0.7157913	RICH AND
-0.7534495	RM DATASET
-0.7585033	ROOT PATH
-0.7572733	RULE NUMBER
-1.042748	RUN AN
-1.045226	RUN SCRIPT
-0.7471504	RUNNIG SCRIPTS
-1.268298	RUNNING KALDI
-1.355163	RUNNING PROPERLY
-1.311945	RUNNING SCRIPTS
-1.321226	RUNNING THIS
-0.7585033	SAFETY MECHANISM
-0.7534495	SAID BY
-0.9916703	SAME </s>
-1.402733	SAME DIRECTORY
-1.444272	SAME PERSON
-1.438089	SAME SIMPLE
-1.438089	SAME WAY
-0.7421761	SAYS ONE
-0.7521824	SCORING SCRIPT
-0.8468928	SCRIPT </s>
-1.450237	SCRIPT FOR
-1.632923	SCRIPT INTO
-1.084494	SCRIPT PROGRAMMING
-1.599317	SCRIPT WILL
-1.539025	SCRIPT WITH
-0.4894013	SCRIPTS </s>
-1.823982	SCRIPTS ALLOWING
-1.754631	SCRIPTS ARE
-1.813737	SCRIPTS BELOW
-1.823982	SCRIPTS CREATION
-1.186428	SCRIPTS FOR
-1.552199	SCRIPTS TO
-0.9764378	SEARCHING AND
-1.057726	SEARCHING PLAIN
-0.7161933	SECTION </s>
-1.283101	SECTION AND
-1.406632	SECTION AS
-1.45094	SECTION RELATES
-0.7240139	SECTIONS FOR
-0.7421761	SELECT ONE
-0.9561697	SENTENCE </s>
-1.276683	SENTENCE IS
-1.355163	SENTENCE SAID
-1.340406	SENTENCE UTTERANCE
-0.9027767	SENTENCES </s>
-1.181724	SENTENCES THAT
-1.232017	SENTENCES UTTERANCES
-0.755995	SEPARATE FOLDERS
-0.9027767	SESSION </s>
-1.220857	SESSION THERE
-1.181724	SESSION WITH
-0.5707451	SET OF	-0.06778895
-0.8832705	SET UP	-0.3097459
-0.6182377	SETS </s>
-0.7583274	SETTING LOCAL
-0.7547203	SEVERAL DIFFERENT
-0.7409413	SH DATA	-0.1064564
-0.7157913	SHELL AND
-0.7534495	SHORT TUTORIAL
-1.231494	SHOULD CONTAIN
-1.232017	SHOULD GUIDE
-1.220857	SHOULD USE
-1.057726	SHOW NOTICABLE
-1.009471	SHOW YOU
-0.4874598	SILENCE PHONES	-0.1064564
-0.7585033	SIMILAR LOCATION
-0.9561697	SIMPLE </s>
-1.311945	SIMPLE ASR
-1.340406	SIMPLE SET
-1.354469	SIMPLE TRIPHONE
-0.7547203	SINGLE UTTERANCE
-0.7157913	SITE AND
-0.7409413	SITUATION THAT
-0.7157913	SIX AND
-0.7547203	SLIGHTLY DIFFERENT
-1.047717	SMALL DATASET
-1.050223	SMALL TRAINING
-0.9764378	SO TO
-1.009471	SO YOU
-0.7585033	SOFTWARE COMPILATION
-0.7585033	SOLID KNOWLEDGE
-0.7547203	SOLUTION USED
-1.816882	SOME AMOUNT
-1.816882	SOME COMMENTS
-1.805328	SOME CONFIGURATION
-1.249305	SOME DECODING	-0.1064564
-1.778449	SOME EXAMPLE
-1.816882	SOME EXAMPLES
-1.816882	SOME MODIFICATIONS
-1.778449	SOME NECESSARY
-1.805328	SOME NUMBER
-1.816882	SOME POINT
-1.778449	SOME TEXT
-1.355163	SOMETHING ELSE
-1.354469	SOMETHING LIKE
-1.345337	SOMETHING SIMPLE
-1.206474	SOMETHING TO
-0.6182377	SORTED </s>
-0.9027767	SORTING </s>
-1.220857	SORTING IF
-1.232017	SORTING ISSUES
-0.3610946	SOURCE CODE	-0.06547368
-0.8731294	SPEAKER </s>
-1.698367	SPEAKER DURING
-1.680044	SPEAKER HAS
-1.137542	SPEAKER ID
-1.404938	SPEAKER IN
-1.538475	SPEAKER OF
-1.699776	SPEAKER SAYS
-0.7509189	SPEAKERID SPEAKERS
-0.6880422	SPEAKERS </s>
-1.618393	SPEAKERS ASR
-1.626792	SPEAKERS FOLDER
-1.700157	SPEAKERS GENDER
-1.680914	SPEAKERS INTO
-1.662114	SPEAKERS SPEAKER
-1.53536	SPEAKERS YOU
-1.451981	SPEECH CORPORA
-1.437041	SPEECH DECODING
-0.58246	SPEECH RECOGNITION
-0.7855814	SPOKEN DIGITS
-0.7866992	SPOKEN SENTENCE
-0.7509189	SRI LANGUAGE
-0.8123882	SRILM </s>
-1.052744	SRILM INSTALLATION
-0.7547203	STABLE LINUX
-0.7409413	START WITH
-0.7409413	STARTED WITH
-0.7157913	STARTING TO
-0.7157913	STATIC AND
-0.6595743	STEP BY	-0.1064564
-1.219575	STEP TUTORIAL
-0.7157913	STICK TO
-0.755995	STRAIGHT INTO
-0.6182377	STREAMS </s>
-0.7088652	STRING IN
-1.047717	STRINGS EACH
-1.055279	STRINGS NEED
-0.9027767	STRUCTURE </s>
-1.206216	STRUCTURE ARE
-1.20983	STRUCTURE WILL
-1.050223	STUFF IF
-1.052744	STUFF RELATED
-0.7585033	SUBFOLDER FOLLOWING
-1.228367	SUBFOLDERS BUT
-1.136531	SUBFOLDERS FOR
-1.224596	SUBFOLDERS INSIDE
-0.7157913	SUBJECT AND
-0.6182377	SUBVERSION </s>
-0.7348198	SUCCESSFUL KALDI
-1.025791	SUCH A
-1.057376	SUCH LINKS
-0.7572733	SUM UP
-0.6182377	SUPPLIES </s>
-0.7336057	SURE YOU
-0.7585033	SYNTAX DETAILS
-0.9143651	SYSTEM </s>
-1.47771	SYSTEM AND
-1.099903	SYSTEM IN
-1.781689	SYSTEM JOBS
-1.591949	SYSTEM OF
-1.783424	SYSTEM SUBVERSION
-1.735871	SYSTEM USING
-1.747399	SYSTEM WHICH
-1.783424	SYSTEM WRITTEN
-0.9561697	SYSTEMS </s>
-1.232447	SYSTEMS FOR
-1.185386	SYSTEMS IN
-1.354469	SYSTEMS MUST
-0.7509189	TAKEN FROM
-0.6182377	TASK </s>
-0.7360372	TELLS THE
-1.115583	TERMINAL AND
-1.228367	TERMINAL SHOULD
-1.232017	TERMINAL WINDOW
-1.030569	TEST IT
-1.057726	TEST SETS
-0.7521824	TESTED ON
-0.7534495	TESTING DATASET
-1.445353	TEXT DATASETS
-1.422806	TEXT FILE
-0.8654277	TEXT FILES
-1.450138	TEXT TRANSCRIPTION
-0.7585033	THAN SPEAKERID
-1.926373	THAT ALSO
-1.383594	THAT ARE
-1.926373	THAT CAN
-1.411227	THAT CONTAIN	-0.1064564
-1.767574	THAT IS
-1.926373	THAT LINUX
-1.954663	THAT PERSON
-1.758176	THAT THE
-1.887119	THAT WILL
-0.5830193	THAT YOU	-0.06251831
-1.983556	THE ASR
-1.964006	THE AUDIO
-2.214574	THE BASICS
-2.209935	THE BETTER
-2.209935	THE CHOICE
-2.214574	THE FACT
-2.214574	THE FIELD
-2.209935	THE FUTURE
-2.209935	THE JOB
-1.81907	THE KALDI
-2.214574	THE LESS
-2.209935	THE MORE
-2.209935	THE MOST
-2.123979	THE NECESSARY
-2.209935	THE OFFICIAL
-2.152527	THE PERFECT
-2.209935	THE POINT
-2.209935	THE PURPOSE
-2.209935	THE RECOGNIZABLE
-2.214574	THE REST
-1.138084	THE SAME
-2.071961	THE SCRIPT
-2.183085	THE SOURCE
-2.152527	THE SPOKEN
-2.209935	THE STUFF
-2.214574	THE SYNTAX
-1.676898	THE TERMINAL
-2.214574	THE WHOLE
-0.7088652	THEM IN
-1.20983	THEN CREATE
-1.220857	THEN PUT
-1.231494	THEN TRY
-1.422806	THERE ALL
-0.8731056	THERE ARE
-1.439606	THERE FOLDERS
-1.445353	THERE MAY
-1.559595	THESE AUDIO
-1.639625	THESE DIRECTORIES
-1.543649	THESE FILES
-1.361027	THESE IN
-1.567793	THESE SCRIPTS
-1.64773	THESE STRINGS
-1.611278	THESE THREE
-1.593358	THESE TWO
-1.040285	THEY ARE
-1.057726	THEY RELATE
-0.7585033	THINK WHILE
-1.139886	THIS </s>
-1.948371	THIS CAN
-1.967517	THIS CASE
-1.863567	THIS DIRECTORY
-1.912439	THIS FILE	-0.1057442
-1.743225	THIS IS	-0.04931312
-1.428433	THIS SCRIPT
-1.451672	THIS SECTION
-2.007672	THIS SHORT
-1.89553	THIS SPEAKERS
-1.967517	THIS TOOLKIT
-1.434127	THIS TUTORIAL	-0.1064564
-1.948371	THIS UTTERANCE
-1.987546	THIS WAS
-2.00474	THIS WHEN
-1.89553	THIS WILL
-1.475241	THREE AS
-1.469007	THREE SCRIPTS
-1.514654	THREE SPOKEN
-1.527369	THREE WORDS
-0.9570487	THREE ZERO
-0.7348198	THROUGH KALDI
-0.6182377	TIME </s>
-2.460753	TO ACKNOWLEDGE
-2.460753	TO ADD
-1.831729	TO BE	-0.0497751
-2.460753	TO BEGIN
-2.460753	TO COMMUNICATE
-1.387285	TO CREATE
-1.948265	TO DEAL	-0.1064564
-2.159355	TO DIRECTORY
-2.460753	TO DIVIDE
-2.323258	TO DO
-2.411246	TO DOWNLOAD
-2.453328	TO FOLLOW
-1.916546	TO GET
-2.365028	TO GO
-1.945971	TO INSTALL
-1.948265	TO KNOW
-2.217716	TO LANGUAGE
-1.945971	TO MAKE
-2.217716	TO MY
-2.460753	TO NEWLY
-2.453328	TO NINE
-1.886395	TO PARTICULAR
-2.460753	TO PLAY
-2.460753	TO PREPARE
-2.460753	TO QUICKLY
-1.415022	TO READ
-2.460753	TO RECORD
-2.460753	TO REPRESENT
-1.948265	TO RUN
-1.901209	TO SET	-0.1064564
-1.948265	TO SHOW
-2.107915	TO SOME
-2.460753	TO SUM
-2.020348	TO THAT
-2.285156	TO THESE
-2.460753	TO THINK
-2.187556	TO THIS
-2.460753	TO TRANSPOSE
-2.217716	TO TWO
-1.63277	TO USE
-1.538258	TO YOUR	-0.0672307
-0.7240139	TOOL FOR
-0.9561697	TOOLKIT </s>
-1.354469	TOOLKIT SRILM
-1.289573	TOOLKIT THAT
-1.335531	TOOLKIT USING
-1.053055	TOOLS </s>
-1.370831	TOOLS AND
-1.539149	TOOLS ARE
-1.029185	TOOLS ATTACHMENT
-1.407196	TOOLS FOR
-1.490572	TOOLS THAT
-0.6182377	TRACKS </s>
-1.271813	TRAIN AND
-1.402733	TRAIN DIRECTORY	-0.1064564
-1.38608	TRAIN IT
-1.420051	TRAIN SCRIPT
-1.450288	TRAIN TOOL
-0.7157913	TRAINED AND
-1.013147	TRAINING </s>
-0.8777783	TRAINING DATASET	-0.1064564
-1.445353	TRAINING FIRST
-1.450138	TRAINING METHODS
-0.8123882	TRANSCRIPTION </s>
-1.023422	TRANSCRIPTION THAT
-0.7585033	TRANSCRIPTIONS TAKEN
-0.7534495	TRANSFER USING
-0.7547203	TRANSPOSE EVERY
-1.057726	TRIPHONE PASS
-1.050223	TRIPHONE TRAINING
-0.7585033	TRUSTWORTHY CONVINCED
-0.4683185	TRY TO
-0.6590433	TUTORIAL </s>
-1.463955	TUTORIAL FOR
-1.398377	TUTORIAL IN
-1.528407	TUTORIAL IS
-1.075957	TUTORIAL ON
-0.7572733	TUTORIALS MADE
-1.120689	TWO </s>
-0.8780049	TWO DIFFERENT
-1.631681	TWO FILES
-1.177328	TWO FOLDERS
-1.743323	TWO METHODS
-1.743323	TWO VERY
-1.713947	TWO ZERO
-0.7421761	UBUNTU ONE
-0.7157913	UNCOMMENT AND
-0.8123882	UNDERSTANDING </s>
-1.011765	UNDERSTANDING OF
-0.755995	UNIQUE NAME
-0.7585033	UNIX SHELL
-0.9027767	UP </s>
-1.20983	UP AN	-0.3097459
-1.115583	UP TO
-1.51073	USE IT
-0.9881615	USE KALDI
-1.56956	USE LINUX
-1.539149	USE THIS
-1.546555	USE TWO
-1.477636	USE YOUR
-1.327914	USED FOR
-0.5549406	USED IN
-1.432106	USED THESE
-1.231494	USEFUL COMPONENTS
-1.098399	USEFUL IN
-1.232017	USEFUL SECTIONS
-1.527369	USING HTTP
-1.521585	USING ONLY
-1.481567	USING THIS
-1.527369	USING WINDOWS
-0.9329727	USING YOUR	-0.1064564
-0.7240139	UTILITY FOR
-1.057726	UTILS FIX
-1.057726	UTILS VALIDATE
-1.017059	UTTERANCE </s>
-1.527691	UTTERANCE BELONGS
-1.527691	UTTERANCE CONSIST
-1.527691	UTTERANCE MATCHED
-1.520511	UTTERANCE SENTENCE
-1.526658	UTTERANCE TRANSCRIPTION
-0.7372581	UTTERANCEID IS
-0.7088652	UTTERANCES IN
-0.7409413	VALIDATE DATA
-1.057376	VERY DETAILED
-1.055279	VERY USEFUL
-0.6182377	VOXFORGE </s>
-0.4683185	WANT TO
-1.231494	WAS CREATED
-1.098399	WAS IN
-1.232017	WAS STARTING
-0.9561697	WAV </s>
-1.355163	WAV ENDING
-1.33071	WAV FILE
-1.298384	WAV FILES
-0.4231299	WAY </s>
-1.221301	WAY IN
-1.057726	WE ASSUMED
-1.052744	WE GO
-0.6182377	WEBSITE </s>
-0.9027767	WELL </s>
-1.220857	WELL CAN
-1.20983	WELL MY
-0.7348198	WHAT KALDI
-0.7384824	WHATEVER YOUR
-1.042748	WHEN I
-1.009471	WHEN YOU
-1.047717	WHERE PARTICULAR
-1.009471	WHERE YOU
-1.449423	WHICH CONTAINS
-1.414202	WHICH I
-1.247395	WHICH IN
-1.444272	WHICH SHOULD
-1.431993	WHICH UTTERANCE
-0.7534495	WHILE USING
-0.7585033	WHOLE CONTENT
-0.7336057	WHY YOU
-0.7547203	WIDELY USED
-1.883332	WILL ALLOW
-1.010105	WILL BE
-1.883332	WILL BECOME
-1.797355	WILL CREATE
-1.838511	WILL DO
-1.883332	WILL ENCOUNTER
-1.853145	WILL GET
-1.883332	WILL HELP
-1.883332	WILL LEARN
-1.881152	WILL NOTICE
-1.838511	WILL PUT
-1.881152	WILL WANT
-0.6182377	WINDOW </s>
-0.4205022	WINDOWS </s>
-0.7585033	WIT ZIELINSKI
-1.98243	WITH *
-1.130059	WITH </s>
-1.8764	WITH AN
-1.558556	WITH AND
-1.830445	WITH ASR
-1.985265	WITH BIG
-1.763245	WITH DATA
-1.802306	WITH IT
-1.434258	WITH ITS
-1.705064	WITH KALDI
-1.985265	WITH LOOKING
-1.985265	WITH MODIFIED
-1.816148	WITH SOME
-1.946379	WITH SOMETHING
-1.340343	WITH THE
-1.73903	WITH YOUR
-1.057726	WITHOUT RM
-1.055279	WITHOUT WAV
-1.042748	WORD FROM
-1.055279	WORD PHONE
-0.8123882	WORDS </s>
-1.052744	WORDS DIGITS
-0.7157913	WORK AND
-1.037836	WOULD BE
-1.045226	WOULD HAVE
-0.7088652	WRITTEN IN
-1.300978	YOU </s>
-2.215174	YOU ALSO
-1.730021	YOU CAN
-2.295719	YOU COMPLETELY
-2.291641	YOU CREATED
-2.215174	YOU DO
-2.295719	YOU FINALLY
-2.267936	YOU FIND
-2.291641	YOU FOLLOW
-0.8482653	YOU HAVE	-0.04290851
-1.721967	YOU HOW	-0.1064564
-1.959708	YOU IS
-1.746591	YOU MAY	-0.06735037
-2.267936	YOU NEED
-2.291641	YOU READ
-2.267936	YOU SHOULD
-2.295719	YOU STICK
-1.526185	YOU TO
-1.457483	YOU WANT	-0.3097459
-0.8471994	YOU WILL	-0.0238107
-1.965655	YOUR ASR
-1.949909	YOUR AUDIO
-2.136827	YOUR CHOICE
-1.89208	YOUR DATA
-2.140097	YOUR DICTIONARY
-1.981993	YOUR DIRECTORY
-2.117696	YOUR EXEMPLARY
-1.291322	YOUR FIRST
-2.140097	YOUR INFORMATION
-2.136827	YOUR LAST
-2.074413	YOUR LINUX
-0.7794051	YOUR OWN	-0.02699067
-2.054289	YOUR PARTICULAR
-2.140097	YOUR PRECONDITION
-1.281257	YOUR PROJECT	-0.1495315
-2.136827	YOUR PURPOSE
-2.074413	YOUR TRAINING
-1.908831	ZERO *
-1.122031	ZERO </s>
-1.765678	ZERO AUDIO
-1.862651	ZERO DIFFERENT
-1.741531	ZERO FILES
-1.878457	ZERO FOLDERS
-1.908831	ZERO LINES
-1.729943	ZERO ONE
-1.911202	ZERO POPULAR
-1.355847	ZERO SENTENCES
-1.53149	ZERO TO
-1.908831	ZERO WORDS
-1.342419	ZERO ZERO
-0.6182377	ZIELINSKI </s>

\3-grams:
-0.9255146	CREATE A FOLDER
-0.2613589	UP AN ASR
-0.1097201	AN ASR SYSTEM
-0.2469385	OWN AUDIO DATA
-0.7598681	MUST BE DONE
-0.9314953	TO BE INSTALLED
-0.6180885	STEP BY STEP
-0.5647593	SOURCE CODE </s>
-0.4472402	BE CONSIDERED AS
-0.5431781	THAT CONTAIN ONLY
-0.7106247	FILE CONTAINS EVERY
-0.4497006	REVISION CONTROL SYSTEM
-0.5424982	<s> CREATE A
-0.884537	<s> DATA PREPARATION
-0.3627276	AUDIO DATA </s>
-0.7787142	FOR DATA TRAIN
-0.6238928	SH DATA TRAIN
-0.2568601	TRAINING DATASET </s>
-0.4443061	TO DEAL WITH
-0.2851182	SOME DECODING RESULTS
-0.3915908	DATA DIR </s>
-0.2051352	IN DIRECTORY </s>
-0.2729248	TRAIN DIRECTORY </s>
-0.4282719	BE DONE </s>
-0.912682	<s> EACH FILE
-1.090701	THIS FILE CONTAINS
-0.7468535	THIS FILE LISTS
-0.6240307	HERE FOR DATA
-0.4447938	ONE FOUR ONE
-0.522854	FEEL FREE TO
-0.2239979	<s> GO TO
-1.172048	YOU HAVE THE
-1.127198	YOU HAVE TO
-0.871711	<s> HERE FOR
-0.8826398	<s> HERE YOU
-0.1057399	OF HOW TO
-0.1057399	ON HOW TO
-0.1057399	YOU HOW TO
-0.1592803	<s> IF YOU
-0.878247	<s> IN MY
-0.620233	FOLDER IN DIRECTORY
-0.7967244	NAMED IN A
-0.4711605	BE INSTALLED </s>
-1.024228	IT IS ALSO
-0.8667092	THIS IS A
-0.4378693	<s> IT IS
-0.2397659	PROGRAMMING LANGUAGE </s>
-0.4375359	<s> LOOK FOR
-0.7404523	YOU MAY FIND
-0.3235773	AS MUST BE
-0.7804661	IN MY EXAMPLE
-0.313738	FILES NAMED IN
-0.2458061	ALSO NEED TO
-0.8036143	SET OF DATA
-1.082743	<s> ONE IS
-0.3657338	<s> ONE ZERO
-0.3703534	IN ONE ZERO
-1.050232	YOUR OWN AUDIO
-0.4711605	SILENCE PHONES </s>
-0.5647593	DATA PREPARATION </s>
-0.292347	YOUR PROJECT </s>
-0.3259842	PARTICULAR RECORDING SESSION
-0.3634545	DECODING RESULTS </s>
-0.5500321	AND SCRIPT PROGRAMMING
-0.4951394	TO SET UP
-0.4443061	<s> SH DATA
-0.5021216	DIFFERENT SPEAKERS </s>
-0.5774166	BY STEP TUTORIAL
-0.4399813	ASR SYSTEM </s>
-0.3490247	<s> THIS FILE
-0.8073291	<s> THIS IS
-1.016528	IN THIS CASE
-0.9408625	GO TO DIRECTORY
-0.640311	HAS TO BE
-1.072093	HOW TO CREATE
-0.9164162	NEED TO BE
-0.8466942	DATA TRAIN DIRECTORY
-0.4100655	THIS TUTORIAL </s>
-0.2674747	SET UP AN
-0.1696458	YOU WANT TO
-0.729166	<s> WAV FILES
-0.6047335	AS WELL </s>
-0.5318684	IT WILL BE
-1.164656	YOU WILL CREATE
-1.153704	<s> YOU MAY
-0.7286133	IF YOU HAVE
-0.7215943	THAT YOU HAVE
-0.7209349	THAT YOU WILL
-0.9703417	<s> YOUR FIRST
-0.8147723	IN YOUR PROJECT
-0.6514922	OF YOUR CHOICE
-0.7252848	TO YOUR PROJECT
-0.4591057	USING YOUR OWN
-1.059542	ONE ZERO </s>
-0.4210234	ONE ZERO ZERO

\end\
