
\data\
ngram 1=51597

\1-grams:
-6.444169	#
-6.31217	#1
-6.209422	#2
-6.31217	#3
-6.444169	#701
-6.444169	#ATLGAS
-6.444169	#CBDQ
-6.444169	#JUSTSAYING
-6.444169	#OSLOHERO
-6.444169	#OSLOTRAITOR
-6.444169	$0.01
-5.804689	$1
-6.31217	$1.10
-6.444169	$1.18
-6.444169	$1.20
-6.068018	$1.25
-6.444169	$1.50
-6.444169	$1.57
-5.689711	$10
-5.270051	$100
-5.961521	$1000
-5.876064	$10000
-5.961521	$100000
-6.444169	$11000
-6.444169	$112000
-6.444169	$120
-6.31217	$12000
-6.444169	$13000
-6.444169	$135
-6.444169	$14.79
-6.444169	$140
-6.444169	$14000
-6.444169	$15
-6.444169	$150
-6.444169	$1500
-6.444169	$15000
-6.31217	$150000
-6.209422	$2
-6.444169	$2.10
-6.444169	$2.40
-6.31217	$2.70
-5.961521	$20
-6.068018	$200
-5.961521	$2000
-6.31217	$20000
-6.31217	$200000
-6.444169	$29
-6.444169	$3
-6.209422	$3.50
-6.209422	$30
-5.961521	$300
-6.444169	$3000
-6.209422	$30000
-6.444169	$316000
-6.31217	$33
-6.444169	$350
-6.444169	$39
-6.31217	$4
-6.31217	$4.5
-6.31217	$40
-6.31217	$400
-6.31217	$4000
-5.961521	$40000
-6.444169	$400000
-6.444169	$404
-6.444169	$460
-6.31217	$5
-6.444169	$5.25
-5.876064	$50
-6.31217	$500
-6.209422	$5000
-6.068018	$50000
-6.444169	$500000
-6.444169	$51000
-6.444169	$55000
-6.31217	$6
-6.31217	$60
-6.444169	$60.2
-6.444169	$600
-6.444169	$60000
-6.444169	$650
-6.31217	$700
-6.31217	$80
-6.444169	$85000
-6.444169	$9600
-6.444169	$99
-6.31217	$99.50
-6.444169	$BILLION
-6.444169	'66
-6.444169	'70S.80S.90S
-6.444169	'A
-6.444169	'ACADEMY
-6.444169	'AGNOSTICRETORTED
-6.444169	'ALICE
-6.444169	'ALICE'S
-6.444169	'ANYBODY
-6.444169	'BURY
-6.444169	'COME
-6.444169	'FIND
-6.444169	'GRAVITY
-6.444169	'HEAD
-6.444169	'HII
-6.209422	'I
-6.31217	'I'M
-6.444169	'IN
-6.444169	'IT'S
-6.444169	'MEMOS
-6.31217	'MY
-6.444169	'NOI
-6.444169	'NOT
-6.444169	'OKAY
-6.444169	'ONCE
-6.444169	'THANK
-6.31217	'THE
-6.444169	'THEME
-6.444169	'THEY
-6.31217	'THIS
-6.444169	'TIS
-6.444169	'WE'VE
-6.31217	'WHAT
-6.209422	(
-6.31217	(AUDIENCE
-6.444169	(GOOD
-6.31217	(TEXT
-6.444169	(THE
-6.444169	(YES
-6.444169	(YOUR
-6.444169	)
-4.4211	*
-5.598888	+
-6.444169	+10
-6.31217	+2
-6.444169	.00001
-6.444169	.000042
-6.444169	.0001
-6.444169	.001
-6.444169	.005
-6.31217	.01
-6.444169	.02
-6.444169	.03
-5.876064	.05
-6.444169	.06
-6.444169	.128
-6.444169	.16
-6.444169	.17
-6.444169	.22
-6.444169	.26
-6.444169	.3
-6.444169	.303
-6.444169	.45
-6.31217	.5
-6.444169	.6
-6.444169	.6%
-6.31217	.7
-6.444169	.75
-6.444169	.EXE
-6.444169	.S
-5.961521	/
-6.068018	/B/
-5.804689	0
-6.444169	0.0015
-6.444169	0.003
-6.444169	0.004
-6.444169	0.006
-6.444169	0.01
-6.444169	0.03
-5.559731	0.1
-6.444169	0.15
-5.64193	0.2
-6.31217	0.3
-6.444169	0.31
-6.444169	0.32
-5.961521	0.4
-5.804689	0.5
-6.068018	0.6
-6.444169	0.618
-6.209422	0.7
-6.444169	0.75
-5.876064	0.8
-6.444169	0.85
-6.444169	0.9
-6.444169	0.99
-6.444169	00
-6.444169	0001
-6.444169	0111
-6.31217	0400
-6.444169	05049
-6.444169	0600
-6.444169	079044
-6.444169	09
-4.600471	1
-6.209422	1.0
-5.598888	1.1
-6.444169	1.15
-5.183244	1.2
-6.068018	1.25
-6.444169	1.26
-5.199273	1.3
-6.31217	1.33
-5.459823	1.4
-6.444169	1.45
-6.444169	1.48
-5.124463	1.5
-5.689711	1.6
-6.444169	1.618
-6.444169	1.625
-6.444169	1.65
-5.559731	1.7
-6.444169	1.75
-6.209422	1.76
-5.598888	1.8
-6.209422	1.9
-6.444169	1.95
-6.444169	1/10000TH
-6.444169	1/400TH
-6.31217	1/6TH
-3.479991	10
-6.444169	10.2
-6.444169	10.3
-6.444169	10.3.08
-6.209422	10.8
-6.444169	10.9
-6.444169	10/15
-3.824376	100
-6.444169	100%
-6.444169	100'S
-4.394707	1000
-4.3509	10000
-4.495089	100000
-6.31217	1000000
-6.444169	1000AWESOMETHINGS.COM
-6.444169	1000TH
-6.444169	1001
-6.31217	1006
-6.31217	100TH
-5.459823	101
-6.31217	1013
-6.444169	10165
-5.743406	102
-6.444169	1020
-6.444169	102000
-6.444169	1024
-5.961521	103
-6.444169	103.7
-6.209422	1030
-6.444169	10300
-6.444169	103000
-6.31217	103041
-6.209422	1034
-6.444169	103RD
-6.068018	104
-5.743406	105
-6.444169	1050
-6.444169	10500
-6.31217	105000
-6.068018	106
-6.444169	107
-6.209422	108
-6.31217	109
-6.444169	1098
-6.444169	109TH
-6.31217	10S
-5.331908	10TH
-6.31217	10^22
-4.334989	11
-6.444169	11.2
-6.444169	11.5
-6.444169	11.SO
-5.331908	110
-5.331908	1100
-5.64193	11000
-6.209422	110000
-6.444169	1107
-6.068018	111
-6.444169	1114
-6.209422	112
-6.444169	113
-6.444169	1130
-6.444169	11333
-6.444169	1139
-6.209422	114
-6.444169	11400
-5.876064	115
-6.444169	11500
-6.31217	115000
-6.444169	11600
-6.068018	117
-6.31217	118
-6.444169	118236
-6.444169	11900
-5.183244	11TH
-4.054055	12
-6.444169	12.2
-6.444169	12.4
-6.31217	12.5
-6.444169	12.8
-4.886949	120
-5.331908	1200
-5.13843	12000
-5.689711	120000
-6.444169	120TH
-6.209422	121
-6.31217	122
-6.444169	1229
-6.444169	123000
-6.444169	124
-6.444169	1245
-6.444169	124TH
-5.215916	125
-6.31217	1250
-6.31217	12500
-6.444169	125000
-6.444169	1252
-6.444169	1258
-6.444169	125TH
-6.444169	126
-6.31217	127
-5.961521	128
-6.31217	1280
-6.31217	129
-6.31217	1298
-5.310295	12TH
-4.446308	13
-5.689711	13.7
-6.444169	13.72
-5.048959	130
-5.559731	1300
-5.804689	13000
-6.444169	130000
-6.444169	1300S
-6.444169	1311
-6.444169	132
-6.31217	1323
-6.444169	134
-5.961521	135
-6.444169	135000
-6.444169	136
-6.444169	1365
-6.444169	1368
-6.31217	1369
-6.31217	137
-6.444169	138
-6.444169	138000
-6.444169	1382
-6.444169	139
-6.444169	1390
-6.444169	1391
-5.523813	13TH
-4.355555	14
-6.444169	14.2
-6.31217	14.7
-6.444169	14.9
-5.215916	140
-5.743406	1400
-5.598888	14000
-5.961521	140000
-6.209422	1400S
-6.444169	14064
-6.444169	1414
-6.444169	141ST
-6.444169	143
-6.444169	1434
-6.31217	144
-6.31217	144000
-6.31217	145
-6.31217	1450
-6.444169	145000
-6.444169	1450S
-6.444169	1452
-6.209422	1455
-6.31217	146
-6.31217	147
-6.068018	148
-6.444169	1491
-6.31217	1492
-6.444169	1494
-5.459823	14TH
-3.892863	15
-6.444169	15.5
-6.444169	15.6
-6.444169	15.77
-6.444169	15/16THS
-6.444169	15/20
-4.532115	150
-4.984658	1500
-5.167787	15000
-5.072698	150000
-6.444169	1500000
-6.31217	1500S
-6.31217	150TH
-6.444169	150˚
-6.068018	151
-6.444169	1520
-6.31217	153
-6.31217	1543
-6.209422	155
-6.209422	155000
-6.068018	156
-6.444169	1560
-6.444169	1561
-6.444169	1564
-6.444169	1574
-6.31217	158
-6.444169	15800
-6.31217	1584
-6.444169	15E
-6.444169	15J
-5.310295	15TH
-4.337227	16
-6.31217	16.7
-5.251245	160
-5.378655	1600
-5.64193	16000
-6.209422	160000
-5.876064	1600S
-6.444169	1607
-6.444169	1609
-6.444169	161
-6.209422	162
-6.444169	1620
-6.444169	1621
-6.444169	1623
-6.31217	163
-6.444169	1632
-6.444169	1635
-6.444169	1642
-6.209422	165
-6.209422	1650
-6.444169	16500
-6.444169	1650S
-6.444169	1651
-6.444169	1654
-6.444169	1655
-6.444169	1656
-6.444169	1679
-6.444169	168
-6.444169	1680
-6.209422	16K
-6.444169	16MM
-5.459823	16TH
-4.479248	17
-6.444169	17.8
-5.404062	170
-5.804689	1700
-5.743406	17000
-6.31217	170000
-6.209422	1700S
-6.31217	171
-6.444169	17152
-6.31217	172
-6.444169	172ND
-6.31217	173
-6.444169	1731
-6.31217	1738
-6.068018	174
-6.444169	174000
-6.444169	1740S
-6.444169	1742
-5.804689	175
-6.209422	1750
-6.209422	17500
-6.444169	1750S
-5.961521	1759
-6.444169	1760
-6.444169	1770
-6.444169	1772
-6.31217	1775
-6.31217	1776
-6.444169	1777
-6.444169	178
-6.31217	1780S
-6.444169	1782
-6.444169	1784
-6.068018	1787
-6.31217	1788
-6.444169	179
-6.444169	1790
-6.444169	1797
-5.037559	17TH
-4.22515	18
-6.444169	18.2
-6.444169	18.618
-5.251245	180
-5.331908	1800
-5.689711	18000
-6.444169	180000
-6.444169	1800000
-6.444169	1800CAUSE
-5.490641	1800S
-6.444169	1801
-6.444169	1802
-6.444169	1803
-6.444169	1809
-6.444169	181
-5.876064	1812
-6.209422	1813
-6.31217	1816
-6.444169	1817
-6.31217	1820
-6.31217	182000
-6.209422	1824
-6.444169	1827
-6.209422	1829
-6.31217	183
-6.31217	1830
-6.31217	1830S
-6.31217	1832
-6.31217	1833
-6.444169	1834
-6.31217	1835
-6.444169	1837
-6.31217	1838
-6.31217	184
-6.31217	1840
-6.209422	1840S
-6.444169	1841
-6.444169	1842
-6.444169	1844
-6.31217	1847
-6.444169	1848
-6.209422	1849
-6.068018	185
-5.743406	1850
-6.31217	1850'S
-6.444169	18500
-5.961521	1850S
-6.31217	1851
-6.444169	1852
-6.444169	1853
-6.068018	1854
-6.444169	1856
-5.64193	1858
-6.068018	1859
-6.444169	186
-6.209422	1860
-6.209422	1860S
-6.31217	1862
-6.068018	1863
-6.068018	1865
-6.444169	186540
-6.31217	1866
-6.31217	1867
-6.31217	1868
-6.444169	1869
-6.209422	1870
-6.209422	1870S
-6.068018	1871
-6.209422	1872
-6.444169	1874
-6.209422	1875
-6.068018	1876
-6.068018	1877
-5.876064	1879
-6.444169	188
-6.068018	1880
-6.31217	1880S
-6.444169	1881
-6.444169	1882
-6.444169	1883
-5.961521	1885
-6.444169	1886
-6.209422	1887
-6.31217	1888
-6.209422	1889
-5.804689	1890
-6.209422	1890S
-6.209422	1891
-6.31217	1895
-6.444169	1896
-6.209422	1897
-6.444169	1898
-6.31217	1899
-5.037559	18TH
-4.75726	19
-6.444169	19.4
-6.444169	19.618
-5.804689	190
-5.110932	1900
-5.961521	19000
-5.523813	1900S
-6.444169	1901
-6.31217	1902
-5.804689	1903
-6.209422	1904
-6.31217	1905
-6.209422	1906
-6.31217	1907
-5.743406	1908
-5.804689	1910
-6.444169	1910S
-6.31217	1911
-5.743406	1912
-5.961521	1913
-6.31217	1914
-5.961521	1915
-6.068018	1916
-5.876064	1917
-5.404062	1918
-5.961521	1919
-5.961521	192
-6.068018	1920
-5.598888	1920S
-6.444169	1921
-6.444169	1922
-6.444169	1923
-6.31217	1924
-6.209422	1925
-5.876064	1926
-6.209422	1927
-5.743406	1928
-5.64193	1929
-5.876064	1930
-6.31217	1930'S
-5.110932	1930S
-6.444169	1930S40S
-5.961521	1931
-5.804689	1932
-6.209422	1933
-6.31217	1934
-6.31217	1935
-6.209422	1936
-6.444169	1937
-5.876064	1938
-5.64193	1939
-6.31217	194
-5.64193	1940
-5.490641	1940S
-5.961521	1941
-6.31217	1942
-6.209422	1943
-6.209422	1944
-5.183244	1945
-5.961521	1946
-5.559731	1947
-5.689711	1948
-5.404062	1949
-5.015619	1950
-6.444169	195000
-4.965178	1950S
-6.31217	1951
-6.068018	1952
-5.689711	1953
-5.743406	1954
-5.961521	1955
-5.743406	1956
-5.404062	1957
-5.743406	1958
-5.961521	1959
-6.444169	1959/1960
-6.444169	196
-4.879066	1960
-6.209422	1960'S
-4.994735	1960S
-5.876064	1961
-5.490641	1962
-5.743406	1963
-5.743406	1964
-5.490641	1965
-5.598888	1966
-5.459823	1967
-5.251245	1968
-5.523813	1969
-5.270051	1970
-6.444169	1970'S
-6.444169	19700
-6.444169	197042
-4.903156	1970S
-5.743406	1971
-5.961521	1972
-5.310295	1973
-5.378655	1974
-5.289707	1975
-5.289707	1976
-5.598888	1977
-5.459823	1978
-5.459823	1979
-6.444169	198
-5.124463	1980
-5.961521	1980'S
-4.879066	1980S
-5.523813	1981
-5.404062	1982
-6.31217	198283
-5.404062	1983
-5.251245	1984
-6.444169	198486
-5.354652	1985
-5.270051	1986
-5.431048	1987
-5.523813	1988
-5.270051	1989
-6.444169	199
-4.955757	1990
-6.444169	19900
-4.794192	1990S
-5.199273	1991
-6.444169	1991'92
-5.459823	1992
-6.444169	199297
-5.251245	1993
-6.444169	199394
-5.124463	1994
-5.124463	1995
-6.444169	199596
-5.251245	1996
-5.15286	1997
-5.060667	1998
-5.048959	1999
-4.65286	19TH
-6.209422	1K
-6.068018	1ST
-4.491874	2
-5.270051	2.0
-6.209422	2.1
-6.444169	2.13
-5.961521	2.2
-5.490641	2.3
-6.068018	2.4
-5.310295	2.5
-6.209422	2.6
-6.444169	2.65
-6.444169	2.7
-6.444169	2.78
-6.209422	2.8
-6.209422	2.9
-3.626918	20
-6.444169	20.7
-6.444169	20/20
-6.444169	20/800
-4.17915	200
-4.23924	2000
-4.75726	20000
-4.974809	200000
-5.689711	2000S
-4.813907	2001
-4.903156	2002
-4.813907	2003
-4.739909	2004
-4.696766	2005
-4.781529	2006
-4.676702	2007
-4.600471	2008
-4.745616	2009
-6.209422	200TH
-4.630259	2010
-5.015619	2011
-5.15286	2012
-6.444169	2012GOVERNOR
-5.689711	2013
-6.068018	2014
-5.199273	2015
-5.804689	2016
-6.444169	2017
-6.31217	2018
-6.444169	2019
-5.048959	2020
-6.209422	2020S
-6.31217	2021
-6.31217	2022
-6.444169	2024
-5.743406	2025
-6.444169	2026
-6.209422	2027
-6.444169	2028
-6.444169	2029
-5.13843	2030
-6.209422	2030S
-6.444169	2033
-6.444169	2034
-6.31217	204
-6.209422	2040
-6.444169	2040S
-6.31217	2042
-6.444169	2047
-6.068018	2048
-4.946536	2050
-6.444169	2051
-6.444169	2052
-6.31217	2054
-6.31217	205849
-6.444169	206
-6.209422	2060
-6.444169	2065
-6.444169	2070
-6.444169	207000
-6.444169	2075
-6.444169	2077000
-6.444169	208
-6.444169	209
-6.444169	20MPH
-5.199273	20S
-4.488683	20TH
-4.676702	21
-6.444169	21.37
-5.559731	2100
-5.876064	21000
-6.444169	210000
-6.444169	2106
-6.31217	211K
-6.444169	213000
-6.444169	215
-6.444169	2150
-6.444169	216
-6.31217	217
-6.444169	218
-6.444169	2180
-6.444169	219
-6.444169	2191
-4.5217	21ST
-4.781529	22
-5.689711	220
-6.068018	2200
-6.31217	22000
-6.31217	220000
-6.444169	2200000
-6.444169	221
-6.444169	222
-6.444169	2226
-6.444169	223000
-6.31217	225
-6.31217	226
-6.444169	227
-6.31217	228
-5.876064	22ND
-4.800664	23
-6.444169	23.6
-6.444169	23.8
-5.689711	230
-5.876064	2300
-6.068018	23000
-6.444169	230000
-6.444169	232
-6.444169	232000
-6.31217	233
-6.209422	234
-6.444169	236
-6.209422	238
-5.961521	23ANDME
-6.068018	23RD
-4.413012	24
-6.444169	24.95
-5.378655	24/7
-6.444169	24/7/365
-5.598888	240
-6.209422	2400
-5.598888	24000
-6.444169	2424
-6.444169	2438
-6.444169	244
-6.444169	245
-6.444169	2450
-6.31217	246
-6.444169	247
-6.444169	248
-6.209422	249
-6.444169	24972
-6.068018	24TH
-4.129141	25
-6.444169	25.3
-4.827565	250
-5.354652	2500
-5.048959	25000
-5.183244	250000
-6.444169	251000
-6.444169	253
-6.31217	254
-5.961521	256
-6.444169	25871
-6.444169	259
-6.444169	2592
-5.559731	25TH
-4.856243	26
-6.444169	26.2
-6.31217	26/11
-6.068018	260
-6.209422	2600
-6.068018	26000
-6.444169	26244
-6.444169	26267
-6.444169	263972
-6.444169	265
-6.444169	26500
-6.444169	2657
-6.444169	266
-6.068018	26TH
-4.787814	27
-6.444169	27%
-6.31217	27.5
-6.209422	270
-6.068018	2700
-6.444169	27000
-6.31217	270000
-6.444169	271
-6.31217	275
-6.444169	276
-5.961521	27TH
-4.937507	28
-6.444169	28.4
-5.961521	280
-6.31217	2800
-6.31217	28000
-6.31217	280000
-6.444169	285
-6.444169	28500
-5.876064	28TH
-5.085073	29
-6.444169	29.3
-6.31217	29000
-6.444169	29035
-6.444169	292
-6.444169	2928
-6.444169	295
-5.876064	29TH
-5.523813	2D
-6.444169	2G
-6.068018	2ND
-4.728714	3
-6.209422	3.0
-6.31217	3.1
-6.444169	3.12
-6.444169	3.1415
-5.876064	3.2
-6.444169	3.26
-5.598888	3.3
-6.068018	3.4
-6.444169	3.49
-5.523813	3.5
-6.209422	3.6
-6.209422	3.7
-5.961521	3.8
-6.444169	3/4THS
-3.779901	30
-6.444169	30%
-4.377142	300
-4.580379	3000
-4.871325	30000
-5.199273	300000
-6.444169	306
-6.444169	30900
-6.444169	30PROJECT.ORG
-5.523813	30S
-5.743406	30TH
-5.215916	31
-6.444169	310
-6.31217	3100
-6.444169	31000
-6.31217	311
-6.444169	312
-6.444169	314
-6.444169	31459
-6.444169	315
-6.444169	317
-6.444169	319
-6.31217	31ST
-4.841667	32
-6.31217	320
-6.31217	3200
-6.068018	32000
-6.444169	320000
-6.31217	321
-6.444169	3211
-6.444169	3214
-6.444169	3220
-6.31217	324
-6.444169	3249
-5.876064	325
-6.444169	326
-6.444169	327
-6.444169	328489
-5.085073	33
-5.961521	330
-6.31217	3300
-6.444169	33000
-6.209422	330000
-6.31217	333
-6.444169	3339
-6.31217	334
-6.444169	335
-6.444169	338
-5.251245	34
-6.31217	3400
-6.31217	340000
-6.444169	343
-6.444169	345000
-6.31217	3481
-4.55005	35
-6.444169	35/36
-5.005052	350
-5.559731	3500
-5.459823	35000
-5.804689	350000
-6.444169	351
-6.444169	352
-6.444169	353
-6.444169	35959
-6.444169	35S
-5.060667	36
-5.378655	360
-6.31217	3600
-5.876064	36000
-6.31217	360000
-5.689711	365
-6.444169	365.247
-6.444169	368000
-5.060667	37
-6.31217	370
-6.444169	3700
-6.209422	37000
-6.444169	370000
-6.444169	3729
-6.444169	374
-6.31217	375
-5.310295	38
-5.804689	380
-6.068018	38000
-6.209422	380000
-6.444169	384000
-6.444169	385
-6.444169	3876
-6.31217	38760
-6.31217	38931
-6.444169	38TH
-5.523813	39
-6.444169	39.5
-6.209422	390
-6.444169	391
-6.444169	3928
-6.444169	39TH
-4.525144	3D
-6.444169	3DZ
-6.068018	3G
-6.444169	3GS
-6.209422	3M
-6.209422	3PO
-6.068018	3RD
-6.444169	3T
-5.015619	4
-6.444169	4'33
-6.068018	4.0
-6.444169	4.000
-6.444169	4.1
-6.068018	4.2
-5.961521	4.5
-6.444169	4.56
-5.743406	4.6
-6.444169	4.7
-6.31217	4.8
-6.444169	4.99
-3.981072	40
-6.444169	40%
-4.470014	400
-4.848894	4000
-5.026451	40000
-5.233222	400000
-6.444169	4000TH
-6.444169	400G
-6.31217	400TH
-5.559731	401
-6.444169	401'S
-5.490641	404
-6.209422	405
-6.444169	407
-6.444169	408
-6.444169	40K
-5.64193	40S
-5.459823	41
-6.31217	410000
-6.444169	411
-6.444169	412
-6.444169	413
-6.444169	414
-6.31217	415
-6.444169	4165
-6.444169	417
-5.167787	42
-5.961521	420
-6.444169	4200
-5.961521	42000
-6.444169	425
-6.444169	425000
-6.444169	427
-6.068018	42ND
-5.167787	43
-6.068018	430
-6.31217	4300
-6.444169	43000
-6.444169	430000
-6.444169	433000
-5.289707	44
-6.444169	440
-5.961521	44000
-6.31217	448
-6.31217	44875
-6.31217	44TH
-4.584324	45
-5.215916	450
-5.743406	4500
-5.523813	45000
-5.961521	450000
-6.444169	45004
-6.444169	4512
-6.31217	457
-6.444169	459
-5.251245	46
-6.31217	46000
-6.444169	46136
-6.444169	4629
-6.444169	466
-6.444169	46645
-6.444169	466489
-6.068018	46664
-5.233222	47
-6.31217	470
-6.444169	4700TH
-6.444169	473
-6.444169	474
-6.444169	476
-6.209422	47S
-6.444169	47TH
-5.085073	48
-6.444169	480000
-5.598888	49
-6.444169	492
-6.31217	498
-6.444169	4999
-6.31217	49TH
-5.961521	4CHAN
-6.209422	4D
-6.31217	4G
-6.444169	4L
-6.444169	4MM
-5.876064	4SHBAB
-5.876064	4TH
-4.955757	5
-6.444169	5'11
-6.31217	5'8
-6.444169	5'9
-6.444169	5.1
-6.444169	5.2
-6.31217	5.4
-5.876064	5.5
-6.444169	5.5'S
-6.31217	5.6
-6.31217	5.7
-6.31217	5.8
-3.802878	50
-5.743406	50/50
-4.341736	500
-4.617241	5000
-4.769225	50000
-5.331908	500000
-6.444169	500S
-6.444169	500TH
-6.209422	501
-6.444169	503
-6.444169	509
-6.31217	50K
-5.559731	50S
-5.431048	50TH
-6.209422	50X15
-6.068018	51
-6.444169	510
-6.31217	512
-6.444169	513284
-6.444169	515
-5.289707	52
-6.444169	52000
-5.876064	529
-5.490641	53
-6.31217	530
-6.209422	5300
-6.444169	530S
-6.31217	536
-6.209422	539
-6.444169	53RD
-6.444169	53W
-5.559731	54
-6.444169	54.)
-6.31217	540
-6.444169	5400
-6.444169	54000
-6.068018	544
-6.444169	5445
-6.444169	545
-6.444169	54TH
-5.026451	55
-5.804689	550
-6.444169	5500
-5.961521	55000
-6.31217	550000
-6.444169	553
-6.444169	554
-6.444169	555
-6.444169	558
-6.444169	559
-6.444169	55TH
-5.523813	56
-6.444169	5624
-6.444169	5657
-6.444169	56TH
-5.459823	57
-6.209422	57000
-6.31217	571230000
-6.444169	57683
-6.444169	577R
-6.444169	57885161
-5.490641	58
-6.444169	58.1
-6.209422	581
-5.689711	59
-6.444169	59300
-6.444169	594
-6.444169	5C
-5.961521	5TH
-5.048959	6
-6.444169	6'1
-6.209422	6.3
-6.209422	6.5
-6.31217	6.7
-6.31217	6.8
-6.068018	6.9
-4.165342	60
-6.444169	60'S
-4.696766	600
-4.974809	6000
-5.015619	60000
-5.523813	600000
-6.444169	607
-6.444169	609
-6.31217	60K
-5.523813	60S
-6.31217	60TH
-5.961521	61
-6.31217	610
-6.444169	612
-6.444169	614
-5.743406	62
-5.876064	620
-6.444169	622
-6.444169	6234
-6.444169	625
-5.743406	63
-5.961521	630
-5.233222	64
-6.31217	640000
-6.444169	643
-6.444169	646
-6.444169	648
-4.841667	65
-5.689711	650
-6.444169	6500
-5.64193	65000
-6.444169	650000
-6.444169	651
-6.444169	659
-5.743406	66
-6.444169	660
-6.209422	66000
-6.444169	662
-6.444169	666
-5.64193	67
-6.444169	670
-6.444169	67000
-6.444169	67298
-5.64193	68
-6.444169	6800
-6.31217	68000
-6.068018	683
-5.876064	69
-6.444169	690
-6.444169	6DB
-6.444169	6J6
-6.31217	6TH
-6.444169	6X
-5.13843	7
-6.31217	7.0
-6.444169	7.1
-6.209422	7.5
-6.31217	7.6
-6.31217	7.68245837
-6.209422	7.7
-6.444169	7.9
-6.444169	7.95
-6.31217	7/7
-4.36026	70
-6.444169	70'S
-4.903156	700
-5.215916	7000
-5.431048	70000
-5.523813	700000
-6.31217	7003
-6.444169	707
-6.444169	708
-5.378655	70S
-5.804689	71
-6.209422	7100
-6.444169	714
-6.444169	71530
-6.444169	719
-5.09781	72
-6.444169	72.9
-6.444169	720
-6.31217	7200
-6.31217	722
-6.444169	7256
-6.444169	727
-5.459823	73
-6.31217	730
-6.31217	73000
-6.444169	7305
-6.31217	737
-5.523813	74
-6.31217	74.125.226.212
-6.444169	740
-6.444169	74000
-6.444169	745
-5.689711	747
-6.209422	747S
-4.667008	75
-5.523813	750
-5.876064	7500
-5.743406	75000
-6.444169	750000
-6.31217	753
-6.444169	756
-6.31217	757
-6.31217	7599
-6.31217	75TH
-5.598888	76
-6.444169	7600
-6.444169	76ERS
-5.64193	77
-6.444169	770
-6.444169	777
-6.444169	77822
-6.31217	77862
-6.444169	77TH
-5.431048	78
-6.444169	78.1
-6.31217	780
-6.31217	7800
-6.444169	780000
-6.31217	787
-6.444169	78RUS
-6.444169	78S
-5.804689	79
-6.444169	79000
-6.444169	790000
-6.444169	7962
-5.743406	7TH
-5.015619	8
-6.209422	8.1
-6.31217	8.2
-6.31217	8.3
-6.444169	8.30
-6.31217	8.4
-6.444169	8.5
-6.444169	8.8
-4.196645	80
-6.31217	80/20
-4.894977	800
-5.13843	8000
-5.354652	80000
-5.598888	800000
-6.444169	800S
-6.444169	801
-6.444169	802.11
-6.444169	804
-6.444169	80831
-5.459823	80S
-5.876064	81
-5.559731	82
-6.444169	8200
-6.444169	825
-6.209422	826
-5.64193	83
-5.804689	830
-6.444169	83000
-6.444169	831
-5.598888	84
-6.444169	84000
-6.444169	841
-6.444169	844
-6.209422	84K
-4.955757	85
-6.31217	850
-6.209422	8500
-5.804689	85000
-6.444169	855
-6.444169	8567
-6.444169	85871
-6.444169	85TH
-5.251245	86
-6.444169	8600
-6.444169	864
-6.31217	8649
-6.444169	86TH
-5.743406	87
-6.444169	87.3
-6.444169	8750
-6.068018	88
-6.31217	880
-6.444169	8800
-6.444169	885
-6.444169	886
-6.444169	88899091
-5.490641	89
-6.444169	8900
-6.209422	8TH
-6.444169	8X10
-5.183244	9
-6.444169	9.3
-6.444169	9.4
-6.31217	9.5
-6.444169	9.8
-4.728714	9/11
-6.444169	9/11/2001
-6.444169	9/7
-4.304818	90
-6.444169	90'S
-6.31217	90/10
-5.215916	900
-5.378655	9000
-5.559731	90000
-6.068018	900000
-5.490641	90S
-6.444169	90TH
-5.804689	91
-5.961521	911
-6.444169	912
-6.209422	915
-5.961521	92
-6.444169	92121
-6.444169	9293949596979899
-5.431048	93
-6.31217	930
-6.444169	930000
-5.459823	94
-6.444169	9400
-4.827565	95
-6.31217	950
-6.444169	95218564
-6.444169	9550
-6.444169	956
-5.354652	96
-6.444169	960
-6.444169	9600
-6.444169	961
-6.444169	96863
-5.289707	97
-6.444169	974169
-6.444169	9758
-5.251245	98
-6.444169	98.7
-6.444169	98.8
-6.444169	98000
-6.444169	984
-6.31217	987
-4.612988	99
-6.444169	99.5
-6.444169	99.7
-5.804689	99.9
-6.444169	99.9%
-6.444169	99.96
-6.444169	99.9997
-6.444169	99.99999
-6.444169	99.999999
-6.31217	996
-6.444169	997
-6.444169	999
-6.444169	9999
-6.068018	9TH
-1.214781	</s>
-99	<s>
-5.598888	=
-6.444169	@
-6.444169	@ADAM
-6.444169	@EVE
-6.444169	@ROBOTINTHEWILD
-6.444169	@USERNAME
-1.695561	A
-5.289707	A'S
-6.209422	A'WALKING
-6.31217	A)
-6.31217	A+
-6.31217	A.C
-5.559731	A.D
-6.444169	A.E
-6.068018	A.I
-6.444169	A.J.P
-6.444169	A.K
-6.444169	A.K.A
-4.955757	A.M
-6.31217	A.P
-6.444169	A.R
-6.444169	A.U
-6.444169	A1
-6.444169	A10
-6.444169	A12
-6.209422	A380
-6.209422	A4
-5.804689	AA
-6.31217	AAA
-6.444169	AAAAA
-6.444169	AAAAAAAAH
-6.444169	AAAAAAAARGH
-6.444169	AAAAAAAH
-6.31217	AAAAAAH
-6.444169	AAAAH
-6.444169	AAAAHHH
-6.209422	AAAH
-5.523813	AAH
-6.444169	AAK
-6.31217	AAKASH
-6.444169	AALEH
-6.444169	AALTO
-6.444169	AARGH
-6.444169	AARHUS
-5.876064	AARON
-6.444169	AARP
-6.444169	AATCAGGGACCC
-5.876064	AB
-6.444169	AB32
-6.444169	ABA
-6.068018	ABABA
-6.444169	ABACAZANIAN
-6.31217	ABACHA
-6.444169	ABACI
-6.31217	ABACK
-6.444169	ABACUS
-5.378655	ABALONE
-5.233222	ABANDON
-5.037559	ABANDONED
-5.689711	ABANDONING
-6.444169	ABANDONMENT
-6.31217	ABANI
-6.444169	ABARTH
-6.444169	ABASHEDLY
-6.444169	ABATE
-6.31217	ABATED
-6.444169	ABATEMENT
-6.444169	ABATEMENTS
-6.31217	ABATTOIRS
-6.068018	ABAYA
-6.444169	ABBA
-6.444169	ABBEEL
-6.31217	ABBEY
-5.961521	ABBOTT
-6.444169	ABBOTTABAD
-6.209422	ABBREVIATED
-6.31217	ABBREVIATION
-6.444169	ABBREVIATIONS
-6.209422	ABBY
-5.459823	ABC
-6.444169	ABC'S
-6.31217	ABDI
-6.444169	ABDICATED
-6.444169	ABDICATING
-6.444169	ABDICATION
-5.689711	ABDOMEN
-6.444169	ABDOMENS
-6.209422	ABDOMINAL
-6.444169	ABDUCT
-6.209422	ABDUCTED
-6.444169	ABDUCTEE
-6.31217	ABDUCTING
-6.31217	ABDUCTION
-5.961521	ABDUL
-6.444169	ABDULLAH
-5.961521	ABE
-5.037559	ABED
-5.961521	ABEGG
-6.444169	ABELL
-6.444169	ABEND
-6.068018	ABERDEEN
-6.444169	ABERRANT
-6.444169	ABERRATION
-6.444169	ABERRATIONS
-6.444169	ABETS
-6.444169	ABETTED
-6.444169	ABETTING
-6.209422	ABHISHEK
-6.444169	ABHOR
-6.31217	ABHORRENT
-6.209422	ABHORS
-5.961521	ABIDE
-6.444169	ABIDINE
-6.068018	ABIDING
-6.209422	ABIDJAN
-4.894977	ABILITIES
-3.944157	ABILITY
-6.444169	ABISSINIA
-5.876064	ABJECT
-6.209422	ABLAZE
-3.316291	ABLE
-6.209422	ABLED
-6.444169	ABLES
-5.289707	ABNORMAL
-5.961521	ABNORMALITIES
-6.068018	ABNORMALITY
-6.444169	ABNORMALLY
-6.068018	ABOARD
-6.444169	ABODE
-5.961521	ABOLISH
-6.209422	ABOLISHED
-6.444169	ABOLITION
-6.444169	ABOLITIONISM
-6.444169	ABOLITIONISTS
-6.444169	ABOLOLO
-6.444169	ABOMINABLE
-6.068018	ABOMINATION
-6.209422	ABOODY
-5.598888	ABORIGINAL
-6.31217	ABORIGINALS
-6.31217	ABORIGINES
-6.209422	ABORT
-6.31217	ABORTED
-5.689711	ABORTION
-6.31217	ABOU
-2.423316	ABOUT
-6.444169	ABOUT82
-6.444169	ABOUT—
-4.163835	ABOVE
-6.444169	ABOVEBOARD
-6.444169	ABOVEGROUND
-4.994735	ABRAHAM
-6.444169	ABRAHAM'S
-6.209422	ABRAHAMIC
-6.31217	ABRAHAMS
-6.444169	ABRAMOVICH
-6.444169	ABRAMS
-6.444169	ABRASION
-6.444169	ABRASIONS
-6.444169	ABRASIVE
-6.444169	ABREU
-6.31217	ABREU'S
-6.444169	ABRIDGE
-6.209422	ABRIDGED
-5.13843	ABROAD
-6.068018	ABRUPT
-6.068018	ABRUPTLY
-6.068018	ABS
-6.444169	ABSCESS
-6.444169	ABSCESSES
-6.444169	ABSCONDED
-6.444169	ABSEIL
-4.955757	ABSENCE
-6.444169	ABSENCES
-5.459823	ABSENT
-6.444169	ABSENTEEISM
-4.172959	ABSOLUTE
-3.979101	ABSOLUTELY
-6.444169	ABSOLUTENESS
-6.31217	ABSOLUTES
-6.444169	ABSOLUTION
-6.444169	ABSOLUTISM
-6.444169	ABSOLVE
-6.31217	ABSOLVED
-6.444169	ABSOLVING
-5.085073	ABSORB
-6.444169	ABSORBANT
-5.289707	ABSORBED
-6.444169	ABSORBENCY
-5.804689	ABSORBENT
-6.209422	ABSORBER
-6.31217	ABSORBERS
-5.64193	ABSORBING
-5.64193	ABSORBS
-5.64193	ABSORPTION
-6.31217	ABSORPTIVE
-6.31217	ABSTAIN
-6.444169	ABSTAINING
-6.444169	ABSTINENCE
-4.643678	ABSTRACT
-6.068018	ABSTRACTED
-6.31217	ABSTRACTING
-5.431048	ABSTRACTION
-5.64193	ABSTRACTIONS
-6.31217	ABSTRACTLY
-6.209422	ABSTRUSE
-5.199273	ABSURD
-6.444169	ABSURDISM
-6.444169	ABSURDIST
-6.444169	ABSURDITIES
-6.31217	ABSURDITY
-6.209422	ABSURDLY
-5.270051	ABU
-6.444169	ABUJA
-5.048959	ABUNDANCE
-6.444169	ABUNDANCES
-5.110932	ABUNDANT
-6.444169	ABUNDANTLY
-4.75726	ABUSE
-5.378655	ABUSED
-6.444169	ABUSERS
-5.876064	ABUSES
-5.689711	ABUSING
-5.378655	ABUSIVE
-6.444169	ABUZAID
-6.209422	ABYSMAL
-5.523813	ABYSS
-6.444169	ABYSSES
-6.31217	AC
-6.068018	ACACIA
-5.378655	ACADEMIA
-4.691663	ACADEMIC
-5.804689	ACADEMICALLY
-6.31217	ACADEMICIAN
-6.31217	ACADEMICIANS
-5.270051	ACADEMICS
-4.955757	ACADEMY
-6.444169	ACADEMY'S
-6.444169	ACAPULCO
-6.444169	ACC
-6.444169	ACCEDE
-5.037559	ACCELERATE
-5.233222	ACCELERATED
-6.068018	ACCELERATES
-5.085073	ACCELERATING
-5.251245	ACCELERATION
-5.490641	ACCELERATOR
-5.804689	ACCELERATORS
-5.689711	ACCELEROMETER
-6.209422	ACCELEROMETERS
-6.444169	ACCELEROMETRY
-5.310295	ACCENT
-5.64193	ACCENTS
-6.31217	ACCENTUATE
-6.444169	ACCENTUATED
-5.523813	ACCENTURE
-4.55005	ACCEPT
-5.289707	ACCEPTABLE
-5.124463	ACCEPTANCE
-4.813907	ACCEPTED
-5.289707	ACCEPTING
-5.743406	ACCEPTS
-3.861001	ACCESS
-6.068018	ACCESSED
-6.31217	ACCESSES
-5.876064	ACCESSIBILITY
-4.781529	ACCESSIBLE
-5.523813	ACCESSING
-5.64193	ACCESSORIES
-6.444169	ACCESSORIZING
-6.31217	ACCESSORY
-4.518283	ACCIDENT
-5.331908	ACCIDENTAL
-4.362632	ACCIDENTALLY
-4.794192	ACCIDENTS
-6.444169	ACCLAIMED
-6.31217	ACCLIMATE
-6.444169	ACCLIMATIZED
-6.444169	ACCOLADE
-6.209422	ACCOLADES
-5.459823	ACCOMMODATE
-6.31217	ACCOMMODATED
-6.068018	ACCOMMODATES
-6.209422	ACCOMMODATION
-6.209422	ACCOMMODATIONS
-6.444169	ACCOMODATE
-5.199273	ACCOMPANIED
-6.068018	ACCOMPANIES
-6.31217	ACCOMPANIMENT
-6.444169	ACCOMPANIST
-6.068018	ACCOMPANY
-5.743406	ACCOMPANYING
-6.444169	ACCOMPLICE
-6.444169	ACCOMPLICES
-5.15286	ACCOMPLISH
-5.037559	ACCOMPLISHED
-6.444169	ACCOMPLISHES
-6.31217	ACCOMPLISHING
-5.459823	ACCOMPLISHMENT
-5.876064	ACCOMPLISHMENTS
-5.689711	ACCORD
-6.209422	ACCORDANCE
-4.440578	ACCORDING
-5.804689	ACCORDINGLY
-6.068018	ACCORDION
-6.444169	ACCORDS
-6.31217	ACCOSTED
-4.504878	ACCOUNT
-6.444169	ACCOUNT'S
-6.444169	ACCOUNTABILITIES
-5.048959	ACCOUNTABILITY
-6.444169	ACCOUNTABILITY'S
-5.215916	ACCOUNTABLE
-6.444169	ACCOUNTANCY
-5.804689	ACCOUNTANT
-5.64193	ACCOUNTANTS
-5.598888	ACCOUNTED
-5.15286	ACCOUNTING
-4.946536	ACCOUNTS
-6.068018	ACCRA
-6.068018	ACCREDITED
-6.209422	ACCRETION
-6.31217	ACCRETIONAL
-6.068018	ACCRUE
-6.444169	ACCRUED
-6.444169	ACCRUES
-6.31217	ACCUMBENS
-5.124463	ACCUMULATE
-5.559731	ACCUMULATED
-5.961521	ACCUMULATES
-5.404062	ACCUMULATING
-5.378655	ACCUMULATION
-6.444169	ACCUMULATIONS
-5.048959	ACCURACY
-4.639158	ACCURATE
-5.199273	ACCURATELY
-5.961521	ACCUSATION
-6.444169	ACCUSATIONS
-5.743406	ACCUSE
-5.310295	ACCUSED
-5.876064	ACCUSING
-5.64193	ACCUSTOMED
-5.431048	ACE
-6.31217	ACED
-6.31217	ACEH
-6.444169	ACES
-6.209422	ACETATE
-6.444169	ACETIC
-6.31217	ACETYLCHOLINE
-6.444169	ACHARYA
-6.31217	ACHE
-6.31217	ACHEBE
-6.209422	ACHED
-6.444169	ACHES
-6.444169	ACHEUL
-6.444169	ACHEULEAN
-6.31217	ACHEULIAN
-5.804689	ACHIEVABLE
-4.36026	ACHIEVE
-4.728714	ACHIEVED
-4.919991	ACHIEVEMENT
-5.331908	ACHIEVEMENTS
-6.444169	ACHIEVER
-6.444169	ACHIEVERS
-6.068018	ACHIEVES
-5.110932	ACHIEVING
-5.961521	ACHILL
-5.559731	ACHILLES
-6.068018	ACHILLESHEEL
-6.31217	ACHILLESHEELS
-6.444169	ACHILLESTENDON
-6.444169	ACHILLESTENT
-6.209422	ACHING
-6.444169	ACHINGLY
-6.444169	ACHMAT
-6.209422	ACHONDROPLASIA
-6.444169	ACHOO
-6.444169	ACHROMATOPSIA
-4.937507	ACID
-5.804689	ACIDIC
-5.64193	ACIDIFICATION
-6.444169	ACIDIFIED
-6.444169	ACIDIFYING
-6.31217	ACIDITY
-5.060667	ACIDS
-6.444169	ACINI
-6.444169	ACINIFORM
-6.068018	ACINUS
-5.961521	ACK
-6.444169	ACKEE
-6.444169	ACKERMAN
-6.444169	ACKERMANN
-4.323971	ACKNOWLEDGE
-5.459823	ACKNOWLEDGED
-6.068018	ACKNOWLEDGEMENT
-6.31217	ACKNOWLEDGES
-5.804689	ACKNOWLEDGING
-6.209422	ACKNOWLEDGMENT
-6.444169	ACKNOWLEDGMENTS
-6.444169	ACL
-6.444169	ACLU
-6.444169	ACM
-5.689711	ACNE
-6.444169	ACOCELLA
-5.804689	ACORN
-4.079319	ACOUSTIC
-6.209422	ACOUSTICAL
-6.068018	ACOUSTICALLY
-5.961521	ACOUSTICIAN
-5.961521	ACOUSTICIANS
-5.559731	ACOUSTICS
-6.444169	ACQUAINT
-6.31217	ACQUAINTANCES
-6.444169	ACQUAINTS
-6.444169	ACQUIRABLE
-5.015619	ACQUIRE
-5.005052	ACQUIRED
-6.068018	ACQUIRES
-5.559731	ACQUIRING
-5.354652	ACQUISITION
-6.068018	ACQUISITIONS
-6.444169	ACQUISITIVENESS
-6.444169	ACQUITTED
-6.444169	ACR
-6.444169	ACR'S
-5.215916	ACRE
-6.444169	ACREAGE
-5.072698	ACRES
-6.31217	ACROBATIC
-6.31217	ACROBATICS
-6.444169	ACROBATS
-5.689711	ACROMEGALY
-5.404062	ACRONYM
-6.444169	ACRONYMS
-3.612305	ACROSS
-6.444169	ACRYCLIC
-5.804689	ACRYLIC
-4.016032	ACT
-6.31217	ACTA
-5.523813	ACTED
-4.572596	ACTING
-6.444169	ACTINOBACTERIA
-6.444169	ACTINOMYCETE
-3.925507	ACTION
-6.31217	ACTIONABLE
-6.444169	ACTIONING
-4.65286	ACTIONS
-5.048959	ACTIVATE
-5.037559	ACTIVATED
-5.559731	ACTIVATES
-5.689711	ACTIVATING
-5.490641	ACTIVATION
-6.444169	ACTIVATIONS
-6.444169	ACTIVATOR
-6.444169	ACTIVATORS
-4.296568	ACTIVE
-5.09781	ACTIVELY
-6.444169	ACTIVISION
-5.490641	ACTIVISM
-5.09781	ACTIVIST
-5.060667	ACTIVISTS
-4.604604	ACTIVITIES
-4.146142	ACTIVITY
-4.707157	ACTOR
-6.068018	ACTOR'S
-4.781529	ACTORS
-5.804689	ACTRESS
-5.961521	ACTRESSES
-4.686619	ACTS
-3.99923	ACTUAL
-6.31217	ACTUALITY
-6.31217	ACTUALIZATION
-6.444169	ACTUALIZE
-6.31217	ACTUALIZED
-2.674075	ACTUALLY
-6.444169	ACTUALLYTELL
-6.444169	ACTUARY
-6.444169	ACTUATE
-6.31217	ACTUATED
-6.31217	ACTUATION
-6.444169	ACTUATOR
-5.961521	ACTUATORS
-5.743406	ACUITY
-5.354652	ACUMEN
-6.444169	ACUMEN'S
-5.961521	ACUPUNCTURE
-5.13843	ACUTE
-5.804689	ACUTELY
-4.775334	AD
-5.961521	ADA
-6.31217	ADAFRUIT
-5.559731	ADAGE
-6.444169	ADAGES
-6.444169	ADAGIO
-6.444169	ADALBERTO
-6.444169	ADALGEIRSSON
-4.841667	ADAM
-6.209422	ADAM'S
-6.31217	ADAMANT
-6.209422	ADAMANTLY
-5.559731	ADAMS
-4.707157	ADAPT
-5.64193	ADAPTABILITY
-5.598888	ADAPTABLE
-5.167787	ADAPTATION
-6.444169	ADAPTATION'S
-6.444169	ADAPTATIONAL
-5.689711	ADAPTATIONS
-4.879066	ADAPTED
-6.444169	ADAPTERS
-5.431048	ADAPTING
-6.444169	ADAPTION
-5.199273	ADAPTIVE
-6.444169	ADAPTIVELY
-6.444169	ADAPTIVENESS
-6.444169	ADAPTOR
-5.961521	ADAPTS
-3.71212	ADD
-6.444169	ADDAMS
-4.57647	ADDED
-6.444169	ADDERALL
-5.689711	ADDICT
-5.270051	ADDICTED
-5.124463	ADDICTION
-6.209422	ADDICTIONS
-5.64193	ADDICTIVE
-6.444169	ADDICTIVEHE
-5.804689	ADDICTS
-4.775334	ADDING
-6.068018	ADDIS
-4.5392	ADDITION
-4.059938	ADDITIONAL
-5.876064	ADDITIONALLY
-6.444169	ADDITIONS
-5.876064	ADDITIVE
-6.209422	ADDITIVES
-6.444169	ADDLED
-4.357901	ADDRESS
-6.31217	ADDRESSABLE
-5.199273	ADDRESSED
-5.459823	ADDRESSES
-5.15286	ADDRESSING
-5.085073	ADDS
-6.444169	ADE
-6.444169	ADELAIDE
-6.444169	ADELGID
-6.444169	ADEN
-6.444169	ADENAUER
-6.444169	ADENIKE
-6.444169	ADENIKES
-6.444169	ADENO
-6.31217	ADENOVIRUS
-5.743406	ADEPT
-6.444169	ADEPTS
-5.378655	ADEQUATE
-5.961521	ADEQUATELY
-6.31217	ADEQUATION
-6.444169	ADEWALE
-6.444169	ADEYEMI
-6.444169	ADFA
-6.444169	ADG
-5.431048	ADHD
-5.961521	ADHERE
-6.068018	ADHERENCE
-6.31217	ADHERES
-6.444169	ADHERING
-6.209422	ADHESION
-5.64193	ADHESIVE
-6.31217	ADHESIVES
-6.444169	ADI
-6.444169	ADICHIE
-6.209422	ADIDAS
-6.444169	ADINA
-6.209422	ADINKRA
-6.444169	ADIOSBARBIE.COM
-6.444169	ADIPOCYTE
-6.209422	ADIPOSE
-6.31217	ADIT
-6.444169	ADIVASIS
-6.444169	ADJACENCIES
-6.209422	ADJACENCY
-5.289707	ADJACENT
-6.444169	ADJECTIVE
-6.31217	ADJECTIVES
-6.31217	ADJOINING
-4.315354	ADJUST
-5.431048	ADJUSTED
-6.444169	ADJUSTER
-5.876064	ADJUSTING
-6.209422	ADJUSTMENT
-5.876064	ADJUSTMENTS
-6.068018	ADJUSTS
-6.444169	ADJUVANTS
-6.444169	ADLAI
-5.559731	ADMIN
-6.209422	ADMINISTER
-5.689711	ADMINISTERED
-6.209422	ADMINISTERING
-6.444169	ADMINISTERS
-6.444169	ADMINISTRATE
-4.848894	ADMINISTRATION
-6.31217	ADMINISTRATION'S
-6.31217	ADMINISTRATIONS
-5.459823	ADMINISTRATIVE
-6.444169	ADMINISTRATIVELY
-5.804689	ADMINISTRATOR
-6.444169	ADMINISTRATOR'S
-5.490641	ADMINISTRATORS
-6.444169	ADMINISTRATORSSALARY
-6.209422	ADMIRABLE
-5.876064	ADMIRAL
-6.444169	ADMIRALTY
-5.598888	ADMIRATION
-5.270051	ADMIRE
-5.559731	ADMIRED
-6.31217	ADMIRER
-6.444169	ADMIRERS
-6.444169	ADMIRES
-6.209422	ADMIRING
-6.444169	ADMIRINGLY
-5.559731	ADMISSION
-5.961521	ADMISSIONS
-4.648245	ADMIT
-6.068018	ADMITS
-5.559731	ADMITTED
-5.559731	ADMITTEDLY
-5.743406	ADMITTING
-6.444169	ADMIXED
-6.444169	ADMONISH
-6.444169	ADMONISHING
-6.444169	ADMONITION
-6.209422	ADO
-6.068018	ADOBE
-6.444169	ADOBE'S
-5.124463	ADOLESCENCE
-6.444169	ADOLESCENCES
-5.431048	ADOLESCENT
-5.310295	ADOLESCENTS
-6.444169	ADOLF
-6.444169	ADOLFO
-6.444169	ADOLPH
-6.444169	ADON'T
-5.048959	ADOPT
-4.871325	ADOPTED
-6.31217	ADOPTER
-6.068018	ADOPTERS
-5.523813	ADOPTING
-5.037559	ADOPTION
-6.209422	ADOPTIVE
-6.444169	ADOPTS
-5.689711	ADORABLE
-6.209422	ADORATION
-5.559731	ADORE
-5.876064	ADORED
-6.444169	ADORES
-6.444169	ADORING
-6.444169	ADORN
-6.444169	ADORNED
-6.444169	ADORNS
-6.068018	ADRENALIN
-5.64193	ADRENALINE
-6.209422	ADRIA
-5.961521	ADRIAN
-6.444169	ADRIAN'S
-6.209422	ADRIATIC
-6.31217	ADRIENNE
-6.444169	ADRIFT
-4.984658	ADS
-6.209422	ADSENSE
-6.444169	ADSL
-6.444169	ADUAKA
-6.444169	ADULATION
-4.514893	ADULT
-6.209422	ADULTERER
-6.31217	ADULTERERS
-6.444169	ADULTERESS
-6.209422	ADULTEROUS
-6.209422	ADULTERY
-5.404062	ADULTHOOD
-4.440578	ADULTS
-6.444169	ADULTSATTENTION
-4.807235	ADVANCE
-4.495089	ADVANCED
-5.523813	ADVANCEMENT
-5.689711	ADVANCEMENTS
-4.994735	ADVANCES
-5.459823	ADVANCING
-4.466979	ADVANTAGE
-5.876064	ADVANTAGEOUS
-5.233222	ADVANTAGES
-5.523813	ADVENT
-6.31217	ADVENTIST
-6.444169	ADVENTIST'S
-5.961521	ADVENTISTS
-4.911492	ADVENTURE
-6.444169	ADVENTURE'S
-6.444169	ADVENTURER
-6.444169	ADVENTURER'S
-6.209422	ADVENTURERS
-5.270051	ADVENTURES
-5.64193	ADVENTUROUS
-6.444169	ADVERB
-5.961521	ADVERSARIAL
-6.444169	ADVERSARIALITY
-5.804689	ADVERSARIES
-6.068018	ADVERSARY
-5.804689	ADVERSE
-6.444169	ADVERSELY
-6.31217	ADVERSITIES
-5.689711	ADVERSITY
-5.876064	ADVERT
-5.490641	ADVERTISE
-5.961521	ADVERTISED
-5.64193	ADVERTISEMENT
-5.804689	ADVERTISEMENTS
-5.689711	ADVERTISERS
-4.734275	ADVERTISING
-6.444169	ADVERTIZING
-6.31217	ADVERTS
-4.671828	ADVICE
-6.444169	ADVICES
-6.31217	ADVIL
-5.559731	ADVISE
-5.598888	ADVISED
-6.31217	ADVISEDLY
-5.743406	ADVISER
-6.31217	ADVISER'S
-5.64193	ADVISERS
-6.31217	ADVISES
-5.598888	ADVISING
-5.804689	ADVISOR
-6.209422	ADVISORS
-6.068018	ADVISORY
-5.459823	ADVOCACY
-5.215916	ADVOCATE
-6.068018	ADVOCATED
-5.598888	ADVOCATES
-5.459823	ADVOCATING
-6.444169	ADYAR
-6.31217	AEDES
-6.31217	AEGYPTI
-6.444169	AEPSIS'S
-6.31217	AERATED
-5.251245	AERIAL
-6.444169	AERO
-6.444169	AEROBATIC
-6.444169	AEROBATICS
-6.444169	AEROBIC
-6.444169	AEROBICS
-5.431048	AERODYNAMIC
-6.444169	AERODYNAMICISTS
-6.068018	AERODYNAMICS
-6.444169	AEROGELS
-6.444169	AERON
-6.444169	AERONAUTIC
-6.209422	AERONAUTICAL
-6.209422	AERONAUTICS
-6.31217	AEROSHELL
-6.444169	AEROSOL
-6.31217	AEROSOLS
-5.689711	AEROSPACE
-6.068018	AEROVIRONMENT
-6.444169	AESOP'S
-5.037559	AESTHETIC
-6.444169	AESTHETICAL
-6.209422	AESTHETICALLY
-5.289707	AESTHETICS
-6.444169	AETHON
-5.876064	AFAR
-6.31217	AFARENSIS
-5.743406	AFFAIR
-5.09781	AFFAIRS
-4.476148	AFFECT
-4.572596	AFFECTED
-4.955757	AFFECTING
-5.378655	AFFECTION
-6.068018	AFFECTIONATE
-5.876064	AFFECTIONATELY
-6.444169	AFFECTIONS
-6.068018	AFFECTIVE
-6.444169	AFFECTIVELY
-6.444169	AFFECTIVITIES
-6.444169	AFFECTIVITY
-4.894977	AFFECTS
-6.31217	AFFERENT
-6.444169	AFFIDAVIT
-6.444169	AFFILIATE
-6.209422	AFFILIATED
-6.209422	AFFILIATION
-6.31217	AFFILIATIONS
-6.444169	AFFINITIES
-5.961521	AFFINITY
-6.31217	AFFIRM
-5.961521	AFFIRMATION
-6.444169	AFFIRMATIONS
-5.876064	AFFIRMATIVE
-6.31217	AFFIRMATIVELY
-5.961521	AFFIRMING
-6.444169	AFFIRMS
-6.209422	AFFIX
-5.961521	AFFLICTED
-6.209422	AFFLICTION
-6.444169	AFFLICTS
-5.689711	AFFLUENCE
-5.876064	AFFLUENT
-4.392154	AFFORD
-5.598888	AFFORDABILITY
-4.781529	AFFORDABLE
-6.444169	AFFORDABLY
-6.31217	AFFORDANCES
-5.743406	AFFORDED
-6.31217	AFFORDING
-5.961521	AFFORDS
-6.444169	AFFRONT
-6.444169	AFFYMETRIX
-5.005052	AFGHAN
-4.330548	AFGHANISTAN
-5.743406	AFGHANS
-6.444169	AFGHANSSOCIAL
-6.31217	AFICIONADO
-6.444169	AFICIONADOS
-6.444169	AFIELD
-6.444169	AFIFTH
-6.444169	AFIKPO
-6.444169	AFLIGHT
-6.31217	AFLOAT
-6.444169	AFLOW
-6.444169	AFM
-6.31217	AFOOT
-4.346294	AFRAID
-6.31217	AFRESH
-3.616126	AFRICA
-5.048959	AFRICA'S
-4.151959	AFRICAN
-4.707157	AFRICANS
-6.31217	AFRIGADGET
-6.444169	AFRIGATOR
-6.209422	AFRIKAANS
-6.444169	AFRIKAN
-6.444169	AFRO
-6.444169	AFROCENTRIC
-6.444169	AFROS
-6.444169	AFT
-3.18344	AFTER
-6.31217	AFTERGLOW
-5.689711	AFTERLIFE
-6.444169	AFTERMARKET
-5.523813	AFTERMATH
-4.608776	AFTERNOON
-6.444169	AFTERNOON'S
-6.068018	AFTERNOONS
-6.444169	AFTERSCHOOL
-6.444169	AFTERSHAVE
-6.444169	AFTERTHOUGHT
-5.215916	AFTERWARD
-6.444169	AFTERWARD.EM
-4.723224	AFTERWARDS
-6.444169	AFTERWORLD
-6.444169	AFULA
-5.270051	AG
-6.444169	AGA
-3.115518	AGAIN
-3.812152	AGAINST
-6.444169	AGAMEMNON
-6.444169	AGAPE
-6.444169	AGAR
-6.444169	AGARBATTIS
-6.068018	AGARIKON
-6.444169	AGBAOSI
-3.717471	AGE
-4.974809	AGED
-4.863718	AGENCIES
-4.763201	AGENCY
-6.31217	AGENCY'S
-4.728714	AGENDA
-6.209422	AGENDAS
-4.863718	AGENT
-6.209422	AGENTICITY
-5.015619	AGENTS
-4.662241	AGES
-6.444169	AGEY
-6.209422	AGGLOMERATE
-6.444169	AGGLOMERATING
-6.444169	AGGLUTINATE
-6.444169	AGGRANDIZE
-6.444169	AGGRANDIZEMENT
-5.199273	AGGREGATE
-5.804689	AGGREGATED
-5.804689	AGGREGATES
-5.804689	AGGREGATING
-6.068018	AGGREGATION
-6.31217	AGGREGATOR
-6.444169	AGGRESS
-5.523813	AGGRESSION
-4.946536	AGGRESSIVE
-5.804689	AGGRESSIVELY
-6.444169	AGGRESSIVENESS
-6.444169	AGGRESSIVITY
-6.444169	AGGRESSOR
-6.444169	AGHAST
-5.251245	AGILE
-6.068018	AGILITY
-4.546403	AGING
-6.444169	AGITARE
-6.444169	AGITATE
-6.209422	AGITATED
-6.068018	AGITATING
-6.444169	AGLOW
-5.251245	AGNES
-6.444169	AGNON
-6.31217	AGNOR
-5.289707	AGNOSTIC
-6.068018	AGNOSTICS
-3.373806	AGO
-6.444169	AGOG
-6.444169	AGONISTS
-6.31217	AGONIZED
-6.444169	AGONIZES
-5.689711	AGONIZING
-6.444169	AGONIZINGLY
-5.804689	AGONY
-6.444169	AGONY.EVEN
-5.961521	AGORA
-6.209422	AGRA
-5.804689	AGRARIAN
-4.387092	AGREE
-4.681632	AGREED
-5.743406	AGREEING
-5.015619	AGREEMENT
-5.523813	AGREEMENTS
-5.251245	AGREES
-5.876064	AGRIBUSINESS
-4.75726	AGRICULTURAL
-6.31217	AGRICULTURALISTS
-6.444169	AGRICULTURALLY
-4.429341	AGRICULTURE
-6.444169	AGRICULTURE'S
-6.444169	AGRICULTURISTS
-6.444169	AGRITOURISM
-6.444169	AGRONOMIST
-6.444169	AGRONOMISTS
-6.444169	AGROUND
-6.444169	AGUILERA
-6.209422	AGUMBE
-6.31217	AGUS
-6.444169	AGUS'S
-6.209422	AGUSTA
-6.444169	AGUSTIN'S
-4.47307	AH
-4.397275	AHA
-4.268872	AHEAD
-6.444169	AHEM
-5.689711	AHH
-6.444169	AHHED
-5.961521	AHHH
-6.444169	AHHHH
-6.31217	AHISTORICAL
-6.444169	AHKIVGAQ
-6.31217	AHMAD
-5.804689	AHMADINEJAD
-5.689711	AHMED
-5.804689	AHMEDABAD
-6.444169	AHN
-6.31217	AHOLD
-6.31217	AHOLIC
-5.310295	AI
-6.444169	AIA
-6.444169	AIBO
-5.876064	AICHA
-4.266959	AID
-6.068018	AIDA
-5.804689	AIDED
-6.444169	AIDEN
-6.31217	AIDES
-6.209422	AIDG
-4.410349	AIDS
-6.444169	AIDSRIDE
-6.444169	AIDSRIDES
-6.444169	AIELLO
-6.444169	AILED
-6.209422	AILEY
-6.444169	AILEY'S
-6.31217	AILING
-6.444169	AILMENT
-6.068018	AILMENTS
-5.005052	AIM
-5.459823	AIMED
-5.459823	AIMEE
-6.444169	AIMEE'S
-5.523813	AIMING
-6.31217	AIMLESS
-6.31217	AIMLESSLY
-5.09781	AIMS
-6.444169	AIMSPROGRESS
-4.769225	AIN'T
-6.444169	AINMHIDE
-3.819581	AIR
-5.876064	AIRBAG
-5.804689	AIRBAGS
-5.559731	AIRBNB
-5.64193	AIRBORNE
-6.444169	AIRBRUSH
-5.961521	AIRBUS
-6.444169	AIRCARD
-6.444169	AIRCONDITIONING
-4.728714	AIRCRAFT
-6.444169	AIRCRAFT'S
-6.444169	AIRCRAFTS
-6.444169	AIRDYNAMISIS
-5.876064	AIRED
-5.876064	AIRES
-6.31217	AIRFARE
-6.209422	AIRFIELD
-6.444169	AIRFIX
-6.209422	AIRFLOW
-6.31217	AIRFOIL
-6.444169	AIRFRAME
-6.444169	AIRING
-6.444169	AIRLIFT
-6.31217	AIRLIFTED
-5.085073	AIRLINE
-6.444169	AIRLINE'S
-6.444169	AIRLINER
-5.64193	AIRLINES
-6.31217	AIRLOCK
-6.444169	AIRLOCKS
-6.444169	AIRMAN
-6.209422	AIRPIX
-4.455047	AIRPLANE
-4.848894	AIRPLANES
-4.775334	AIRPORT
-5.310295	AIRPORTS
-6.068018	AIRS
-6.444169	AIRSHIP
-5.804689	AIRSTREAM
-6.31217	AIRSTREAMS
-6.444169	AIRSTRIKE
-5.743406	AIRSTRIP
-6.444169	AIRSTRIPS
-6.444169	AIRTIGHT
-5.804689	AIRTIME
-6.31217	AIRWAVES
-6.444169	AIRWAY
-5.876064	AIRWAYS
-6.31217	AIRY
-5.490641	AISLE
-5.804689	AISLES
-6.444169	AIZENBERG
-5.876064	AJAX
-6.444169	AJIACO
-4.974809	AK
-5.876064	AKA
-6.444169	AKAL
-6.31217	AKAN
-6.444169	AKASH
-6.444169	AKERMAN
-5.961521	AKIN
-6.444169	AKITA
-6.444169	AKZIDENZ
-4.399859	AL
-6.444169	AL'S
-5.289707	ALABAMA
-6.444169	ALABASTER
-6.444169	ALACRITY
-6.31217	ALADDIN
-6.209422	ALAIKUM
-6.31217	ALAIN
-6.31217	ALAMIEYESEIGHA
-6.068018	ALAMOS
-6.31217	ALAMS
-5.251245	ALAN
-6.068018	ALANINE
-6.444169	ALANINES
-4.994735	ALARM
-6.068018	ALARMED
-5.404062	ALARMING
-6.444169	ALARMINGLY
-6.068018	ALARMS
-6.31217	ALAS
-6.444169	ALASDAIR
-5.13843	ALASKA
-6.444169	ALASKA'S
-6.209422	ALASKAN
-6.444169	ALAVETELI
-6.444169	ALBACORE
-5.876064	ALBANIA
-6.31217	ALBANIAN
-6.31217	ALBANIANS
-6.31217	ALBANY
-5.689711	ALBATROSS
-6.444169	ALBEDO
-5.559731	ALBEIT
-6.31217	ALBEMARLE
-5.13843	ALBERT
-6.444169	ALBERT'S
-5.689711	ALBERTA
-5.689711	ALBERTO
-6.31217	ALBINISM
-6.444169	ALBINOS
-6.31217	ALBRECHT
-6.31217	ALBRIGHT
-5.110932	ALBUM
-5.804689	ALBUMS
-6.31217	ALBUQUERQUE
-6.444169	ALBUQUERQUE'S
-6.31217	ALCATRAZ
-6.444169	ALCAZAR
-6.31217	ALCHEMIST
-6.209422	ALCHEMISTS
-6.209422	ALCHEMY
-6.444169	ALCINDOR
-4.937507	ALCOHOL
-5.961521	ALCOHOLIC
-6.444169	ALCOHOLICS
-6.068018	ALCOHOLISM
-6.444169	ALDA
-6.444169	ALDEHYDE
-6.31217	ALDER
-6.444169	ALDERS
-5.961521	ALDO
-6.31217	ALDOUS
-6.444169	ALDRICH
-6.209422	ALDRIN
-6.444169	ALDUS
-6.444169	ALE
-6.444169	ALECK
-6.444169	ALEGRE
-6.444169	ALEKSANDR
-6.444169	ALEM
-6.31217	ALEPH
-6.444169	ALEPPO
-5.233222	ALERT
-6.31217	ALERTED
-6.31217	ALERTNESS
-6.209422	ALERTS
-6.444169	ALESSANDRA
-6.444169	ALESSANDRO
-5.961521	ALESSI
-5.060667	ALEX
-6.444169	ALEXA
-5.026451	ALEXANDER
-6.068018	ALEXANDER'S
-6.444169	ALEXANDRE
-5.490641	ALEXANDRIA
-6.31217	ALEXEY
-5.876064	ALEXIS
-5.961521	ALFALFA
-5.404062	ALFRED
-6.209422	ALGA
-4.848894	ALGAE
-6.444169	ALGAES
-5.804689	ALGAL
-6.444169	ALGARVE
-4.367414	ALGEBRA
-6.31217	ALGEBRAIC
-5.876064	ALGERIA
-6.068018	ALGERIAN
-6.444169	ALGERIANS
-6.444169	ALGO
-4.276607	ALGORITHM
-5.459823	ALGORITHMIC
-6.209422	ALGORITHMICALLY
-4.617241	ALGORITHMS
-5.559731	ALHAMBRA
-6.209422	ALHURRA
-5.431048	ALI
-5.689711	ALIBI
-5.215916	ALICE
-6.444169	ALICE'S
-6.31217	ALICIA
-4.781529	ALIEN
-6.209422	ALIENATED
-5.961521	ALIENATING
-6.209422	ALIENATION
-5.048959	ALIENS
-5.559731	ALIGN
-5.559731	ALIGNED
-5.876064	ALIGNING
-5.523813	ALIGNMENT
-6.209422	ALIGNS
-5.110932	ALIKE
-6.209422	ALIKES
-6.444169	ALIPH
-6.209422	ALISA
-6.31217	ALISA'S
-5.961521	ALISCH
-6.444169	ALISON
-6.444169	ALISTER
-4.198271	ALIVE
-6.444169	ALIVENESS
-6.444169	ALJAZEERA.NET
-6.31217	ALKALINE
-6.444169	ALKALINITY
-2.336739	ALL
-5.743406	ALLAH
-6.444169	ALLAHI
-6.444169	ALLAMA
-5.64193	ALLAN
-6.444169	ALLARD
-6.444169	ALLEGATION
-6.209422	ALLEGATIONS
-6.209422	ALLEGED
-5.743406	ALLEGEDLY
-5.961521	ALLEGIANCE
-5.961521	ALLEGIANCES
-6.444169	ALLEGING
-6.444169	ALLEGORICAL
-6.209422	ALLEGORY
-6.209422	ALLELE
-5.251245	ALLEN
-6.209422	ALLENDE
-6.444169	ALLENDE'S
-6.444169	ALLERGENS
-6.068018	ALLERGIC
-6.31217	ALLERGIES
-6.31217	ALLERGY
-5.689711	ALLEVIATE
-6.31217	ALLEVIATED
-6.444169	ALLEVIATING
-6.209422	ALLEVIATION
-5.431048	ALLEY
-6.209422	ALLEYS
-6.444169	ALLEYWAYS
-6.444169	ALLGEMEINEN
-5.289707	ALLIANCE
-5.689711	ALLIANCES
-6.444169	ALLIANZ
-5.876064	ALLIED
-5.13843	ALLIES
-5.559731	ALLIGATOR
-6.444169	ALLIGATORS
-5.804689	ALLISON
-6.444169	ALLOBRAIN
-5.804689	ALLOCATE
-5.876064	ALLOCATED
-6.209422	ALLOCATES
-6.444169	ALLOCATING
-5.689711	ALLOCATION
-6.444169	ALLODYNIA
-6.31217	ALLOGRAFT
-6.444169	ALLOMETRIC
-5.876064	ALLOSPHERE
-6.444169	ALLOT
-6.444169	ALLOTMENTS
-3.877029	ALLOW
-5.743406	ALLOWANCE
-6.209422	ALLOWANCES
-4.157856	ALLOWED
-4.23924	ALLOWING
-4.188605	ALLOWS
-6.31217	ALLOY
-6.31217	ALLOYS
-6.31217	ALLS
-6.209422	ALLUDE
-5.961521	ALLUDED
-6.31217	ALLUDING
-6.444169	ALLURE
-6.444169	ALLURING
-6.31217	ALLUSIONS
-5.743406	ALLY
-5.743406	ALMA
-6.31217	ALMANAC
-5.876064	ALMIGHTY
-6.444169	ALMOG
-5.876064	ALMOND
-6.209422	ALMONDS
-3.539696	ALMOST
-6.444169	ALMS
-6.444169	ALOHA
-4.047098	ALONE
-3.802223	ALONG
-6.444169	ALONG.CAUSE
-5.13843	ALONGSIDE
-6.444169	ALONZO
-6.31217	ALOOF
-6.444169	ALORS
-6.444169	ALOT
-5.876064	ALOUD
-6.444169	ALOUSA
-4.974809	ALPHA
-4.334989	ALPHABET
-6.068018	ALPHABETICAL
-6.444169	ALPHABETICALLY
-6.31217	ALPHABETS
-6.444169	ALPHAPROTEOBACTERIA
-6.444169	ALPHAS
-5.961521	ALPINE
-5.689711	ALPS
-3.404911	ALREADY
-6.444169	ALREADY'S
-3.915199	ALRIGHT
-6.31217	ALRIGHTY
-5.559731	ALS
-2.792093	ALSO
-6.444169	ALTADENA
-6.444169	ALTAI
-5.689711	ALTAR
-6.444169	ALTARS
-6.444169	ALTAVISTA.COM
-6.444169	ALTAY
-6.444169	ALTEA
-5.251245	ALTER
-6.444169	ALTERABLE
-6.444169	ALTERATIONS
-5.15286	ALTERED
-5.64193	ALTERING
-5.559731	ALTERNATE
-6.444169	ALTERNATED
-6.31217	ALTERNATELY
-6.444169	ALTERNATES
-5.876064	ALTERNATING
-6.31217	ALTERNATIONS
-4.518283	ALTERNATIVE
-4.418387	ALTERNATIVELY
-5.060667	ALTERNATIVES
-6.209422	ALTERS
-3.993092	ALTHOUGH
-6.444169	ALTHUSSERIAN
-6.209422	ALTIMETER
-6.31217	ALTIPLANO
-4.919991	ALTITUDE
-5.743406	ALTITUDES
-5.743406	ALTO
-5.289707	ALTOGETHER
-5.64193	ALTOS
-5.310295	ALTRUISM
-5.804689	ALTRUIST
-5.876064	ALTRUISTIC
-6.31217	ALTRUISTS
-6.31217	ALU
-6.444169	ALUM
-6.444169	ALUMINIUM
-6.444169	ALUMINIZED
-5.085073	ALUMINUM
-5.804689	ALUMNI
-6.444169	ALUMS
-6.444169	ALVAREZ
-6.31217	ALVARO
-5.689711	ALVIN
-3.474725	ALWAYS
-6.444169	ALYAN
-6.444169	ALYOSHA
-4.800664	ALZHEIMER'S
-3.610197	AM
-6.444169	AM.SHE
-6.444169	AMADEUS
-6.209422	AMALGAM
-6.444169	AMAMOU
-6.444169	AMAN
-5.459823	AMANDA
-6.31217	AMAR
-6.31217	AMARTYA
-6.444169	AMARYLLIS
-6.444169	AMASS
-6.444169	AMASSED
-6.209422	AMASSING
-4.3509	AMATEUR
-6.444169	AMATEURISH
-6.31217	AMATEURIZATION
-5.289707	AMATEURS
-6.444169	AMATI
-6.068018	AMAZE
-4.946536	AMAZED
-5.876064	AMAZEMENT
-5.804689	AMAZES
-3.729481	AMAZING
-4.994735	AMAZINGLY
-6.31217	AMAZINGNESS
-4.734275	AMAZON
-6.444169	AMAZON.BOMB
-6.068018	AMAZON.COM
-6.444169	AMAZON.TOAST
-6.209422	AMAZONAS
-6.444169	AMAZONIS
-6.444169	AMAZONS
-6.444169	AMBADY
-5.331908	AMBASSADOR
-6.444169	AMBASSADOR'S
-5.804689	AMBASSADORS
-5.598888	AMBER
-6.31217	AMBIANCE
-6.444169	AMBIEN
-6.444169	AMBIENCE
-5.523813	AMBIENT
-6.209422	AMBIGRAM
-6.444169	AMBIGRAMS
-6.068018	AMBIGUITIES
-5.251245	AMBIGUITY
-5.378655	AMBIGUOUS
-6.444169	AMBIT
-5.167787	AMBITION
-5.804689	AMBITIONS
-5.072698	AMBITIOUS
-6.068018	AMBIVALENT
-6.444169	AMBLING
-6.444169	AMBLYOPIA
-6.444169	AMBOSELI
-6.31217	AMBROGIO
-6.444169	AMBROSIA
-6.444169	AMBUCYCLE
-6.31217	AMBUCYCLES
-5.09781	AMBULANCE
-5.961521	AMBULANCES
-6.444169	AMBULATION
-6.444169	AMBUSH
-6.444169	AMBUSHED
-5.804689	AMD
-6.209422	AMELIORATE
-5.876064	AMENABLE
-6.31217	AMEND
-6.31217	AMENDING
-5.961521	AMENDMENT
-6.209422	AMENDMENTS
-6.209422	AMENITIES
-6.444169	AMENITY
-6.31217	AMERASIAN
-6.444169	AMERASIANS
-3.805508	AMERICA
-5.037559	AMERICA'S
-3.823	AMERICAN
-6.444169	AMERICANIZATION
-6.444169	AMERICANNESS
-6.444169	AMERICANO
-4.199903	AMERICANS
-6.444169	AMERICANS.AND
-6.444169	AMERICANSFAMILIES
-5.459823	AMERICAS
-6.209422	AMES
-6.444169	AMGEN
-6.31217	AMHARIC
-6.068018	AMI
-6.444169	AMIABLY
-6.31217	AMICABLE
-6.31217	AMID
-5.689711	AMIDST
-6.444169	AMIGA
-6.444169	AMIHOTORNOT.COM
-6.31217	AMIN
-6.31217	AMINES
-5.251245	AMINO
-6.444169	AMIR
-6.31217	AMIRA
-6.444169	AMIS
-6.31217	AMISH
-6.444169	AMISS
-6.068018	AMITABHA
-6.444169	AMITABHA'S
-6.444169	AMITY
-5.961521	AMJAD
-6.444169	AML
-6.444169	AMMAN
-6.209422	AMMO
-5.743406	AMMONIA
-6.444169	AMMONITES
-5.804689	AMMUNITION
-6.209422	AMNESIA
-6.068018	AMNESIAC
-6.31217	AMNESIACS
-5.961521	AMNESTY
-6.444169	AMNIOTIC
-6.444169	AMO
-5.689711	AMOEBA
-6.209422	AMOEBAS
-6.444169	AMOEBOID
-6.31217	AMOK
-4.146142	AMONG
-4.745616	AMONGST
-6.444169	AMOROUSLY
-5.961521	AMORPHOUS
-6.444169	AMORTIZED
-6.068018	AMORY
-6.444169	AMOS
-3.691351	AMOUNT
-6.31217	AMOUNTED
-4.643678	AMOUNTS
-6.444169	AMP
-6.444169	AMPERSANDS
-6.209422	AMPHETAMINES
-6.444169	AMPHIBIA
-6.209422	AMPHIBIAN
-5.64193	AMPHIBIANS
-6.31217	AMPHIBIOUS
-6.31217	AMPHIPODS
-6.444169	AMPHITHEATER
-6.444169	AMPHITHEATRE
-5.743406	AMPLE
-5.804689	AMPLIFICATION
-6.31217	AMPLIFICATIONS
-5.804689	AMPLIFIED
-5.876064	AMPLIFIER
-6.444169	AMPLIFIERS
-5.459823	AMPLIFY
-6.209422	AMPLIFYING
-5.876064	AMPLITUDE
-6.444169	AMPLITUDES
-6.444169	AMPOULE
-6.209422	AMPULLATE
-6.444169	AMPUTATE
-5.804689	AMPUTATED
-6.444169	AMPUTATES
-5.64193	AMPUTATION
-6.209422	AMPUTATIONS
-6.068018	AMPUTEE
-5.961521	AMPUTEES
-6.444169	AMR
-6.444169	AMRAPALI'S
-6.444169	AMRITSAR
-6.31217	AMS
-5.233222	AMSTERDAM
-6.444169	AMT
-6.444169	AMUDSON
-6.068018	AMUNDSEN
-6.444169	AMUNDSON
-6.068018	AMUR
-6.444169	AMURLAND
-6.068018	AMUSE
-5.689711	AMUSED
-5.689711	AMUSEMENT
-6.31217	AMUSES
-5.961521	AMUSING
-5.183244	AMY
-6.31217	AMY'S
-5.876064	AMYGDALA
-6.444169	AMYRIS
-2.535652	AN
-6.444169	AN80S
-6.068018	ANA
-6.444169	ANABOLIC
-6.444169	ANACHRONISM
-6.444169	ANACHRONISTICALLY
-6.444169	ANACONDA
-6.444169	ANAD
-6.31217	ANAEROBIC
-6.444169	ANAESTHETIZED
-6.444169	ANAGNORISES
-5.876064	ANAGNORISIS
-6.444169	ANAGNOSTICWOULD
-6.444169	ANAGO
-6.444169	ANAGOGICAL
-6.444169	ANAGRAM
-5.961521	ANAGRAMS
-6.444169	ANAHEIM
-6.444169	ANAIS
-6.444169	ANAJULINA
-6.444169	ANAL
-6.31217	ANALGESICS
-5.15286	ANALOG
-5.490641	ANALOGIES
-6.444169	ANALOGIZE
-5.598888	ANALOGOUS
-6.444169	ANALOGS
-6.444169	ANALOGUE
-6.444169	ANALOGUES
-4.894977	ANALOGY
-5.64193	ANALYSES
-4.5217	ANALYSIS
-5.64193	ANALYST
-5.804689	ANALYSTS
-6.068018	ANALYTIC
-5.183244	ANALYTICAL
-6.444169	ANALYTICALLY
-5.431048	ANALYTICS
-6.444169	ANALYZABLE
-4.834559	ANALYZE
-5.110932	ANALYZED
-6.444169	ANALYZER
-5.876064	ANALYZES
-5.167787	ANALYZING
-6.444169	ANAMORPHIC
-6.444169	ANANDPUR
-6.444169	ANANTHASWAMY
-6.444169	ANAPUM
-6.444169	ANARCHIC
-6.444169	ANARCHISM
-6.31217	ANARCHIST
-6.444169	ANARCHISTS
-6.444169	ANARCHO
-5.598888	ANARCHY
-5.459823	ANAS
-6.31217	ANASAZI
-6.444169	ANASBRIBEMEN
-6.444169	ANASNEWS
-6.444169	ANASSTORY
-6.31217	ANATHEMA
-6.068018	ANATOMIC
-6.068018	ANATOMICAL
-6.31217	ANATOMICALLY
-6.068018	ANATOMISTS
-5.270051	ANATOMY
-6.444169	ANATOMY'S
-6.209422	ANATOTITAN
-6.444169	ANAYSIS
-5.085073	ANCESTOR
-4.643678	ANCESTORS
-6.444169	ANCESTORSSURVIVAL
-5.559731	ANCESTRAL
-5.331908	ANCESTRY
-5.431048	ANCHOR
-6.209422	ANCHORED
-6.31217	ANCHORING
-6.209422	ANCHORS
-6.444169	ANCHOVETA
-6.444169	ANCHOVIES
-4.339476	ANCIENT
-6.444169	ANCIENTRY
-6.31217	ANCIENTS
-6.444169	ANCILLARY
-1.506617	AND
-6.444169	AND/AND
-6.068018	AND/OR
-6.209422	AND30S
-6.444169	AND50S
-6.444169	AND50S60S
-5.743406	AND60S
-5.876064	AND70S
-5.743406	AND80S
-5.743406	AND90S
-6.444169	AND96
-6.444169	ANDALUSIA
-6.444169	ANDATHEISTWAS
-6.068018	ANDEAN
-6.31217	ANDERS
-6.209422	ANDERSEN
-6.444169	ANDERSEN'S
-5.354652	ANDERSON
-5.804689	ANDES
-6.444169	ANDHRA
-6.444169	ANDO'S
-6.068018	ANDRE
-6.068018	ANDREA
-6.444169	ANDREAS
-6.31217	ANDREESSEN
-4.984658	ANDREW
-6.31217	ANDREW'S
-6.31217	ANDREWS
-6.444169	ANDRILL
-6.444169	ANDRIĆ
-6.444169	ANDROGENS
-5.559731	ANDROID
-5.876064	ANDROIDS
-5.876064	ANDROMEDA
-6.444169	ANDRUSIMPOSSIBLE
-6.31217	ANDRÉ
-6.31217	ANDS
-5.404062	ANDY
-6.444169	ANDY'S
-6.31217	ANDYVPHIL
-5.876064	ANECDOTAL
-6.31217	ANECDOTALLY
-5.490641	ANECDOTE
-5.743406	ANECDOTES
-5.64193	ANEMIA
-6.209422	ANEMIC
-6.209422	ANEMONES
-5.110932	ANESTHESIA
-5.804689	ANESTHESIOLOGIST
-6.444169	ANESTHESIOLOGISTS
-6.209422	ANESTHESIOLOGY
-5.876064	ANESTHETIC
-5.961521	ANESTHETICS
-5.876064	ANESTHETIZE
-6.31217	ANESTHETIZED
-6.31217	ANEURYSM
-6.444169	ANEURYSMS
-5.804689	ANEW
-6.444169	ANG
-5.251245	ANGEL
-6.068018	ANGELA
-4.751399	ANGELES
-6.444169	ANGELFISH
-6.209422	ANGELINA
-5.961521	ANGELINE
-6.444169	ANGELLA
-6.31217	ANGELMED
-5.251245	ANGELS
-4.775334	ANGER
-6.209422	ANGERED
-6.209422	ANGHIARI
-6.444169	ANGIER
-6.444169	ANGINA
-5.048959	ANGIOGENESIS
-6.068018	ANGIOGENIC
-6.31217	ANGIOGRAM
-6.444169	ANGIOGRAMS
-6.444169	ANGIOLOGY
-6.444169	ANGIOPLASTY
-6.444169	ANGIOSARCOMA
-4.712447	ANGLE
-6.31217	ANGLED
-6.209422	ANGLERFISH
-5.09781	ANGLES
-6.444169	ANGLESEY
-6.444169	ANGLIA
-6.31217	ANGLICAN
-6.31217	ANGLO
-5.64193	ANGOLA
-6.444169	ANGOR
-6.068018	ANGRIER
-6.31217	ANGRIGAMI
-6.444169	ANGRILY
-4.728714	ANGRY
-6.444169	ANGRYUN
-6.068018	ANGST
-6.31217	ANGSTROM
-6.444169	ANGSTY
-5.876064	ANGUISH
-5.804689	ANGULAR
-6.31217	ANGUR
-6.444169	ANIBOOM
-6.209422	ANIL
-6.444169	ANIMA
-6.444169	ANIMADU
-3.981072	ANIMAL
-5.459823	ANIMAL'S
-6.444169	ANIMALI
-6.31217	ANIMALIA
-6.444169	ANIMALLY
-6.444169	ANIMALOID
-3.793156	ANIMALS
-6.444169	ANIMALSBLOOD
-6.444169	ANIMALSPOINT
-6.31217	ANIMARIS
-5.404062	ANIMATE
-5.310295	ANIMATED
-5.961521	ANIMATES
-6.209422	ANIMATING
-4.751399	ANIMATION
-6.444169	ANIMATIONJURASSIC
-6.444169	ANIMATIONRISE
-5.378655	ANIMATIONS
-5.804689	ANIMATOR
-5.961521	ANIMATORS
-6.444169	ANIMATRONIC
-6.444169	ANIMATRONICS
-6.068018	ANIME
-6.444169	ANIMISM
-6.31217	ANIMIST
-6.209422	ANIMISTS
-6.444169	ANIMOSITY
-6.31217	ANISE
-6.444169	ANISH
-6.31217	ANITA
-6.444169	ANJALI
-6.444169	ANJALI'S
-6.209422	ANKARA
-5.876064	ANKLE
-6.068018	ANKLES
-5.490641	ANN
-5.689711	ANNA
-6.444169	ANNABELLE
-6.31217	ANNALISA
-6.31217	ANNALS
-5.689711	ANNAN
-5.689711	ANNE
-6.444169	ANNENBERG
-6.444169	ANNEX
-5.804689	ANNIE
-6.31217	ANNIHILATE
-6.068018	ANNIHILATED
-6.31217	ANNIHILATING
-6.209422	ANNIHILATION
-6.31217	ANNIVERSARIES
-5.13843	ANNIVERSARY
-6.444169	ANNOTATE
-6.444169	ANNOTATED
-6.444169	ANNOTATION
-6.444169	ANNOTATIONS
-5.404062	ANNOUNCE
-4.813907	ANNOUNCED
-5.354652	ANNOUNCEMENT
-6.209422	ANNOUNCEMENTS
-6.444169	ANNOUNCER
-6.068018	ANNOUNCES
-5.431048	ANNOUNCING
-6.068018	ANNOY
-6.209422	ANNOYANCE
-5.523813	ANNOYED
-5.233222	ANNOYING
-6.444169	ANNOYINGLY
-6.31217	ANNOYS
-4.919991	ANNUAL
-6.31217	ANNUALIZED
-5.876064	ANNUALLY
-6.444169	ANNULAR
-6.444169	ANNUM
-6.31217	ANODE
-6.444169	ANOINTMENT
-5.804689	ANOMALIES
-6.31217	ANOMALOUS
-6.444169	ANOMALOUSLY
-5.559731	ANOMALY
-6.444169	ANON
-5.459823	ANONYMITY
-6.444169	ANONYMIZING
-4.919991	ANONYMOUS
-5.804689	ANONYMOUSLY
-6.444169	ANORAK
-6.31217	ANOREXIA
-6.209422	ANOREXIC
-6.444169	ANOTE
-3.083099	ANOTHER
-5.961521	ANOTHER'S
-6.444169	ANOXIA
-5.743406	ANSARI
-6.444169	ANSCHLUSS
-6.444169	ANSEL
-3.716933	ANSWER
-6.31217	ANSWER'S
-6.444169	ANSWER.CONJURING
-6.31217	ANSWERABLE
-4.911492	ANSWERED
-6.444169	ANSWEREDYESFOR
-5.048959	ANSWERING
-4.35322	ANSWERS
-4.723224	ANT
-6.068018	ANT'S
-6.31217	ANTA
-6.31217	ANTAGONISTIC
-6.209422	ANTAGONISTS
-6.444169	ANTAKILLQA
-5.459823	ANTARCTIC
-4.903156	ANTARCTICA
-6.444169	ANTARTICA
-5.876064	ANTE
-5.804689	ANTELOPE
-6.444169	ANTELOPES
-5.270051	ANTENNA
-5.459823	ANTENNAE
-6.209422	ANTENNAL
-5.689711	ANTENNAS
-5.804689	ANTERIOR
-6.444169	ANTEROGRADE
-6.444169	ANTEROOM
-6.068018	ANTHEM
-6.444169	ANTHEMS
-6.209422	ANTHER
-6.31217	ANTHERS
-6.31217	ANTHILL
-6.444169	ANTHON
-5.559731	ANTHONY
-5.689711	ANTHRAX
-6.31217	ANTHROPHONY
-6.068018	ANTHROPIC
-6.068018	ANTHROPOCENE
-6.444169	ANTHROPOCENTRISM
-6.31217	ANTHROPOGENIC
-6.444169	ANTHROPOLOGICAL
-5.431048	ANTHROPOLOGIST
-5.404062	ANTHROPOLOGISTS
-5.459823	ANTHROPOLOGY
-6.31217	ANTHROPOMETRICS
-6.31217	ANTHROPOMORPHIC
-6.444169	ANTHROPOMORPHIZES
-6.444169	ANTHROPY
-4.518283	ANTI
-5.404062	ANTIANGIOGENIC
-6.31217	ANTIBACTERIAL
-5.310295	ANTIBIOTIC
-4.955757	ANTIBIOTICS
-5.233222	ANTIBODIES
-5.559731	ANTIBODY
-5.072698	ANTICIPATE
-5.354652	ANTICIPATED
-6.444169	ANTICIPATES
-5.689711	ANTICIPATING
-5.378655	ANTICIPATION
-6.444169	ANTICLASTIC
-6.444169	ANTICLIMACTIC
-6.31217	ANTICLIMAX
-6.209422	ANTICLOCKWISE
-6.444169	ANTICORROSIVE
-6.444169	ANTICORRUPTION
-5.961521	ANTIDEPRESSANT
-5.431048	ANTIDEPRESSANTS
-5.431048	ANTIDOTE
-6.444169	ANTIDOTES
-6.444169	ANTIFREEZE
-6.31217	ANTIGEN
-6.31217	ANTIGENS
-6.31217	ANTIGUA
-6.444169	ANTILLES
-6.31217	ANTIMATTER
-6.068018	ANTIMONY
-6.444169	ANTIOXIDANT
-6.31217	ANTIOXIDANTS
-6.31217	ANTIPATHY
-6.444169	ANTIPSCYHOTIC
-6.209422	ANTIPSYCHOTIC
-6.444169	ANTIQUARIAN
-6.444169	ANTIQUARIANS
-5.961521	ANTIQUATED
-5.689711	ANTIQUE
-6.444169	ANTIQUE'S
-6.068018	ANTIQUES
-6.31217	ANTIQUITY
-6.444169	ANTIQUUS
-5.490641	ANTIRETROVIRAL
-6.31217	ANTIRETROVIRALS
-6.444169	ANTISEPTIC
-6.31217	ANTISOCIAL
-5.961521	ANTITHESIS
-6.31217	ANTITHROMBIN
-6.444169	ANTITRUST
-5.961521	ANTIVIRAL
-6.444169	ANTIVIRALS
-6.31217	ANTIVIRUS
-6.209422	ANTLERS
-5.876064	ANTOINE
-6.444169	ANTON
-6.444169	ANTONELLI
-6.068018	ANTONIO
-6.444169	ANTONIUS
-6.31217	ANTONY
-4.508191	ANTS
-6.209422	ANUJ
-6.444169	ANUPAM
-6.444169	ANUS
-6.068018	ANVIL
-6.444169	ANWAR
-6.444169	ANWR
-6.209422	ANXIETIES
-4.894977	ANXIETY
-5.289707	ANXIOUS
-6.31217	ANXIOUSLY
-2.994352	ANY
-4.047098	ANYBODY
-6.444169	ANYBODY'LL
-5.490641	ANYBODY'S
-5.689711	ANYHOW
-4.232138	ANYMORE
-3.979101	ANYONE
-5.876064	ANYONE'S
-6.444169	ANYONEREBEL
-6.444169	ANYPLACE
-3.478125	ANYTHING
-6.444169	ANYTHING'S
-5.215916	ANYTIME
-4.078082	ANYWAY
-5.64193	ANYWAYS
-4.191803	ANYWHERE
-5.233222	AO
-5.876064	AOL
-6.444169	AOMAME
-6.209422	AORTA
-6.209422	AP
-6.068018	APACHE
-4.328345	APART
-5.378655	APARTHEID
-4.763201	APARTMENT
-5.15286	APARTMENTS
-6.068018	APATHETIC
-5.598888	APATHY
-6.31217	APATZINGÁN
-5.404062	APE
-6.068018	APERTURE
-6.444169	APERTURES
-5.167787	APES
-5.598888	APEX
-6.444169	APEXES
-6.444169	APGAR
-6.444169	APHAENOGASTER
-6.31217	APHASIA
-6.444169	APHASIC
-5.876064	APHID
-5.961521	APHIDS
-6.209422	APHORISM
-6.068018	APHORISMS
-6.068018	APHRODISIAC
-6.444169	APHRODISIACS
-6.444169	APHRODITE
-5.876064	API
-5.961521	APIECE
-6.444169	APIS
-6.444169	APKON
-6.31217	APL
-6.068018	APNEA
-5.689711	APOCALYPSE
-5.876064	APOCALYPTIC
-6.444169	APOCALYPTICAL
-6.444169	APOCALYPTICALLY
-6.444169	APOCALYPTICS
-6.068018	APOCRYPHAL
-6.444169	APOE
-6.444169	APOLITICAL
-5.199273	APOLLO
-6.444169	APOLLO'S
-6.444169	APOLLONIA
-6.068018	APOLLONIAN
-6.444169	APOLOGETIC
-5.961521	APOLOGIES
-6.444169	APOLOGIST
-5.199273	APOLOGIZE
-6.31217	APOLOGIZED
-5.876064	APOLOGIZING
-6.068018	APOLOGY
-6.31217	APOPTOSIS
-6.444169	APOSTASY
-6.444169	APOSTLE
-6.31217	APOSTLES
-4.75726	APP
-6.209422	APPACHAN
-6.444169	APPALACHIA
-6.31217	APPALACHIAN
-6.31217	APPALACHIANS
-5.961521	APPALLED
-5.523813	APPALLING
-6.444169	APPARATCHIKS
-6.444169	APPARATE
-5.378655	APPARATUS
-6.444169	APPARATUSES
-6.068018	APPAREL
-5.215916	APPARENT
-4.723224	APPARENTLY
-6.31217	APPARITION
-5.13843	APPEAL
-5.598888	APPEALED
-5.310295	APPEALING
-5.876064	APPEALS
-4.50159	APPEAR
-4.919991	APPEARANCE
-5.743406	APPEARANCES
-4.707157	APPEARED
-5.289707	APPEARING
-4.734275	APPEARS
-6.31217	APPEASED
-6.31217	APPELLATE
-4.4211	APPEND
-5.743406	APPENDAGE
-6.31217	APPENDAGES
-6.444169	APPENDED
-6.444169	APPENDICITIS
-6.209422	APPENDIX
-4.4211	APPENDS
-6.444169	APPERCEPTIVE
-6.444169	APPETIT
-5.523813	APPETITE
-6.209422	APPETITES
-6.31217	APPETIZERS
-6.444169	APPETIZING
-6.444169	APPIAN
-5.64193	APPLAUD
-6.31217	APPLAUDED
-6.068018	APPLAUDING
-5.233222	APPLAUSE
-4.466979	APPLE
-5.598888	APPLE'S
-6.444169	APPLEBEE'S
-5.037559	APPLES
-6.444169	APPLESEED
-6.444169	APPLETS
-5.876064	APPLIANCE
-6.444169	APPLIANCE'S
-5.251245	APPLIANCES
-5.64193	APPLICABLE
-6.31217	APPLICANTS
-4.696766	APPLICATION
-4.648245	APPLICATIONS
-6.31217	APPLICATOR
-4.546403	APPLIED
-5.124463	APPLIES
-4.099605	APPLY
-4.894977	APPLYING
-6.444169	APPOINT
-5.523813	APPOINTED
-6.444169	APPOINTING
-5.459823	APPOINTMENT
-6.31217	APPOINTMENTS
-6.31217	APPRAISING
-4.667008	APPRECIATE
-5.215916	APPRECIATED
-6.31217	APPRECIATES
-5.689711	APPRECIATING
-5.09781	APPRECIATION
-5.961521	APPRECIATIVE
-6.444169	APPREHEND
-6.209422	APPREHENSION
-6.444169	APPREHENSIVE
-5.459823	APPRENTICE
-6.31217	APPRENTICED
-6.444169	APPRENTICES
-6.209422	APPRENTICESHIP
-6.444169	APPRENTICING
-3.937851	APPROACH
-6.444169	APPROACHABLE
-5.037559	APPROACHED
-4.919991	APPROACHES
-4.911492	APPROACHING
-4.621537	APPROPRIATE
-6.068018	APPROPRIATED
-5.251245	APPROPRIATELY
-6.444169	APPROPRIATING
-6.31217	APPROPRIATION
-6.444169	APPROPRIATIONS
-5.961521	APPROTEC
-5.199273	APPROVAL
-5.876064	APPROVE
-4.955757	APPROVED
-6.444169	APPROVINGLY
-5.804689	APPROXIMATE
-6.444169	APPROXIMATED
-5.026451	APPROXIMATELY
-6.444169	APPROXIMATES
-5.689711	APPROXIMATION
-5.09781	APPS
-6.444169	APPURTENANCES
-6.31217	APRICOT
-5.005052	APRIL
-6.444169	APRIL'S
-6.444169	APROCH
-6.444169	APRON
-6.068018	APROPOS
-5.804689	APT
-6.209422	APTAMER
-6.444169	APTITUDE
-6.444169	APTITUDES
-6.068018	APTLY
-6.444169	APU
-6.444169	APUS
-6.444169	AQABA
-6.209422	AQUA
-5.876064	AQUACULTURE
-6.209422	AQUANAUTS
-6.444169	AQUAPONIC
-6.209422	AQUAPONICS
-6.444169	AQUAPORIN
-6.444169	AQUAPORINS
-6.444169	AQUARIA
-6.444169	AQUARIST
-5.270051	AQUARIUM
-6.444169	AQUARIUS
-5.251245	AQUATIC
-6.31217	AQUECER
-6.444169	AQUEDUCT
-6.31217	AQUEDUCTS
-6.068018	AQUIFER
-6.444169	AQUIFERS
-6.444169	AQUINAS
-5.689711	AR
-6.444169	ARA
-4.55005	ARAB
-6.444169	ARABESQUES
-5.037559	ARABIA
-6.31217	ARABIAN
-6.444169	ARABIAS
-4.827565	ARABIC
-6.444169	ARABIC'S
-5.743406	ARABLE
-6.444169	ARABLES
-5.310295	ARABS
-6.444169	ARAD
-6.31217	ARAFAT
-6.444169	ARAHMAHEXCEPT
-5.689711	ARAL
-6.444169	ARAMID
-6.444169	ARANDA/LASCH
-6.444169	ARANEUS
-6.31217	ARAP
-6.444169	ARAVA
-5.743406	ARAVIND
-6.444169	ARAWAK
-6.444169	ARBERRY
-6.444169	ARBITER
-6.209422	ARBITRAGE
-5.876064	ARBITRARILY
-5.251245	ARBITRARY
-6.31217	ARBITRATION
-6.31217	ARBOR
-6.209422	ARBOREAL
-6.444169	ARBORETUM
-6.444169	ARBORIST
-6.444169	ARBORIZATIONS
-6.444169	ARBUSCULAR
-6.209422	ARBY'S
-5.310295	ARC
-6.31217	ARCADE
-6.444169	ARCADES
-6.444169	ARCADIA
-6.444169	ARCADIAN
-5.961521	ARCANE
-5.876064	ARCH
-6.068018	ARCHAEA
-6.444169	ARCHAEAS
-5.804689	ARCHAEOLOGICAL
-6.068018	ARCHAEOLOGIST
-6.209422	ARCHAEOLOGISTS
-6.068018	ARCHAEOLOGY
-5.876064	ARCHAEOPTERYX
-6.444169	ARCHAERHODOPSINS
-5.804689	ARCHAIC
-6.444169	ARCHAICALLY
-6.444169	ARCHANGEL
-6.31217	ARCHBISHOP
-6.444169	ARCHEOLOGICAL
-6.209422	ARCHEOLOGIST
-5.961521	ARCHEOLOGISTS
-6.209422	ARCHEOLOGY
-6.209422	ARCHER
-6.444169	ARCHERS
-5.961521	ARCHES
-5.961521	ARCHETYPAL
-5.743406	ARCHETYPE
-6.209422	ARCHETYPES
-5.404062	ARCHIE
-5.404062	ARCHIMEDES
-6.444169	ARCHIMEDIAN
-6.31217	ARCHING
-5.804689	ARCHIPELAGO
-4.643678	ARCHITECT
-6.209422	ARCHITECT'S
-6.444169	ARCHITECTED
-4.625876	ARCHITECTS
-4.763201	ARCHITECTURAL
-6.444169	ARCHITECTURALLY
-4.191803	ARCHITECTURE
-6.31217	ARCHITECTURE'S
-5.876064	ARCHITECTURES
-5.804689	ARCHIVAL
-4.344009	ARCHIVE
-6.209422	ARCHIVED
-5.378655	ARCHIVES
-6.31217	ARCHIVING
-6.31217	ARCHIVIO
-6.444169	ARCHIVIST
-6.444169	ARCHON
-6.444169	ARCHWAYS
-6.209422	ARCS
-4.800664	ARCTIC
-6.444169	ARDAKANI
-6.209422	ARDENT
-6.444169	ARDOR
-6.444169	ARDUCOPTER
-5.167787	ARDUINO
-6.444169	ARDUINO'S
-5.961521	ARDUOUS
-6.444169	ARDUSAT
-2.223597	ARE
-3.815514	AREA
-6.068018	AREA'S
-3.958925	AREAS
-6.31217	ARECA
-6.31217	AREMEYAW
-4.057575	AREN'T
-5.124463	ARENA
-5.64193	ARENAS
-6.444169	ARENDT
-6.444169	ARENDT'S
-5.804689	ARES
-6.444169	ARETE
-6.444169	ARETHA
-6.444169	AREVERSE
-5.289707	ARGENTINA
-6.444169	ARGENTINA'S
-6.068018	ARGENTINE
-6.209422	ARGENTINEAN
-6.444169	ARGENTINES
-6.31217	ARGENTINIAN
-6.444169	ARGH
-6.31217	ARGHS
-6.31217	ARGIOPE
-6.444169	ARGO
-6.444169	ARGON
-6.444169	ARGONAUTS
-5.404062	ARGUABLY
-4.443434	ARGUE
-5.124463	ARGUED
-5.876064	ARGUER
-6.209422	ARGUERS
-5.876064	ARGUES
-4.919991	ARGUING
-4.392154	ARGUMENT
-6.068018	ARGUMENTATION
-4.018179	ARGUMENTS
-6.444169	ARGUS
-6.31217	ARGYLL
-6.31217	ARHUACO
-6.31217	ARHUACOS
-6.068018	ARIA
-6.444169	ARIADNE
-6.444169	ARIADNE'S
-5.876064	ARIAS
-5.961521	ARID
-6.068018	ARIEL
-6.31217	ARIELY
-6.444169	ARIGATO
-6.209422	ARIS
-5.15286	ARISE
-5.876064	ARISEN
-5.404062	ARISES
-6.068018	ARISING
-5.64193	ARISTOCRACY
-6.209422	ARISTOCRATIC
-6.444169	ARISTOPHANES
-5.804689	ARISTOTELIAN
-5.037559	ARISTOTLE
-5.876064	ARISTOTLE'S
-5.270051	ARITHMETIC
-6.444169	ARITHMETICALLY
-6.444169	ARIVA
-5.310295	ARIZONA
-5.404062	ARK
-5.490641	ARKANSAS
-6.31217	ARLINGTON
-4.248285	ARM
-6.209422	ARM'S
-6.31217	ARMADA
-6.444169	ARMAMENT
-6.444169	ARMAMENTARIUM
-6.444169	ARMAMENTS
-6.444169	ARMANDO
-6.068018	ARMANI
-6.068018	ARMATURE
-6.31217	ARMATURES
-6.31217	ARMBAND
-6.444169	ARMCHAIR
-6.444169	ARMCHAIRS
-4.919991	ARMED
-6.068018	ARMENIAN
-6.31217	ARMFUL
-5.598888	ARMIES
-6.31217	ARMILLARIA
-6.31217	ARMING
-5.289707	ARMOR
-6.31217	ARMORED
-6.444169	ARMPIT
-6.444169	ARMPITS
-6.444169	ARMREST
-6.209422	ARMRESTS
-4.48237	ARMS
-5.378655	ARMSTRONG
-6.444169	ARMSTRONG'S
-4.5392	ARMY
-6.444169	ARNDT
-6.444169	ARNE
-6.31217	ARNO
-5.689711	ARNOLD
-6.444169	ARNON
-6.444169	ARO
-6.068018	AROMA
-6.444169	AROMAS
-5.876064	AROMATASE
-6.068018	AROMATIC
-6.444169	AROMATICS
-6.068018	ARON
-6.444169	AROO
-5.215916	AROSE
-3.089772	AROUND
-6.444169	AROUNDMY
-6.444169	AROUNDTHE
-5.459823	AROUSAL
-6.068018	AROUSE
-5.490641	AROUSED
-6.444169	AROUSES
-6.31217	AROUSING
-6.209422	ARPA
-6.31217	ARPANET
-6.444169	ARR
-6.444169	ARRAIGNED
-5.598888	ARRANGE
-5.459823	ARRANGED
-6.444169	ARRANGEEM
-5.331908	ARRANGEMENT
-5.431048	ARRANGEMENTS
-6.444169	ARRANGERS
-6.31217	ARRANGES
-6.209422	ARRANGING
-4.848894	ARRAY
-6.068018	ARRAYED
-5.743406	ARRAYS
-5.13843	ARREST
-4.965178	ARRESTED
-6.209422	ARRESTING
-5.804689	ARRESTS
-6.444169	ARRHENIUS
-6.444169	ARRHENIUSTHEORY
-6.444169	ARRHYTHMIA
-6.444169	ARRHYTHMIAS
-6.31217	ARRHYTHMIC
-6.31217	ARRIBA
-6.444169	ARRINGDALE
-5.459823	ARRIVAL
-6.444169	ARRIVALS
-4.834559	ARRIVE
-4.532115	ARRIVED
-5.431048	ARRIVES
-5.404062	ARRIVING
-5.598888	ARROGANCE
-5.490641	ARROGANT
-6.444169	ARRONDISSEMENT
-6.444169	ARRONDISSEMENTS
-5.167787	ARROW
-6.444169	ARROWHEAD
-5.689711	ARROWHEADS
-5.251245	ARROWS
-6.444169	ARROYO
-6.444169	ARRRRGGG
-6.209422	ARS
-5.961521	ARSE
-5.64193	ARSENAL
-6.209422	ARSENALS
-6.31217	ARSENIC
-6.209422	ARSON
-3.678858	ART
-6.444169	ART'S
-6.068018	ARTEMISIA
-6.31217	ARTEMISININ
-6.209422	ARTERIAL
-6.444169	ARTERIALS
-5.378655	ARTERIES
-6.31217	ARTERIOGRAPHY
-5.331908	ARTERY
-6.444169	ARTESIAN
-6.444169	ARTESUNATE
-6.444169	ARTFORUM
-5.961521	ARTFUL
-6.31217	ARTFULLY
-6.444169	ARTHOUSE
-6.209422	ARTHRITIC
-5.689711	ARTHRITIS
-6.444169	ARTHROPOD
-6.444169	ARTHROPODS
-5.15286	ARTHUR
-6.444169	ARTHUR'S
-6.209422	ARTIC
-4.457999	ARTICLE
-4.856243	ARTICLES
-6.31217	ARTICULAR
-5.354652	ARTICULATE
-5.689711	ARTICULATED
-6.31217	ARTICULATELY
-5.743406	ARTICULATING
-6.31217	ARTICULATION
-6.444169	ARTIE
-5.490641	ARTIFACT
-5.110932	ARTIFACTS
-5.961521	ARTIFICE
-6.444169	ARTIFICER
-4.498327	ARTIFICIAL
-6.444169	ARTIFICIALITY
-5.431048	ARTIFICIALLY
-5.689711	ARTILLERY
-6.068018	ARTISAN
-5.804689	ARTISANAL
-6.444169	ARTISANS
-4.346294	ARTIST
-5.559731	ARTIST'S
-4.813907	ARTISTIC
-6.444169	ARTISTRY
-4.367414	ARTISTS
-6.444169	ARTISTSCOLLECTIVE
-6.444169	ARTISTSRESPONSE
-4.418387	ARTS
-6.444169	ARTSY
-6.444169	ARTURO
-5.060667	ARTWORK
-5.804689	ARTWORKS
-6.444169	ARU
-6.209422	ARUM
-6.444169	ARUNACHALAM
-6.444169	ARUNGA
-6.068018	ARUP
-6.068018	ARUSHA
-6.444169	ARV
-6.444169	ARVIND
-6.31217	ARVS
-6.444169	ARYAN
-2.350096	AS
-6.31217	ASA
-6.209422	ASAHI
-6.444169	ASAMOAH
-5.961521	ASANGA
-6.068018	ASBESTOS
-6.31217	ASBESTOSIS
-6.444169	ASBURY
-6.068018	ASCAP
-5.961521	ASCEND
-6.444169	ASCENDANCY
-6.444169	ASCENDANT
-6.444169	ASCENDED
-6.444169	ASCENDENTS
-6.068018	ASCENDING
-6.209422	ASCENSION
-5.64193	ASCENT
-6.068018	ASCERTAIN
-6.31217	ASCERTAINED
-6.444169	ASCETIC
-6.444169	ASCOT
-5.961521	ASCRIBE
-6.31217	ASDFASDF
-6.444169	ASEPTIC
-6.31217	ASEXUAL
-5.64193	ASH
-5.689711	ASHA
-5.215916	ASHAMED
-5.961521	ASHANINKA
-6.31217	ASHANTI
-6.444169	ASHBURN
-6.31217	ASHBURY
-6.444169	ASHBY
-6.444169	ASHDOWN
-6.209422	ASHDOWN'S
-6.444169	ASHE
-6.444169	ASHEIKH
-6.444169	ASHEN
-5.804689	ASHES
-6.31217	ASHESI
-6.31217	ASHEVILLE
-6.444169	ASHKENAZI
-6.444169	ASHLAND
-6.31217	ASHLEIGH
-6.31217	ASHLEY
-6.209422	ASHOK
-6.068018	ASHORE
-6.31217	ASHRAF
-6.31217	ASHRAM
-6.31217	ASHTRAY
-6.444169	ASHTRAYS
-6.444169	ASHURA
-4.402458	ASIA
-6.068018	ASIA'S
-4.919991	ASIAN
-6.444169	ASIANERS
-6.209422	ASIANS
-6.444169	ASIATIC
-6.444169	ASIATICKS
-4.707157	ASIDE
-6.444169	ASIMOV
-3.58766	ASK
-6.444169	ASKABLE
-6.444169	ASKANCE
-3.657237	ASKED
-6.444169	ASKED.ARE
-6.444169	ASKEDHOW
-6.444169	ASKEDREAL
-6.444169	ASKEDWHY
-6.31217	ASKEW
-4.067104	ASKING
-6.444169	ASKINGWHENAND
-6.31217	ASKNATURE.ORG
-6.444169	ASKO
-4.946536	ASKS
-6.444169	ASKWHERE
-6.444169	ASLAM
-5.005052	ASLEEP
-6.444169	ASLI
-6.444169	ASO
-6.444169	ASOCIAL
-6.31217	ASPARAGUS
-6.31217	ASPARTAME
-6.31217	ASPCA
-4.588305	ASPECT
-4.723224	ASPECTS
-5.459823	ASPEN
-5.961521	ASPERGER
-6.068018	ASPERGER'S
-6.444169	ASPERSION
-6.444169	ASPERSIONS
-5.523813	ASPHALT
-6.209422	ASPHALTENES
-6.444169	ASPHYXIATED
-6.31217	ASPIRANTS
-6.068018	ASPIRATE
-5.270051	ASPIRATION
-5.804689	ASPIRATIONAL
-5.215916	ASPIRATIONS
-5.431048	ASPIRE
-6.31217	ASPIRED
-6.444169	ASPIRES
-6.068018	ASPIRIN
-5.743406	ASPIRING
-3.189624	ASR
-5.15286	ASS
-6.444169	ASSAD
-6.444169	ASSAILING
-6.444169	ASSAILS
-6.31217	ASSAM
-6.068018	ASSANGE
-6.444169	ASSASSIN
-5.876064	ASSASSINATED
-6.209422	ASSASSINATION
-6.209422	ASSASSINATIONS
-5.559731	ASSAULT
-6.209422	ASSAULTED
-6.444169	ASSAULTING
-6.444169	ASSAULTS
-5.743406	ASSAY
-6.31217	ASSAYED
-6.444169	ASSAYING
-6.444169	ASSAYS
-6.209422	ASSEMBLAGE
-4.965178	ASSEMBLE
-5.124463	ASSEMBLED
-6.31217	ASSEMBLER
-6.209422	ASSEMBLES
-6.444169	ASSEMBLIES
-5.404062	ASSEMBLING
-4.787814	ASSEMBLY
-6.444169	ASSENT
-6.209422	ASSERT
-6.209422	ASSERTING
-6.209422	ASSERTION
-6.31217	ASSERTIONS
-5.961521	ASSERTIVE
-6.444169	ASSERTS
-6.068018	ASSES
-5.431048	ASSESS
-6.209422	ASSESSED
-5.743406	ASSESSING
-5.15286	ASSESSMENT
-6.068018	ASSESSMENTS
-5.124463	ASSET
-4.946536	ASSETS
-6.31217	ASSHEAD
-6.31217	ASSHOLE
-6.31217	ASSHOLES
-6.444169	ASSIDUOUSLY
-5.310295	ASSIGN
-5.233222	ASSIGNED
-6.209422	ASSIGNING
-4.955757	ASSIGNMENT
-5.404062	ASSIGNMENTS
-6.444169	ASSIGNS
-6.444169	ASSIMILATE
-6.209422	ASSIMILATED
-6.444169	ASSIMILATING
-6.31217	ASSIMILATION
-6.444169	ASSISI
-5.559731	ASSIST
-5.085073	ASSISTANCE
-5.199273	ASSISTANT
-6.444169	ASSISTANT'S
-5.689711	ASSISTANTS
-5.64193	ASSISTED
-5.961521	ASSISTING
-6.31217	ASSISTIVE
-6.444169	ASSISTS
-6.444169	ASSMED
-5.09781	ASSOCIATE
-4.50159	ASSOCIATED
-6.209422	ASSOCIATES
-6.068018	ASSOCIATING
-4.903156	ASSOCIATION
-5.431048	ASSOCIATIONS
-6.444169	ASSOCIATIVE
-6.444169	ASSOCIATIVELY
-6.444169	ASSORTATIVE
-6.444169	ASSORTED
-6.209422	ASSORTMENT
-4.230381	ASSUME
-4.346294	ASSUMED
-5.404062	ASSUMES
-5.15286	ASSUMING
-4.894977	ASSUMPTION
-4.813907	ASSUMPTIONS
-5.743406	ASSURANCE
-6.31217	ASSURANCES
-5.13843	ASSURE
-5.431048	ASSURED
-6.444169	ASSUREDLY
-6.444169	ASSUREDNESS
-6.444169	ASSURES
-6.31217	ASSURING
-6.31217	ASTAIRE
-6.444169	ASTAIRES
-6.31217	ASTERISK
-6.444169	ASTERISKS
-4.937507	ASTEROID
-6.444169	ASTEROIDAL
-5.233222	ASTEROIDS
-6.444169	ASTHENOSPHERE
-5.13843	ASTHMA
-5.689711	ASTHMATIC
-6.444169	ASTIGMATIC
-6.444169	ASTLEY
-6.444169	ASTLEY'S
-6.209422	ASTON
-5.598888	ASTONISHED
-6.444169	ASTONISHES
-4.894977	ASTONISHING
-5.64193	ASTONISHINGLY
-5.876064	ASTONISHMENT
-6.31217	ASTOR
-6.444169	ASTORIA
-6.068018	ASTOUNDED
-5.459823	ASTOUNDING
-6.209422	ASTOUNDINGLY
-6.444169	ASTRAL
-6.068018	ASTRAY
-6.444169	ASTRAZENECA
-6.444169	ASTRIDE
-6.31217	ASTRO
-6.31217	ASTROBIOLOGY
-6.444169	ASTROCHIMP
-6.444169	ASTROCYTES
-5.559731	ASTROLABE
-5.876064	ASTROLABES
-6.31217	ASTROLOGER
-6.31217	ASTROLOGERS
-6.31217	ASTROLOGICAL
-5.961521	ASTROLOGY
-5.598888	ASTRONAUT
-5.378655	ASTRONAUTS
-5.523813	ASTRONOMER
-5.183244	ASTRONOMERS
-6.444169	ASTRONOMERSRESULTS
-6.444169	ASTRONOMIC
-5.233222	ASTRONOMICAL
-6.31217	ASTRONOMICALLY
-6.444169	ASTRONOMIQUE
-5.110932	ASTRONOMY
-6.444169	ASTRONOMY'S
-6.444169	ASTROPHYSICAL
-6.444169	ASTROPHYSICALLY
-6.444169	ASTROPHYSICIST
-6.444169	ASTROPHYSICISTS
-6.068018	ASTROPHYSICS
-6.444169	ASTROSEISMOLOGY
-5.961521	ASTROTURF
-6.068018	ASTROTURFING
-6.209422	ASTUTE
-6.444169	ASU
-6.444169	ASWAN
-6.444169	ASWRITHING
-5.64193	ASYLUM
-6.444169	ASYLUMS
-5.876064	ASYMMETRIC
-5.64193	ASYMMETRICAL
-6.444169	ASYMMETRICALLY
-6.068018	ASYMMETRY
-6.209422	ASYMPTOMATIC
-6.444169	ASYMPTOTICALLY
-6.444169	ASYNCHRONISTIC
-2.464513	AT
-6.444169	AT96
-6.209422	ATA
-5.961521	ATACAMA
-6.209422	ATALA
-6.444169	ATALA'S
-6.444169	ATALANTA
-6.209422	ATARI
-6.068018	ATATURK
-6.209422	ATAVISM
-6.31217	ATAVISMS
-6.444169	ATAXIA
-4.728714	ATE
-6.444169	ATECH
-5.804689	ATHABASCA
-6.444169	ATHANS
-5.743406	ATHEISM
-5.270051	ATHEIST
-6.444169	ATHEISTIC
-5.378655	ATHEISTS
-6.444169	ATHELETE
-6.444169	ATHENA
-6.209422	ATHENIAN
-5.876064	ATHENS
-6.444169	ATHEROSCLEROSIS
-5.331908	ATHLETE
-6.444169	ATHLETEPATH
-5.233222	ATHLETES
-5.431048	ATHLETIC
-5.961521	ATHLETICISM
-6.209422	ATHLETICS
-6.444169	ATI
-6.444169	ATIF
-6.444169	ATILLA
-6.444169	ATJEOPARDY.ARE
-5.743406	ATKINS
-5.026451	ATLANTA
-4.781529	ATLANTIC
-5.559731	ATLAS
-6.444169	ATLASES
-6.209422	ATLASSIAN
-5.64193	ATM
-4.332763	ATMOSPHERE
-6.444169	ATMOSPHERE'S
-5.689711	ATMOSPHERES
-5.310295	ATMOSPHERIC
-5.961521	ATMS
-6.209422	ATOLL
-6.31217	ATOLLA
-6.209422	ATOLLS
-5.026451	ATOM
-4.919991	ATOMIC
-6.444169	ATOMICALLY
-6.444169	ATOMICS
-6.444169	ATOMIZE
-5.961521	ATOMIZED
-6.444169	ATOMIZING
-4.568756	ATOMS
-6.444169	ATONAL
-6.068018	ATOP
-6.444169	ATP
-6.444169	ATR
-5.310295	ATRAZINE
-6.444169	ATRIA
-6.31217	ATRIAL
-6.31217	ATRIUM
-6.068018	ATROCIOUS
-5.523813	ATROCITIES
-6.209422	ATROCITY
-6.068018	ATROPHIED
-6.444169	ATROPHIES
-6.209422	ATROPHY
-5.961521	ATT
-6.444169	ATT'S
-6.31217	ATTA
-6.444169	ATTA'S
-4.337227	ATTACH
-4.024684	ATTACHED
-6.068018	ATTACHES
-6.209422	ATTACHING
-4.089343	ATTACHMENT
-6.31217	ATTACHMENTS
-4.337227	ATTACK
-5.015619	ATTACKED
-5.598888	ATTACKER
-6.444169	ATTACKER'S
-6.068018	ATTACKERS
-5.110932	ATTACKING
-4.696766	ATTACKS
-5.876064	ATTAIN
-5.961521	ATTAINED
-5.876064	ATTAINMENT
-6.209422	ATTAINS
-4.625876	ATTEMPT
-5.331908	ATTEMPTED
-5.378655	ATTEMPTING
-5.167787	ATTEMPTS
-5.804689	ATTENBOROUGH
-5.215916	ATTEND
-5.378655	ATTENDANCE
-5.876064	ATTENDANT
-5.490641	ATTENDED
-6.444169	ATTENDEE
-6.068018	ATTENDEES
-5.523813	ATTENDING
-6.209422	ATTENDS
-6.444169	ATTENTAT
-3.991066	ATTENTION
-6.444169	ATTENTIONAL
-5.961521	ATTENTIVE
-6.209422	ATTENTIVENESS
-6.209422	ATTENUATE
-6.31217	ATTENUATED
-6.444169	ATTENUATES
-6.31217	ATTENUATION
-6.444169	ATTENUATORS
-6.31217	ATTEST
-6.444169	ATTESTED
-6.444169	ATTESTING
-5.804689	ATTIC
-6.444169	ATTICS
-6.444169	ATTICUS
-6.31217	ATTIRE
-6.444169	ATTIRED
-4.886949	ATTITUDE
-5.037559	ATTITUDES
-5.598888	ATTORNEY
-6.444169	ATTORNEY'S
-6.209422	ATTORNEYS
-4.820683	ATTRACT
-6.444169	ATTRACTANTS
-5.072698	ATTRACTED
-5.490641	ATTRACTING
-5.199273	ATTRACTION
-4.903156	ATTRACTIVE
-6.209422	ATTRACTIVENESS
-6.068018	ATTRACTS
-5.876064	ATTRIBUTABLE
-5.289707	ATTRIBUTE
-5.490641	ATTRIBUTED
-3.919465	ATTRIBUTES
-6.444169	ATTRIBUTING
-6.209422	ATTRIBUTION
-6.444169	ATTRIBUTIONS
-5.961521	ATTUNED
-6.444169	ATUL
-6.31217	ATWOOD
-6.444169	ATYPICAL
-5.598888	AU
-5.961521	AUBREY
-6.444169	AUCA
-6.31217	AUCKLAND
-5.404062	AUCTION
-6.444169	AUCTIONEER
-6.31217	AUCTIONEERS
-6.444169	AUCTIONEERSSPECIFICATIONS
-6.209422	AUCTIONS
-5.64193	AUDACIOUS
-5.598888	AUDACITY
-6.209422	AUDEN
-6.31217	AUDI
-5.804689	AUDIBLE
-3.880934	AUDIENCE
-6.209422	AUDIENCE'S
-4.903156	AUDIENCES
-3.132543	AUDIO
-6.444169	AUDIOPHILE
-6.444169	AUDIOVISUAL
-6.444169	AUDIOVISUALS
-6.444169	AUDIS
-5.876064	AUDIT
-6.444169	AUDITING
-5.689711	AUDITION
-5.961521	AUDITIONED
-6.444169	AUDITIONING
-6.31217	AUDITIONS
-6.444169	AUDITORILY
-5.270051	AUDITORIUM
-6.31217	AUDITORIUMS
-6.31217	AUDITORS
-5.354652	AUDITORY
-6.444169	AUDRE
-6.209422	AUDUBON
-6.444169	AUDUR
-6.209422	AUENBRUGGER
-6.444169	AUFGERÄUMTE
-6.444169	AUGER
-5.598888	AUGMENT
-5.743406	AUGMENTATION
-6.444169	AUGMENTATIONS
-5.270051	AUGMENTED
-5.876064	AUGMENTING
-6.444169	AUGMENTS
-6.444169	AUGUGLIARO
-4.984658	AUGUST
-6.31217	AUGUSTEN
-5.689711	AUGUSTINE
-6.444169	AUK
-5.876064	AUNG
-5.331908	AUNT
-6.31217	AUNT'S
-6.209422	AUNTIE
-5.876064	AUNTIES
-5.876064	AUNTS
-5.378655	AURA
-6.444169	AURANGABAD
-6.444169	AURAS
-6.31217	AURASMA
-6.209422	AURELIUS
-6.444169	AUREOLUS
-6.444169	AURIGNACIAN
-5.804689	AUROCHS
-5.459823	AURORA
-6.31217	AURORA'S
-6.31217	AURUMQUE
-6.444169	AUSANGATE
-5.598888	AUSCHWITZ
-6.31217	AUSCULTATION
-6.444169	AUSPICES
-6.444169	AUSPICIOUS
-6.444169	AUSPICIOUSLY
-6.068018	AUSTEN
-6.444169	AUSTERE
-6.444169	AUSTERELY
-5.876064	AUSTERITY
-5.490641	AUSTIN
-6.444169	AUSTRALASIA
-6.444169	AUSTRALASIANS
-4.514893	AUSTRALIA
-6.444169	AUSTRALIA'S
-5.289707	AUSTRALIAN
-5.689711	AUSTRALIANS
-6.068018	AUSTRALOPITHECINE
-6.444169	AUSTRALOPITHECINES
-6.068018	AUSTRALOPITHECUS
-5.354652	AUSTRIA
-5.689711	AUSTRIAN
-6.31217	AUSTRO
-6.444169	AUSUBEL
-6.444169	AUTEM
-5.026451	AUTHENTIC
-6.209422	AUTHENTICALLY
-6.31217	AUTHENTICATE
-6.444169	AUTHENTICATING
-6.209422	AUTHENTICATION
-5.060667	AUTHENTICITY
-4.827565	AUTHOR
-6.444169	AUTHOR'S
-5.961521	AUTHORED
-5.961521	AUTHORING
-5.124463	AUTHORITARIAN
-6.068018	AUTHORITARIANISM
-6.068018	AUTHORITATIVE
-4.903156	AUTHORITIES
-4.643678	AUTHORITY
-6.444169	AUTHORITY/RESPECT
-6.068018	AUTHORIZATION
-5.64193	AUTHORIZED
-4.332763	AUTHORS
-6.068018	AUTHORSHIP
-6.444169	AUTHORSPHOTOS
-4.751399	AUTISM
-6.444169	AUTISMWHAT
-5.289707	AUTISTIC
-6.444169	AUTISTS
-5.233222	AUTO
-5.559731	AUTOBIOGRAPHICAL
-6.068018	AUTOBIOGRAPHY
-6.444169	AUTOCRACIES
-6.209422	AUTOCRACY
-6.444169	AUTOCRAT
-5.876064	AUTOCRATIC
-5.876064	AUTODESK
-6.209422	AUTOGRAPH
-6.444169	AUTOGRAPHS
-6.444169	AUTOGYROS
-6.209422	AUTOIMMUNE
-6.31217	AUTOM
-6.444169	AUTOMAKER
-6.31217	AUTOMAKERS
-6.444169	AUTOMATA
-5.689711	AUTOMATE
-4.365016	AUTOMATED
-3.922044	AUTOMATIC
-3.675423	AUTOMATICALLY
-4.394707	AUTOMATION
-6.444169	AUTOMATON
-4.994735	AUTOMOBILE
-5.199273	AUTOMOBILES
-5.354652	AUTOMOTIVE
-6.209422	AUTONOMIC
-4.813907	AUTONOMOUS
-5.490641	AUTONOMOUSLY
-5.060667	AUTONOMY
-6.068018	AUTOPILOT
-5.961521	AUTOPSIES
-5.559731	AUTOPSY
-6.444169	AUTORICKSHAW
-5.598888	AUTOS
-6.444169	AUTOSHOP
-6.444169	AUTREY
-5.64193	AUTUMN
-6.31217	AUV
-6.444169	AUXILIARY
-5.331908	AV
-5.743406	AVAIL
-5.289707	AVAILABILITY
-4.042521	AVAILABLE
-6.31217	AVALANCHE
-6.444169	AVALANCHING
-6.31217	AVALOKITESHVARA
-6.444169	AVALOKITESVARA
-6.31217	AVALON
-5.876064	AVANT
-6.444169	AVARICIOUS
-6.444169	AVASTIN
-5.13843	AVATAR
-6.444169	AVATAR'S
-5.743406	AVATARS
-6.444169	AVC
-5.961521	AVELILE
-6.444169	AVELILE'S
-5.804689	AVELING
-6.31217	AVELING'S
-6.444169	AVENGE
-6.444169	AVENGING
-6.444169	AVENTIS
-5.233222	AVENUE
-6.31217	AVENUES
-3.974211	AVERAGE
-6.209422	AVERAGED
-5.743406	AVERAGES
-5.961521	AVERAGING
-5.64193	AVERSE
-5.523813	AVERSION
-6.31217	AVERSIVE
-6.444169	AVERSIVELY
-5.64193	AVERT
-6.209422	AVERTED
-6.444169	AVERY
-6.444169	AVEY
-6.444169	AVGAS
-6.444169	AVI
-5.251245	AVIAN
-5.378655	AVIATION
-6.444169	AVIATION'S
-6.444169	AVIATORS
-6.444169	AVICENNA
-5.876064	AVID
-6.31217	AVIDIANS
-6.31217	AVIDLY
-6.444169	AVIGNON
-6.31217	AVIONICS
-6.444169	AVIRULENCE
-6.444169	AVIS
-5.559731	AVIV
-6.444169	AVOGADRO'S
-4.479248	AVOID
-6.444169	AVOIDABLE
-5.743406	AVOIDANCE
-6.444169	AVOIDANTLY
-5.598888	AVOIDED
-5.404062	AVOIDING
-6.068018	AVOIDS
-6.444169	AVON
-6.444169	AVPR1
-6.209422	AVRIL
-6.444169	AVULSION
-6.444169	AVUNCLEAR
-6.31217	AVUNCULAR
-5.804689	AW
-6.209422	AWAIT
-6.444169	AWAITED
-6.068018	AWAITING
-6.068018	AWAITS
-5.167787	AWAKE
-6.068018	AWAKEN
-5.961521	AWAKENED
-5.743406	AWAKENING
-6.31217	AWAKENS
-4.946536	AWARD
-5.459823	AWARDED
-5.354652	AWARDS
-4.276607	AWARE
-4.56495	AWARENESS
-6.31217	AWASH
-3.431952	AWAY
-6.444169	AWAY.AS
-6.444169	AWAYS
-5.037559	AWE
-4.717802	AWESOME
-6.444169	AWESOMELY
-4.488683	AWFUL
-5.689711	AWFULLY
-5.961521	AWHILE
-3.943251	AWK
-5.072698	AWKWARD
-6.31217	AWKWARDLY
-5.804689	AWKWARDNESS
-6.444169	AWL
-6.444169	AWLAKI
-6.444169	AWNING
-6.31217	AWOKE
-6.444169	AWOKEN
-6.444169	AWOL
-6.444169	AWOLOWO
-6.444169	AWOSIKA
-5.876064	AWRY
-6.444169	AWS
-6.31217	AWTIN
-6.31217	AWW
-6.31217	AWWW
-6.444169	AWWWW
-6.068018	AX
-5.559731	AXE
-6.068018	AXELROD
-5.233222	AXES
-6.31217	AXIAL
-6.444169	AXILLA
-6.209422	AXILLARY
-6.31217	AXIOM
-6.209422	AXIOMATIC
-6.444169	AXIOMATICALLY
-6.444169	AXIOMS
-6.444169	AXION
-4.56495	AXIS
-6.444169	AXISES
-6.068018	AXLE
-6.209422	AXLES
-6.444169	AXOLOTL
-6.068018	AXON
-6.31217	AXONAL
-6.444169	AXONS
-6.444169	AYATOLLAH
-6.444169	AYATOLLAHS
-6.31217	AYDAH
-5.490641	AYE
-6.068018	AYELET
-6.444169	AYERS
-6.444169	AYKROYD
-6.444169	AYLING
-6.444169	AYLWARD
-6.444169	AYMAN
-5.961521	AYN
-6.444169	AYURVEDA
-5.689711	AZERBAIJAN
-6.444169	AZIZA
-6.31217	AZMI
-6.444169	AZORES
-6.444169	AZRA
-6.444169	AZT
-6.444169	AZTEC
-6.31217	AZTECS
-6.444169	AZUBARE
-6.444169	AZUNGU
-6.31217	AZURE
-6.444169	AZZAM'S
-6.444169	A\AND
-4.434924	B
-6.209422	B'S
-6.31217	B)
-6.444169	B+
-5.331908	B.C
-6.31217	B.J
-6.31217	B.P
-6.31217	B.S
-6.444169	B.T
-6.444169	B1
-6.209422	B12
-6.31217	B15
-6.444169	B2
-6.31217	B92
-6.068018	BA
-6.444169	BA'S
-6.444169	BA146
-6.444169	BAAL
-6.444169	BAB
-5.876064	BABA
-6.444169	BABA'S
-6.31217	BABAS
-5.331908	BABBAGE
-5.689711	BABBAGE'S
-5.961521	BABBLE
-6.444169	BABBLED
-6.444169	BABCOCK
-5.804689	BABE
-6.068018	BABEL
-6.31217	BABES
-6.444169	BABES.AND
-4.344009	BABIES
-6.444169	BABIESACUITY
-6.444169	BABIESBODIES
-6.209422	BABIESBOTTLES
-6.444169	BABIESTOYS
-6.444169	BABIRUSA
-6.444169	BABLYON
-6.209422	BABOON
-6.31217	BABOONS
-6.31217	BABRI
-6.444169	BABUR
-6.444169	BABUSHKA
-6.31217	BABUSHKAS
-4.084302	BABY
-5.354652	BABY'S
-6.444169	BABYCAM
-6.444169	BABYCENTER
-6.444169	BABYHOOD
-6.444169	BABYIES
-5.378655	BABYLON
-6.444169	BABYLONIA
-5.743406	BABYLONIAN
-6.209422	BABYLONIANS
-6.444169	BABYSIR
-6.444169	BABYSIT
-6.31217	BABYSITTER
-6.444169	BABYSITTER'S
-5.876064	BABYSITTERS
-6.068018	BABYSITTING
-6.444169	BACCALAUREATE
-6.068018	BACCHANAL
-6.444169	BACCHUS
-5.64193	BACH
-6.444169	BACH'S
-6.444169	BACHA
-6.444169	BACHELET
-6.31217	BACHELOR
-5.876064	BACHELOR'S
-6.444169	BACHELORED
-6.444169	BACHELORS
-6.444169	BACILLI
-6.068018	BACILLUS
-3.010012	BACK
-6.444169	BACK.HE
-6.444169	BACK.THE
-5.743406	BACKBONE
-6.444169	BACKBONED
-6.444169	BACKBREAKING
-6.444169	BACKCAST
-6.068018	BACKDOOR
-6.444169	BACKDOORING
-5.804689	BACKDROP
-5.310295	BACKED
-6.444169	BACKEND
-6.31217	BACKER
-6.444169	BACKFIRE
-6.444169	BACKFIRED
-4.405072	BACKGROUND
-5.270051	BACKGROUNDS
-6.444169	BACKHANDED
-6.444169	BACKHAUL
-6.209422	BACKHOE
-5.523813	BACKING
-6.209422	BACKLASH
-6.444169	BACKLIGHTING
-5.743406	BACKLIT
-6.209422	BACKLOG
-5.431048	BACKPACK
-6.444169	BACKPACKED
-6.444169	BACKPACKER
-6.31217	BACKPACKING
-6.209422	BACKPACKS
-6.444169	BACKPEDALED
-6.444169	BACKPEDALING
-6.444169	BACKROOM
-6.444169	BACKROOMS
-5.233222	BACKS
-6.444169	BACKSCATTER
-6.068018	BACKSEAT
-6.444169	BACKSEATS
-5.804689	BACKSIDE
-5.431048	BACKSTAGE
-6.444169	BACKSTORIES
-6.444169	BACKSTORY
-6.31217	BACKSTREET
-6.444169	BACKSTROKE
-6.31217	BACKTRACK
-5.354652	BACKUP
-6.209422	BACKUPS
-5.354652	BACKWARD
-4.745616	BACKWARDS
-6.444169	BACKWATER
-6.444169	BACKWOODS
-5.015619	BACKYARD
-5.961521	BACKYARDS
-5.598888	BACON
-6.444169	BACON'S
-6.444169	BACONBM
-6.444169	BACTARIAN
-4.209826	BACTERIA
-6.444169	BACTERIA'S
-4.984658	BACTERIAL
-6.444169	BACTERIALS
-6.444169	BACTERIAS
-6.209422	BACTERICIDE
-6.209422	BACTERIOPHAGE
-5.110932	BACTERIUM
-6.444169	BACUS
-3.62867	BAD
-6.444169	BADAL
-6.31217	BADASS
-6.444169	BADE
-5.559731	BADGE
-6.444169	BADGED
-6.444169	BADGER'S
-6.444169	BADGERED
-6.444169	BADGERING
-6.444169	BADGERS
-6.068018	BADGES
-6.444169	BADGING
-6.209422	BADLANDS
-4.919991	BADLY
-6.444169	BADMOUTH
-6.444169	BADNESS
-6.444169	BADYLAK
-6.444169	BAE
-6.444169	BAECHLER
-6.444169	BAEHR
-6.31217	BAER
-6.31217	BAFANA
-6.444169	BAFFIN
-6.209422	BAFFLED
-6.444169	BAFFLEMENT
-6.209422	BAFFLES
-6.31217	BAFFLING
-4.671828	BAG
-6.31217	BAGASSE
-6.068018	BAGEL
-6.209422	BAGELS
-5.743406	BAGGAGE
-6.444169	BAGGER
-6.444169	BAGGIES
-6.444169	BAGGINESS
-6.444169	BAGGING
-6.444169	BAGGIO
-6.068018	BAGGY
-5.523813	BAGHDAD
-6.444169	BAGHEAD
-6.444169	BAGHEADS
-6.444169	BAGPIPE
-4.984658	BAGS
-6.444169	BAGUETTE
-5.459823	BAHAMAS
-6.444169	BAHIA
-6.31217	BAHRAIN
-6.444169	BAHS
-6.444169	BAHU
-6.31217	BAHUBALI
-6.444169	BAI
-6.31217	BAIDU
-6.31217	BAIKAL
-5.961521	BAIL
-6.209422	BAILEY
-6.444169	BAILING
-5.64193	BAILOUT
-6.068018	BAILOUTS
-6.444169	BAIN
-6.444169	BAINES
-5.559731	BAIT
-6.31217	BAITED
-6.444169	BAITFISH
-6.31217	BAJA
-6.444169	BAJA'S
-6.444169	BAJILLION
-6.444169	BAKARAY
-5.459823	BAKE
-5.559731	BAKED
-5.378655	BAKER
-6.068018	BAKER'S
-6.209422	BAKERIES
-6.209422	BAKERS
-5.331908	BAKERY
-6.444169	BAKES
-5.559731	BAKING
-6.444169	BAKINO
-6.31217	BAKU
-6.444169	BALA
-6.444169	BALAKRISHNAN
-4.405072	BALANCE
-6.444169	BALANCE.IF
-5.124463	BALANCED
-6.444169	BALANCER
-6.444169	BALANCERS
-5.459823	BALANCES
-5.310295	BALANCING
-6.444169	BALASUBRAMANIAM
-6.444169	BALBOA
-5.523813	BALCONIES
-5.523813	BALCONY
-5.559731	BALD
-6.444169	BALDESSARI
-6.209422	BALDING
-6.068018	BALDNESS
-6.31217	BALDWIN
-6.444169	BALDWIN'S
-5.961521	BALE
-6.068018	BALEEN
-6.444169	BALEFUL
-6.444169	BALENCIAGA
-6.444169	BALERS
-6.444169	BALES
-6.444169	BALFOUR
-5.523813	BALI
-6.31217	BALI'S
-6.444169	BALIKPAPAN
-5.804689	BALINESE
-6.209422	BALK
-6.444169	BALKAN
-5.490641	BALKANS
-6.31217	BALKED
-6.444169	BALKH
-4.394707	BALL
-6.209422	BALLADS
-6.444169	BALLARD
-5.490641	BALLAST
-6.444169	BALLASTED
-6.31217	BALLBOT
-6.444169	BALLBOTS
-6.444169	BALLED
-6.209422	BALLERINA
-5.233222	BALLET
-6.444169	BALLETIC
-6.444169	BALLETS
-5.961521	BALLISTIC
-5.876064	BALLISTICS
-6.31217	BALLMER
-6.444169	BALLMER'S
-4.686619	BALLOON
-6.068018	BALLOONING
-6.31217	BALLOONIST
-5.251245	BALLOONS
-5.431048	BALLOT
-6.444169	BALLOTS
-6.31217	BALLPARK
-6.444169	BALLPLAYER
-6.31217	BALLPOINT
-5.743406	BALLROOM
-6.444169	BALLROOMS
-4.974809	BALLS
-6.444169	BALLSY
-6.31217	BALM
-6.444169	BALMS
-6.31217	BALMY
-6.444169	BALOCHI
-6.444169	BALOCHISTAN
-6.444169	BALOGUN
-5.804689	BALONEY
-6.444169	BALSARA
-5.559731	BALTIMORE
-5.598888	BAM
-6.31217	BAMAKO
-6.209422	BAMANA
-6.444169	BAMBARA
-6.068018	BAMBI
-5.215916	BAMBOO
-6.444169	BAMBOOZLED
-6.068018	BAMIYAN
-6.444169	BAMUM
-5.183244	BAN
-5.598888	BANAL
-6.068018	BANALITY
-5.354652	BANANA
-5.251245	BANANAS
-4.608776	BAND
-6.068018	BANDAGE
-5.743406	BANDAGES
-6.444169	BANDAGING
-6.444169	BANDANA
-6.209422	BANDED
-5.961521	BANDING
-6.31217	BANDIT
-6.444169	BANDITRY
-6.31217	BANDITS
-5.331908	BANDS
-5.961521	BANDSTAND
-6.444169	BANDUNDU
-5.689711	BANDURA
-6.31217	BANDURA'S
-6.31217	BANDWAGON
-6.444169	BANDWAGONING
-5.167787	BANDWIDTH
-6.444169	BANDYING
-6.444169	BANE
-6.444169	BANFF
-4.572596	BANG
-5.199273	BANGALORE
-5.961521	BANGED
-5.64193	BANGING
-6.444169	BANGKOK
-4.984658	BANGLADESH
-5.961521	BANGLADESHI
-6.444169	BANGLADESHIS
-6.31217	BANGLES
-6.209422	BANGOORA
-5.743406	BANGS
-5.961521	BANISHED
-6.444169	BANISHES
-6.444169	BANISHING
-6.444169	BANISHMENT
-5.251245	BANJO
-6.444169	BANJOS
-4.26316	BANK
-6.31217	BANK'S
-6.31217	BANKED
-5.331908	BANKER
-5.215916	BANKERS
-6.444169	BANKFRAUDS@YAHOO.CO.UK
-4.994735	BANKING
-6.31217	BANKNOTES
-6.444169	BANKROLLED
-5.689711	BANKRUPT
-6.444169	BANKRUPTCIES
-5.961521	BANKRUPTCY
-6.444169	BANKRUPTING
-4.763201	BANKS
-6.444169	BANKSY
-6.444169	BANKURA
-5.199273	BANNED
-5.961521	BANNER
-6.444169	BANNERS
-5.876064	BANNING
-6.444169	BANO
-6.444169	BANQUET
-6.31217	BANQUETING
-6.444169	BANQUETS
-6.444169	BANS
-6.31217	BANTENG
-6.444169	BANTERINGLY
-6.444169	BANTING
-6.31217	BANU
-6.444169	BANYAN
-6.209422	BAO
-6.209422	BAOBAB
-6.31217	BAOBABS
-6.444169	BAOSTEEL
-6.31217	BAPTIST
-6.444169	BAPTISTE
-6.444169	BAPTIZE
-6.209422	BAPTIZED
-4.580379	BAR
-5.270051	BARACK
-6.444169	BARAGWANATH
-6.444169	BARAN
-6.31217	BARANIUK
-6.444169	BARATAS
-5.431048	BARBARA
-5.804689	BARBARIA
-6.209422	BARBARIANS
-5.743406	BARBARIC
-6.444169	BARBARICALLY
-6.31217	BARBARISM
-5.743406	BARBECUE
-6.444169	BARBECUE'S
-6.444169	BARBECUED
-6.31217	BARBED
-6.209422	BARBEL
-6.444169	BARBELLS
-5.689711	BARBER
-6.31217	BARBERS
-6.444169	BARBERSHOP
-6.444169	BARBERSHOPS
-6.444169	BARBERTON
-6.444169	BARBICAN
-5.459823	BARBIE
-6.444169	BARBIE.COM
-6.444169	BARBIES
-5.961521	BARBS
-5.689711	BARCELONA
-6.444169	BARCHAN
-6.209422	BARCLAYS
-5.64193	BARCODE
-6.444169	BARCODED
-6.444169	BARCODES
-6.068018	BARCODING
-6.31217	BARD
-5.215916	BARE
-5.310295	BAREFOOT
-4.820683	BARELY
-5.64193	BARGAIN
-5.804689	BARGAINING
-5.876064	BARGE
-6.444169	BARGED
-6.31217	BARGES
-6.444169	BARGHOUTI
-6.444169	BARIATRIC
-6.31217	BARIL
-6.444169	BARING
-6.444169	BARISAL
-6.444169	BARITONE
-6.444169	BARIUM
-6.444169	BARJACKS
-5.459823	BARK
-6.444169	BARKED
-6.444169	BARKER
-5.961521	BARKING
-6.444169	BARKSDALE
-6.068018	BARLEY
-6.444169	BARMAID
-5.64193	BARN
-6.444169	BARNABY
-6.31217	BARNACLES
-6.31217	BARNARD
-6.068018	BARNETT
-6.31217	BARNEY
-6.444169	BARNO'S
-6.444169	BARNUM
-6.31217	BAROMETER
-6.209422	BAROMETRIC
-5.961521	BARON
-6.444169	BARONS
-5.961521	BAROQUE
-6.444169	BARQUISIMETO
-6.444169	BARRACK
-6.209422	BARRACKS
-6.31217	BARRACUDA
-5.961521	BARRAGE
-6.444169	BARRAGED
-6.444169	BARRED
-5.005052	BARREL
-5.183244	BARRELS
-5.689711	BARREN
-6.209422	BARRICADES
-6.444169	BARRICADING
-5.961521	BARRICELLI
-6.444169	BARRICELLI'S
-6.31217	BARRICINI
-4.911492	BARRIER
-5.048959	BARRIERS
-6.209422	BARRING
-6.31217	BARROSO
-6.209422	BARROW
-5.331908	BARRY
-6.444169	BARRYMORE
-4.800664	BARS
-6.209422	BART
-6.444169	BART'S
-6.444169	BARTENDER
-6.444169	BARTENDERS
-5.961521	BARTER
-6.444169	BARTERED
-6.444169	BARTERING
-6.444169	BARTHES
-6.444169	BARTLETT
-6.31217	BARTOK
-6.068018	BARTOK'S
-6.444169	BARTON
-6.444169	BARWARE
-6.068018	BARÓN
-6.31217	BAS
-6.444169	BASAL
-6.31217	BASALT
-6.444169	BASALTIC
-6.444169	BASALTS
-6.444169	BASANTI
-4.108787	BASE
-4.781529	BASEBALL
-3.57779	BASED
-5.876064	BASEL
-5.15286	BASELINE
-6.444169	BASELINES
-6.209422	BASELOAD
-5.124463	BASEMENT
-6.068018	BASEMENTS
-4.4211	BASENAME
-5.459823	BASES
-3.640683	BASH
-5.961521	BASHED
-6.444169	BASHER
-6.444169	BASHFUL
-6.209422	BASHING
-6.31217	BASHO
-4.091886	BASIC
-3.549825	BASICALLY
-4.367414	BASICS
-6.31217	BASIE
-5.961521	BASIL
-5.167787	BASIN
-4.4211	BASING
-6.068018	BASINGSTOKE
-6.068018	BASINS
-4.346294	BASIS
-5.961521	BASIT
-6.209422	BASK
-5.251245	BASKET
-5.199273	BASKETBALL
-5.804689	BASKETS
-5.13843	BASKING
-6.444169	BASKS
-6.444169	BASMALA
-6.068018	BASQUE
-6.444169	BASQUIAT
-6.444169	BASRA
-6.444169	BASRI
-5.431048	BASS
-6.31217	BASSES
-6.444169	BASSINET
-6.444169	BASSIST
-6.31217	BASSISTS
-6.444169	BASSMOBILES
-6.209422	BASTARD
-6.444169	BASTARDIZATION
-6.444169	BASTARDIZED
-5.876064	BASTARDS
-6.444169	BASTARDY
-6.31217	BASTILLE
-6.444169	BASU
-4.903156	BAT
-6.31217	BAT'S
-6.444169	BATALI
-6.444169	BATCAVE
-5.490641	BATCH
-6.444169	BATCHES
-6.444169	BATCHING
-6.444169	BATED
-6.444169	BATES
-6.068018	BATESON
-6.444169	BATESON'S
-5.251245	BATH
-5.64193	BATHE
-5.598888	BATHED
-6.209422	BATHES
-5.743406	BATHING
-6.444169	BATHROBE
-5.005052	BATHROOM
-5.804689	BATHROOMS
-6.31217	BATHS
-5.598888	BATHTUB
-6.444169	BATHWATER
-6.444169	BATHYMETRY
-6.209422	BATINA
-5.961521	BATIUK
-5.490641	BATMAN
-5.743406	BATON
-4.769225	BATS
-6.444169	BATSHIT
-6.31217	BATSMAN
-6.444169	BATSMEN
-6.068018	BATTALION
-6.209422	BATTALIONS
-6.444169	BATTED
-6.444169	BATTELLE
-6.444169	BATTER
-5.559731	BATTERED
-6.444169	BATTERER
-4.974809	BATTERIES
-6.444169	BATTERS
-4.50159	BATTERY
-6.31217	BATTERY'S
-6.068018	BATTING
-6.31217	BATTISTA
-6.444169	BATTISTI
-4.553727	BATTLE
-6.444169	BATTLED
-5.354652	BATTLEFIELD
-5.961521	BATTLEFIELDS
-6.209422	BATTLEGROUND
-5.378655	BATTLES
-6.444169	BATTLESHIP
-6.444169	BATTLESHIPS
-6.31217	BATTLESTAR
-5.559731	BATTLING
-6.444169	BATUIK
-6.31217	BATUR
-6.444169	BAUBLES
-6.444169	BAUDELAIRE
-6.209422	BAUER
-6.31217	BAUHAUS
-6.31217	BAUMGARDNER
-6.444169	BAUMGARTEL
-6.444169	BAUMGARTNER
-6.444169	BAVARIAN
-6.444169	BAVELIER
-6.31217	BAWLING
-5.64193	BAXTER
-6.31217	BAXTER'S
-4.728714	BAY
-6.444169	BAYA
-6.444169	BAYER
-6.068018	BAYES
-6.444169	BAYES'S
-5.876064	BAYESIAN
-6.209422	BAYESRULE
-6.31217	BAYLEY
-6.31217	BAYONET
-6.444169	BAYONETS
-6.444169	BAYRIDGE
-6.444169	BAYS
-6.444169	BAYVIEW
-6.31217	BAZAAR
-6.444169	BAZAARIES
-6.444169	BAZAARISTAN
-6.31217	BAZAARS
-6.068018	BAZOOKA
-6.444169	BAZZI
-6.31217	BB
-5.404062	BBC
-6.444169	BBC'S
-6.209422	BBM
-6.444169	BBN.COM
-6.444169	BBUT
-5.289707	BC
-6.209422	BCG
-6.444169	BCI
-6.444169	BCOME
-6.068018	BD
-2.301091	BE
-6.444169	BE.AT
-4.5392	BEACH
-6.444169	BEACHCASTER
-6.444169	BEACHCOMBING
-5.289707	BEACHES
-6.068018	BEACON
-6.209422	BEACONS
-6.068018	BEAD
-5.598888	BEADS
-6.31217	BEAGLE
-5.876064	BEAK
-6.209422	BEAKER
-6.31217	BEAKERS
-6.068018	BEAKS
-6.444169	BEALE
-5.09781	BEAM
-6.31217	BEAM'S
-6.31217	BEAMED
-6.444169	BEAMERS
-6.209422	BEAMING
-5.459823	BEAMS
-5.598888	BEAN
-6.209422	BEANBAG
-6.209422	BEANE
-6.444169	BEANIE
-5.404062	BEANS
-6.444169	BEANSPROUTS
-4.48237	BEAR
-5.431048	BEARD
-6.068018	BEARDED
-6.444169	BEARDEN
-6.209422	BEARDS
-6.31217	BEARER
-6.209422	BEARERS
-5.431048	BEARING
-5.876064	BEARINGS
-4.813907	BEARS
-5.404062	BEAST
-6.444169	BEASTLY
-5.598888	BEASTS
-4.488683	BEAT
-6.444169	BEATABLE
-6.444169	BEATBOX
-6.444169	BEATBOXER
-6.444169	BEATBUGS
-4.984658	BEATEN
-4.919991	BEATING
-6.444169	BEATINGS
-6.31217	BEATJAZZ
-6.444169	BEATJAZZERS
-6.444169	BEATLE
-5.523813	BEATLES
-6.444169	BEATLESRECORD
-6.444169	BEATLESWHITE
-5.876064	BEATRICE
-6.444169	BEATRICE'S
-6.444169	BEATRICES
-6.444169	BEATRIX
-5.354652	BEATS
-6.444169	BEATTY
-5.804689	BEAU
-6.31217	BEAUCOUP
-6.209422	BEAUFORT
-6.444169	BEAUMARIS
-6.444169	BEAUT
-6.444169	BEAUTIES
-6.31217	BEAUTIFICATION
-3.725075	BEAUTIFUL
-6.444169	BEAUTIFULLER
-4.911492	BEAUTIFULLY
-4.226887	BEAUTY
-6.444169	BEAUTY'S
-5.459823	BEAVER
-5.689711	BEAVERS
-6.444169	BEBASINGSTOKE.SO
-6.444169	BEBKO
-6.444169	BEBOP
-3.788059	BECAME
-2.553367	BECAUSE
-6.444169	BECAUSE90S
-6.444169	BECHSTEIN'S
-5.431048	BECK
-6.31217	BECK'S
-6.444169	BECKER
-5.961521	BECKETT
-6.444169	BECKETT'S
-6.31217	BECKHAM
-6.444169	BECKONING
-6.209422	BECKONS
-6.209422	BECKSTROM
-6.444169	BECKY
-6.444169	BECO
-3.496182	BECOME
-4.051723	BECOMES
-4.246461	BECOMING
-6.444169	BECOS
-4.248285	BED
-6.444169	BEDDING
-6.444169	BEDDINGTON
-6.444169	BEDECKED
-6.444169	BEDEVIL
-6.444169	BEDEVILED
-6.209422	BEDFELLOWS
-6.31217	BEDLAM
-6.444169	BEDNETS
-5.689711	BEDOUIN
-6.444169	BEDOUINS
-6.31217	BEDRIDDEN
-5.490641	BEDROCK
-4.946536	BEDROOM
-5.876064	BEDROOMS
-5.199273	BEDS
-5.598888	BEDSIDE
-6.209422	BEDSORES
-5.523813	BEDTIME
-4.717802	BEE
-6.068018	BEE'S
-6.31217	BEECH
-5.110932	BEEF
-6.209422	BEEFALO
-5.743406	BEEHIVE
-5.961521	BEEHIVES
-6.068018	BEEKEEPER
-5.331908	BEEKEEPERS
-5.743406	BEEKEEPING
-6.068018	BEELINE
-6.444169	BEELZEBUB
-2.930437	BEEN
-6.444169	BEENS
-5.523813	BEEP
-6.209422	BEEPER
-6.444169	BEEPERS
-6.31217	BEEPING
-6.209422	BEEPS
-4.734275	BEER
-6.444169	BEERMAT
-5.64193	BEERS
-6.31217	BEERY
-4.394707	BEES
-6.444169	BEESRECENTLY
-6.209422	BEESWAX
-6.444169	BEET
-5.331908	BEETHOVEN
-5.961521	BEETHOVEN'S
-5.15286	BEETLE
-6.068018	BEETLE'S
-5.09781	BEETLES
-6.444169	BEETROOT
-6.444169	BEETROOTS
-6.31217	BEETS
-6.31217	BEFALLEN
-6.444169	BEFITTING
-6.31217	BEFITTINGLY
-3.225217	BEFORE
-6.444169	BEFORE95
-5.64193	BEFOREHAND
-6.444169	BEFOREWARD
-6.31217	BEFRIEND
-6.31217	BEFRIENDED
-6.444169	BEFRIENDS
-6.444169	BEFT
-6.444169	BEFUDDLE
-6.444169	BEFUDDLED
-5.598888	BEG
-3.896914	BEGAN
-5.876064	BEGETS
-6.444169	BEGETTING
-6.31217	BEGGAR
-6.209422	BEGGARS
-6.068018	BEGGED
-5.431048	BEGGING
-3.891254	BEGIN
-6.068018	BEGINNER
-6.31217	BEGINNER'S
-3.940543	BEGINNERS
-3.757488	BEGINNING
-5.270051	BEGINNINGS
-4.466979	BEGINS
-5.876064	BEGS
-6.444169	BEGUILING
-4.863718	BEGUN
-5.072698	BEHALF
-6.31217	BEHAN
-6.209422	BEHAR
-4.75726	BEHAVE
-5.523813	BEHAVED
-5.490641	BEHAVES
-5.378655	BEHAVING
-3.938746	BEHAVIOR
-4.639158	BEHAVIORAL
-6.068018	BEHAVIORALLY
-6.31217	BEHAVIORISM
-4.584324	BEHAVIORS
-6.068018	BEHEADED
-6.444169	BEHEMOTH
-3.881719	BEHIND
-5.085073	BEHOLD
-6.209422	BEHOLDER
-6.444169	BEHOOVE
-6.31217	BEHOOVES
-6.209422	BEIGE
-5.876064	BEIJERINCK
-6.444169	BEIJERINCK'S
-4.974809	BEIJING
-6.444169	BEIJING'S
-3.172864	BEING
-6.209422	BEING'S
-6.444169	BEINGNESS
-4.22863	BEINGS
-6.444169	BEINHOCKER
-6.209422	BEIRUT
-6.444169	BEJESUS
-6.209422	BEJEWELED
-6.444169	BEKÁA
-6.209422	BELA
-6.444169	BELABOR
-6.444169	BELACQUA
-6.444169	BELAHAL
-6.444169	BELARUS
-6.444169	BELARUSSIAN
-6.444169	BELATEDLY
-6.209422	BELCHING
-6.31217	BELEAGUERED
-6.209422	BELFAST
-6.444169	BELFRY
-6.31217	BELGIAN
-5.64193	BELGIUM
-6.444169	BELGRADE
-6.444169	BELIE
-4.518283	BELIEF
-4.800664	BELIEFS
-6.444169	BELIES
-5.876064	BELIEVABLE
-3.481552	BELIEVE
-4.449202	BELIEVED
-6.31217	BELIEVEDCAUSE
-5.431048	BELIEVER
-5.64193	BELIEVERS
-5.026451	BELIEVES
-4.965178	BELIEVING
-6.444169	BELIEVINTHAT
-6.209422	BELINDA
-6.31217	BELITTLE
-6.444169	BELIZE
-6.31217	BELK
-4.781529	BELL
-6.444169	BELL'S
-6.444169	BELLE
-6.444169	BELLER
-6.068018	BELLEVUE
-6.209422	BELLIES
-6.444169	BELLINGHAM
-6.444169	BELLOS
-6.31217	BELLOTTO
-6.068018	BELLOWS
-5.598888	BELLS
-5.876064	BELLWETHER
-6.444169	BELLWETHERS
-5.072698	BELLY
-6.444169	BELLYDANCING
-6.444169	BELMAR
-6.444169	BELO
-6.209422	BELOIT
-4.871325	BELONG
-5.598888	BELONGED
-5.354652	BELONGING
-5.961521	BELONGINGS
-4.328345	BELONGS
-5.310295	BELOVED
-6.444169	BELOVED60S
-3.780523	BELOW
-6.068018	BELSHAZZAR
-6.444169	BELSHAZZAR'S
-5.072698	BELT
-5.598888	BELTS
-6.444169	BELTWAY
-6.31217	BELUGA
-6.444169	BEM
-6.444169	BEMBA
-6.31217	BEMUSED
-4.903156	BEN
-6.209422	BEN'S
-6.444169	BENAZIR
-5.215916	BENCH
-5.743406	BENCHES
-6.444169	BENCHING
-5.559731	BENCHMARK
-6.31217	BENCHMARKING
-6.444169	BENCHMARKS
-6.444169	BENCHWARMER
-4.903156	BEND
-6.444169	BENDED
-6.209422	BENDER
-6.444169	BENDIKSEN
-5.289707	BENDING
-6.444169	BENDIT'S
-5.523813	BENDS
-4.871325	BENEATH
-6.209422	BENEDICT
-6.444169	BENEDICTA
-5.183244	BENEFICIAL
-5.961521	BENEFICIARIES
-6.209422	BENEFICIARY
-6.209422	BENEFIELD
-4.405072	BENEFIT
-5.598888	BENEFITED
-5.689711	BENEFITING
-4.362632	BENEFITS
-6.444169	BENEFITTED
-6.444169	BENES
-6.209422	BENEVOLENCE
-5.961521	BENEVOLENT
-6.444169	BENEVOLENTLY
-6.209422	BENGAL
-6.31217	BENGALI
-6.444169	BENGALS
-6.31217	BENGHAZI
-6.444169	BENIGHTED
-5.167787	BENIGN
-6.31217	BENIGNLY
-5.060667	BENJAMIN
-6.444169	BENJAMIN'S
-6.209422	BENJAMÍN
-5.459823	BENKI
-6.31217	BENKI'S
-6.444169	BENKLER
-6.444169	BENKLER'S
-6.444169	BENKYO
-6.444169	BENNER
-6.209422	BENNETT
-6.209422	BENNINGTON
-6.444169	BENNINGTON'S
-5.961521	BENOIT
-6.444169	BENSON
-6.444169	BENSON'S
-5.354652	BENT
-6.444169	BENTHAM
-6.444169	BENTHIC
-6.444169	BENTLEY
-6.444169	BENTLEYS
-6.31217	BENTO
-6.444169	BENTONITE
-6.444169	BENTONVILLE
-6.209422	BENYUS
-6.068018	BENZ
-6.068018	BENZENE
-6.444169	BENZER
-6.444169	BEQUEATHED
-6.444169	BEQUEATHING
-6.444169	BEQUEATHS
-6.444169	BERANEK
-6.444169	BERATE
-6.444169	BERBERIAN
-6.444169	BEREAVED
-6.444169	BEREAVEMENT
-6.31217	BEREFT
-6.444169	BERET
